{"learner":{"attributes":{"scikit_learn":"{\"_estimator_type\": \"classifier\"}"},"feature_names":["embarazos","partos_viables","edad_gestacional","edad","imc","diabetes","hipertension","presion_sistolica","presion_diastolica","hemoglobina"],"feature_types":["float","float","float","float","float","float","float","float","float","float"],"gradient_booster":{"model":{"gbtree_model_param":{"num_parallel_tree":"1","num_trees":"450"},"iteration_indptr":[0,3,6,9,12,15,18,21,24,27,30,33,36,39,42,45,48,51,54,57,60,63,66,69,72,75,78,81,84,87,90,93,96,99,102,105,108,111,114,117,120,123,126,129,132,135,138,141,144,147,150,153,156,159,162,165,168,171,174,177,180,183,186,189,192,195,198,201,204,207,210,213,216,219,222,225,228,231,234,237,240,243,246,249,252,255,258,261,264,267,270,273,276,279,282,285,288,291,294,297,300,303,306,309,312,315,318,321,324,327,330,333,336,339,342,345,348,351,354,357,360,363,366,369,372,375,378,381,384,387,390,393,396,399,402,405,408,411,414,417,420,423,426,429,432,435,438,441,444,447,450],"tree_info":[0,1,2,0,1,2,0,1,2,0,1,2,0,1,2,0,1,2,0,1,2,0,1,2,0,1,2,0,1,2,0,1,2,0,1,2,0,1,2,0,1,2,0,1,2,0,1,2,0,1,2,0,1,2,0,1,2,0,1,2,0,1,2,0,1,2,0,1,2,0,1,2,0,1,2,0,1,2,0,1,2,0,1,2,0,1,2,0,1,2,0,1,2,0,1,2,0,1,2,0,1,2,0,1,2,0,1,2,0,1,2,0,1,2,0,1,2,0,1,2,0,1,2,0,1,2,0,1,2,0,1,2,0,1,2,0,1,2,0,1,2,0,1,2,0,1,2,0,1,2,0,1,2,0,1,2,0,1,2,0,1,2,0,1,2,0,1,2,0,1,2,0,1,2,0,1,2,0,1,2,0,1,2,0,1,2,0,1,2,0,1,2,0,1,2,0,1,2,0,1,2,0,1,2,0,1,2,0,1,2,0,1,2,0,1,2,0,1,2,0,1,2,0,1,2,0,1,2,0,1,2,0,1,2,0,1,2,0,1,2,0,1,2,0,1,2,0,1,2,0,1,2,0,1,2,0,1,2,0,1,2,0,1,2,0,1,2,0,1,2,0,1,2,0,1,2,0,1,2,0,1,2,0,1,2,0,1,2,0,1,2,0,1,2,0,1,2,0,1,2,0,1,2,0,1,2,0,1,2,0,1,2,0,1,2,0,1,2,0,1,2,0,1,2,0,1,2,0,1,2,0,1,2,0,1,2,0,1,2,0,1,2,0,1,2,0,1,2,0,1,2,0,1,2,0,1,2,0,1,2,0,1,2,0,1,2,0,1,2,0,1,2,0,1,2,0,1,2,0,1,2,0,1,2,0,1,2,0,1,2,0,1,2,0,1,2,0,1,2,0,1,2,0,1,2,0,1,2,0,1,2,0,1,2,0,1,2,0,1,2,0,1,2,0,1,2,0,1,2,0,1,2,0,1,2,0,1,2,0,1,2,0,1,2,0,1,2,0,1,2],"trees":[{"base_weights":[1.5907862E-3,6.709886E-1,-7.398163E-1,-7.4980505E-2,1.1430643E0,-8.633098E-2,-7.478365E-1,-7.487457E-2,1.2460188E0,-7.402598E-2,4.5088753E-1,-6.137405E-1,-7.499447E-2,1.3281544E0,-7.482751E-2,-7.080746E-2,7.142857E-1,-7.2677225E-1,-2.8790793E-1,1.3830125E0,-7.472438E-2,8.9465153E-1,-6.705883E-2,-2.0689659E-2,-7.327286E-2,-1.2467537E-1,-7.0344836E-2,-7.4473076E-2,1.4127752E-1,1.03339195E-1,-6.31579E-2,-4.9756106E-2,2.8571425E-2],"categories":[],"categories_nodes":[],"categories_segments":[],"categories_sizes":[],"default_left":[0,0,0,0,0,0,0,0,0,0,0,0,0,0,0,0,0,0,0,0,0,0,0,0,0,0,0,0,0,0,0,0,0],"id":0,"left_children":[1,3,5,-1,7,9,11,-1,13,-1,15,17,-1,19,-1,-1,21,23,25,27,-1,29,-1,-1,-1,31,-1,-1,-1,-1,-1,-1,-1],"loss_changes":[1.4559236E4,1.0341081E4,7.288721E1,0E0,2.2548389E3,6.001619E1,3.4267578E0,0E0,1.7987656E3,0E0,2.916709E1,7.831848E0,0E0,1.2012012E3,0E0,0E0,1.9833302E1,3.4832E-1,3.8388844E0,6.514453E2,0E0,1.5169289E1,0E0,0E0,0E0,6.688375E0,0E0,0E0,0E0,0E0,0E0,0E0,0E0],"parents":[2147483647,0,0,1,1,2,2,4,4,5,5,6,6,8,8,10,10,11,11,13,13,16,16,17,17,18,18,19,19,21,21,25,25],"right_children":[2,4,6,-1,8,10,12,-1,14,-1,16,18,-1,20,-1,-1,22,24,26,28,-1,30,-1,-1,-1,32,-1,-1,-1,-1,-1,-1,-1],"split_conditions":[-5.656457E-1,6.6502243E-1,-5.484406E-1,-7.4980505E-2,-5.5610436E-1,6.6502243E-1,-5.140303E-1,-7.487457E-2,6.4190537E-1,-7.402598E-2,-7.95488E-1,8.4006685E-1,-7.499447E-2,1.5014273E0,-7.482751E-2,-7.080746E-2,1.5014273E0,-2.2353654E0,3.6107895E-1,-1.137472E0,-7.472438E-2,6.4190537E-1,-6.705883E-2,-2.0689659E-2,-7.327286E-2,-5.283076E-1,-7.0344836E-2,-7.4473076E-2,1.4127752E-1,1.03339195E-1,-6.31579E-2,-4.9756106E-2,2.8571425E-2],"split_indices":[4,9,4,0,1,9,4,0,3,0,1,9,0,5,0,0,5,8,3,3,0,3,0,0,0,3,0,0,0,0,0,0,0],"split_type":[0,0,0,0,0,0,0,0,0,0,0,0,0,0,0,0,0,0,0,0,0,0,0,0,0,0,0,0,0,0,0,0,0],"sum_hessian":[2.9333775E4,1.5415555E4,1.3918222E4,3.8444443E3,1.157111E4,1.6888889E2,1.3749332E4,5.9688885E2,1.0974222E4,7.599999E1,9.2888885E1,2.1733331E2,1.3531999E4,1.0540443E4,4.3377774E2,1.6888887E1,7.599999E1,1.6044443E2,5.6888885E1,1.0269333E4,2.7111108E2,6.755555E1,8.444444E0,2.222222E0,1.5822221E2,4.1777775E1,1.5111111E1,1.4133333E2,1.0127999E4,6.2222218E1,5.333333E0,2.1777777E1,1.9999998E1],"tree_param":{"num_deleted":"0","num_feature":"10","num_nodes":"33","size_leaf_vector":"1"}},{"base_weights":[-1.8460174E-3,1.1010082E-1,-1.723544E-1,2.7236438E-1,-3.051878E-1,1.0376743E0,-2.971917E-1,-1.10553876E-1,3.4784144E-1,-4.3570182E-1,6.0607135E-1,1.193532E0,4.0102825E-1,-4.1711676E-1,1.014291E0,2.712074E-1,-2.416165E-1,4.695114E-1,2.4222068E-2,-2.9323563E-1,-7.4798934E-2,8.929016E-1,3.906588E-1,1.3330775E0,1.0539523E0,6.120953E-1,-7.0031554E-1,-4.9706027E-1,8.781786E-1,1.1359323E0,6.8798536E-1,4.4598335E-1,-8.41122E-2,-2.9521793E-2,-3.6067757E-1,7.445471E-1,2.5734937E-1,1.112136E0,-1.4133443E-1,-7.489624E-2,-1.4858875E-1,1.0413058E0,6.4122134E-1,-2.864943E-2,5.117577E-1,1.339327E0,-1.2000003E-2,1.2385604E0,8.740849E-1,-6.2176174E-1,7.7219546E-1,-7.275748E-2,-1.2000003E-2,1.1967213E0,-5.555514E-1,1.0905722E0,6.8073875E-1,1.2193199E0,8.5714287E-1,9.482289E-1,4.2114857E-1,7.913741E-2,2.919062E-2,2.0366969E-2,-2.3012167E-2,9.416248E-3,-2.801904E-2,-2.6709069E-2,-5.164153E-2,8.454075E-2,4.532346E-2,5.3331714E-2,5.884656E-3,1.2481846E-1,8.2321905E-2,-2.9334068E-2,1.0059948E-1,-7.409977E-2,-1.6097345E-3,1.1935915E-1,8.7910645E-2,7.151819E-2,1.3953485E-2,2.1311473E-2,-7.1502596E-2,5.9555557E-2,1.5821498E-2,1.4088754E-1,1.2296015E-1,1.2736009E-1,8.432432E-2,1.0108074E-1,4.1443296E-2,-3.2511627E-9,-7.1005926E-2,8.52349E-2,-1.7355377E-2,1.4073412E-1,1.04642645E-1,-5.92941E-2,9.685039E-2,1.1251602E-1,1.5463914E-2,7.50934E-2,-1.1857752E-3,1.3483147E-1,1.1216582E-1,9.4936706E-2,2.380952E-2,5.4151624E-2,1.0732293E-1,4.9069535E-2,-4.588236E-2],"categories":[],"categories_nodes":[],"categories_segments":[],"categories_sizes":[],"default_left":[0,0,0,0,0,0,0,0,0,0,0,0,0,0,0,0,0,0,0,0,0,0,0,0,0,0,0,0,0,0,0,0,0,0,0,0,0,0,0,0,0,0,0,0,0,0,0,0,0,0,0,0,0,0,0,0,0,0,0,0,0,0,0,0,0,0,0,0,0,0,0,0,0,0,0,0,0,0,0,0,0,0,0,0,0,0,0,0,0,0,0,0,0,0,0,0,0,0,0,0,0,0,0,0,0,0,0,0,0,0,0,0,0],"id":1,"left_children":[1,3,5,7,9,11,13,15,17,19,21,23,25,27,29,31,33,35,37,39,-1,41,43,45,47,49,51,53,55,57,59,61,63,65,67,69,71,73,75,-1,77,79,81,83,85,87,-1,89,91,93,95,-1,-1,97,99,101,103,105,107,109,111,-1,-1,-1,-1,-1,-1,-1,-1,-1,-1,-1,-1,-1,-1,-1,-1,-1,-1,-1,-1,-1,-1,-1,-1,-1,-1,-1,-1,-1,-1,-1,-1,-1,-1,-1,-1,-1,-1,-1,-1,-1,-1,-1,-1,-1,-1,-1,-1,-1,-1,-1,-1],"loss_changes":[5.618408E2,1.1974385E3,1.7625195E3,3.6931354E2,5.9403906E2,1.0779907E2,1.66376E3,1.0536618E2,4.202528E2,1.9409991E2,3.8322876E1,1.565979E1,5.0665276E1,1.00387476E3,3.4399048E1,3.3468723E1,3.95652E1,4.5244592E2,5.2562164E2,1.9771298E2,0E0,9.329742E0,1.8255154E1,4.1047974E0,1.3619812E1,3.6410583E1,4.6987343E-1,9.0495386E2,2.2894897E1,1.3928833E1,1.6490623E1,1.8980263E1,7.5402346E0,1.752973E1,1.4490524E1,9.885254E1,2.399371E2,1.4123047E1,4.4205325E2,0E0,1.7888214E2,3.070221E0,3.6807976E0,1.3667375E1,8.164879E0,1.5685425E0,0E0,1.9196167E0,1.3888763E1,1.1773005E0,1.2386246E1,0E0,0E0,8.182068E0,5.0337988E2,8.562866E0,1.4340118E1,4.7040405E0,8.432793E0,5.6381607E0,7.6846523E0,0E0,0E0,0E0,0E0,0E0,0E0,0E0,0E0,0E0,0E0,0E0,0E0,0E0,0E0,0E0,0E0,0E0,0E0,0E0,0E0,0E0,0E0,0E0,0E0,0E0,0E0,0E0,0E0,0E0,0E0,0E0,0E0,0E0,0E0,0E0,0E0,0E0,0E0,0E0,0E0,0E0,0E0,0E0,0E0,0E0,0E0,0E0,0E0,0E0,0E0,0E0,0E0],"parents":[2147483647,0,0,1,1,2,2,3,3,4,4,5,5,6,6,7,7,8,8,9,9,10,10,11,11,12,12,13,13,14,14,15,15,16,16,17,17,18,18,19,19,21,21,22,22,23,23,24,24,25,25,26,26,27,27,28,28,29,29,30,30,31,31,32,32,33,33,34,34,35,35,36,36,37,37,38,38,40,40,41,41,42,42,43,43,44,44,45,45,47,47,48,48,49,49,50,50,53,53,54,54,55,55,56,56,57,57,58,58,59,59,60,60],"right_children":[2,4,6,8,10,12,14,16,18,20,22,24,26,28,30,32,34,36,38,40,-1,42,44,46,48,50,52,54,56,58,60,62,64,66,68,70,72,74,76,-1,78,80,82,84,86,88,-1,90,92,94,96,-1,-1,98,100,102,104,106,108,110,112,-1,-1,-1,-1,-1,-1,-1,-1,-1,-1,-1,-1,-1,-1,-1,-1,-1,-1,-1,-1,-1,-1,-1,-1,-1,-1,-1,-1,-1,-1,-1,-1,-1,-1,-1,-1,-1,-1,-1,-1,-1,-1,-1,-1,-1,-1,-1,-1,-1,-1,-1,-1],"split_conditions":[9.119301E-1,1.5014273E0,-5.5610436E-1,-1.0062199E0,5.97526E-1,1.5014273E0,6.4190537E-1,-4.766168E-1,6.801349E-1,6.4190537E-1,-2.6644132E-1,-1.6135357E-1,6.4190537E-1,1.5014273E0,1.5014273E0,1.6688758E0,-2.0358011E-1,-1.6135357E-1,-5.5610436E-1,-7.95488E-1,-7.4798934E-2,2.0212361E-1,-7.95488E-1,2.480044E0,-2.781794E-1,-1.137472E0,1.8172561E0,-1.137472E0,-5.626583E-2,1.6688758E0,3.3977132E-2,-4.5352417E-1,-4.3190822E-1,1.6688758E0,1.6688758E0,1.6688758E0,-1.9705518E-1,4.6917287E-1,6.4190537E-1,-7.489624E-2,-1.137472E0,-8.9696777E-1,1.2350312E0,6.4190537E-1,9.384683E-1,4.6317466E-2,-1.2000003E-2,1.5200503E0,1.6688758E0,1.048295E0,1.3607746E0,-7.275748E-2,-1.2000003E-2,-4.766168E-1,1.6688758E0,1.6688018E0,1.2436577E0,-3.7626767E-1,1.1820564E0,1.0765269E0,1.9121743E0,7.913741E-2,2.919062E-2,2.0366969E-2,-2.3012167E-2,9.416248E-3,-2.801904E-2,-2.6709069E-2,-5.164153E-2,8.454075E-2,4.532346E-2,5.3331714E-2,5.884656E-3,1.2481846E-1,8.2321905E-2,-2.9334068E-2,1.0059948E-1,-7.409977E-2,-1.6097345E-3,1.1935915E-1,8.7910645E-2,7.151819E-2,1.3953485E-2,2.1311473E-2,-7.1502596E-2,5.9555557E-2,1.5821498E-2,1.4088754E-1,1.2296015E-1,1.2736009E-1,8.432432E-2,1.0108074E-1,4.1443296E-2,-3.2511627E-9,-7.1005926E-2,8.52349E-2,-1.7355377E-2,1.4073412E-1,1.04642645E-1,-5.92941E-2,9.685039E-2,1.1251602E-1,1.5463914E-2,7.50934E-2,-1.1857752E-3,1.3483147E-1,1.1216582E-1,9.4936706E-2,2.380952E-2,5.4151624E-2,1.0732293E-1,4.9069535E-2,-4.588236E-2],"split_indices":[9,5,1,9,9,5,3,8,9,3,8,8,3,5,5,6,7,8,1,1,0,7,1,7,7,3,9,3,8,6,7,7,7,6,6,6,7,8,3,0,3,8,3,3,3,7,0,8,6,9,7,0,0,8,6,7,7,8,7,9,7,0,0,0,0,0,0,0,0,0,0,0,0,0,0,0,0,0,0,0,0,0,0,0,0,0,0,0,0,0,0,0,0,0,0,0,0,0,0,0,0,0,0,0,0,0,0,0,0,0,0,0,0],"split_type":[0,0,0,0,0,0,0,0,0,0,0,0,0,0,0,0,0,0,0,0,0,0,0,0,0,0,0,0,0,0,0,0,0,0,0,0,0,0,0,0,0,0,0,0,0,0,0,0,0,0,0,0,0,0,0,0,0,0,0,0,0,0,0,0,0,0,0,0,0,0,0,0,0,0,0,0,0,0,0,0,0,0,0,0,0,0,0,0,0,0,0,0,0,0,0,0,0,0,0,0,0,0,0,0,0,0,0,0,0,0,0,0,0],"sum_hessian":[2.9432443E4,1.7767555E4,1.1664889E4,1.2775999E4,4.991555E3,1.0902222E3,1.0574666E4,2.1035554E3,1.0672443E4,4.3666665E3,6.2488885E2,8.751111E2,2.151111E2,9.689333E3,8.8533325E2,5.373333E2,1.5662222E3,7.7559995E3,2.9164443E3,2.9999998E3,1.3666666E3,2.6666666E2,3.582222E2,4.333333E2,4.4177774E2,1.8088889E2,3.422222E1,9.126666E3,5.626666E2,6.431111E2,2.4222221E2,3.5999997E2,1.7733333E2,5.6355554E2,1.0026666E3,3.3764443E3,4.379555E3,3.8444443E2,2.5319998E3,7.217777E2,2.2782222E3,1.6577777E2,1.00888885E2,8.044444E1,2.7777777E2,4.3155554E2,1.7777777E0,2.151111E2,2.2666666E2,2.0444443E1,1.6044443E2,3.2444443E1,1.7777777E0,3.0399997E2,8.822666E3,2.688889E2,2.9377777E2,4.9244443E2,1.5066666E2,1.2133333E2,1.20888885E2,1.0977777E2,2.5022221E2,5.9555553E1,1.1777777E2,3.7777774E2,1.8577777E2,6.2799994E2,3.7466666E2,2.5066665E3,8.697777E2,1.8315554E3,2.5479998E3,2.5911108E2,1.2533333E2,2.2364443E3,2.9555554E2,4.1555554E2,1.8626665E3,8.222221E1,8.355555E1,8.755555E1,1.3333332E1,5.9999996E1,2.0444443E1,2.2399998E2,5.3777775E1,2.568889E2,1.7466666E2,1.9555554E2,1.9555553E1,1.7377777E2,5.2888885E1,2.6666665E0,1.7777777E1,1.4799998E2,1.2444444E1,1.2311111E2,1.8088889E2,8.611999E3,2.1066666E2,2.5911108E2,9.777777E0,2.6666666E2,2.7111109E1,2.0666666E2,2.8577777E2,1.3066666E2,1.9999998E1,2.9777777E1,9.155555E1,1.12444435E2,8.444444E0],"tree_param":{"num_deleted":"0","num_feature":"10","num_nodes":"113","size_leaf_vector":"1"}},{"base_weights":[9.060446E-5,6.5762216E-1,-5.613985E-1,4.0861547E-1,1.1858697E0,-6.326358E-1,6.338457E-2,8.286849E-2,6.33708E-1,1.0463152E0,1.4966488E-1,-6.7332023E-1,-1.0703833E-1,-2.1608293E-1,2.620133E-1,3.9279494E-1,-1.1517823E-1,8.5694546E-1,3.8033682E-1,1.4926592E-1,9.312416E-1,-6.984122E-1,-4.4367823E-1,-3.9614627E-1,7.209257E-2,-3.373156E-1,6.919271E-2,1.00018375E-1,5.419725E-1,2.2699654E-1,7.519789E-1,-2.4480163E-1,2.4793385E-1,-7.373359E-2,8.8992906E-1,8.390955E-2,5.960743E-1,5.895954E-1,1.098979E0,-7.135591E-1,-4.7375393E-1,-5.6126446E-1,-6.64049E-2,-5.1099676E-1,-2.1841547E-1,-1.6188875E-1,3.2459012E-1,-4.192635E-1,-9.809269E-2,-1.8105455E-3,7.456647E-1,3.770859E-2,6.153846E-1,-6.804124E-2,5.793103E-1,-2.3709603E-3,4.2908438E-2,-6.923078E-2,7.919232E-2,-4.1499775E-2,-1.2016344E-2,1.3713123E-2,7.314906E-2,6.51131E-2,1.0309986E-1,-5.6415494E-3,4.319569E-2,-7.3333345E-2,6.373924E-2,9.7536296E-2,4.069165E-2,1.2605481E-1,9.492609E-2,-4.7605038E-2,-7.2266854E-2,-5.924012E-2,-3.1621903E-2,-6.0186572E-2,-3.6613423E-2,1.6454453E-2,-1.9787597E-2,-5.988648E-2,-4.2148765E-2,-3.667101E-2,-3.7441545E-3,-4.1194037E-2,-3.35196E-3,-7.0344836E-2,3.8060557E-2,-1.3753587E-2,-4.5259085E-2,1.2244898E-1,-1.5834125E-2,-1.4614709E-2,3.0167595E-2,2.3595503E-2,1.1612903E-1,1.3617489E-2,-2.4739798E-2,1.076923E-1,4.90566E-2,1.4314722E-1,5.1872592E-2],"categories":[],"categories_nodes":[],"categories_segments":[],"categories_sizes":[],"default_left":[0,0,0,0,0,0,0,0,0,0,0,0,0,0,0,0,0,0,0,0,0,0,0,0,0,0,0,0,0,0,0,0,0,0,0,0,0,0,0,0,0,0,0,0,0,0,0,0,0,0,0,0,0,0,0,0,0,0,0,0,0,0,0,0,0,0,0,0,0,0,0,0,0,0,0,0,0,0,0,0,0,0,0,0,0,0,0,0,0,0,0,0,0,0,0,0,0,0,0,0,0,0,0],"id":2,"left_children":[1,3,5,7,9,11,13,15,17,19,-1,21,23,25,27,29,31,33,35,-1,37,39,41,43,45,47,49,51,53,55,57,59,61,-1,63,65,67,69,71,73,75,77,79,81,83,85,87,89,91,93,95,97,99,-1,101,-1,-1,-1,-1,-1,-1,-1,-1,-1,-1,-1,-1,-1,-1,-1,-1,-1,-1,-1,-1,-1,-1,-1,-1,-1,-1,-1,-1,-1,-1,-1,-1,-1,-1,-1,-1,-1,-1,-1,-1,-1,-1,-1,-1,-1,-1,-1,-1],"loss_changes":[1.0861195E4,1.7818882E3,7.062954E2,6.7531116E2,1.8668652E2,3.0451904E2,9.02608E1,2.311406E2,3.0775464E2,1.5263452E2,0E0,7.586914E1,5.3088417E1,2.3391083E1,4.3045273E1,8.725844E1,1.0821732E2,1.5287866E2,1.6321548E2,0E0,1.3613037E2,4.0212402E1,5.7855316E1,7.8923416E0,3.747626E1,9.257618E0,9.719767E0,1.9347681E1,1.6282372E1,5.0973186E1,2.7272003E1,3.5882477E1,3.2315193E1,0E0,9.488403E1,5.2603073E1,8.162152E1,5.5142548E1,3.7499146E1,2.3805664E1,1.3936905E1,7.6607666E0,9.48225E0,1.6150856E0,4.1639667E0,1.0561E1,1.7831467E1,3.2521553E0,9.941855E0,8.108926E0,3.7981844E0,1.5171481E1,3.2162552E0,0E0,1.6724838E1,0E0,0E0,0E0,0E0,0E0,0E0,0E0,0E0,0E0,0E0,0E0,0E0,0E0,0E0,0E0,0E0,0E0,0E0,0E0,0E0,0E0,0E0,0E0,0E0,0E0,0E0,0E0,0E0,0E0,0E0,0E0,0E0,0E0,0E0,0E0,0E0,0E0,0E0,0E0,0E0,0E0,0E0,0E0,0E0,0E0,0E0,0E0,0E0],"parents":[2147483647,0,0,1,1,2,2,3,3,4,4,5,5,6,6,7,7,8,8,9,9,11,11,12,12,13,13,14,14,15,15,16,16,17,17,18,18,20,20,21,21,22,22,23,23,24,24,25,25,26,26,27,27,28,28,29,29,30,30,31,31,32,32,34,34,35,35,36,36,37,37,38,38,39,39,40,40,41,41,42,42,43,43,44,44,45,45,46,46,47,47,48,48,49,49,50,50,51,51,52,52,54,54],"right_children":[2,4,6,8,10,12,14,16,18,20,-1,22,24,26,28,30,32,34,36,-1,38,40,42,44,46,48,50,52,54,56,58,60,62,-1,64,66,68,70,72,74,76,78,80,82,84,86,88,90,92,94,96,98,100,-1,102,-1,-1,-1,-1,-1,-1,-1,-1,-1,-1,-1,-1,-1,-1,-1,-1,-1,-1,-1,-1,-1,-1,-1,-1,-1,-1,-1,-1,-1,-1,-1,-1,-1,-1,-1,-1,-1,-1,-1,-1,-1,-1,-1,-1,-1,-1,-1,-1],"split_conditions":[5.97526E-1,1.5014273E0,1.5014273E0,-1.6135357E-1,6.4190537E-1,1.6688758E0,-2.6644132E-1,-5.277394E-1,-3.5668218E-1,-1.137472E0,1.4966488E-1,6.7934835E-1,-3.7152904E-1,4.5193854E-1,2.896901E-1,1.6688758E0,1.6688758E0,-1.6783248E0,-1.9705518E-1,1.4926592E-1,-2.6644132E-1,7.407597E-1,2.896901E-1,1.2744167E-1,3.3977132E-2,6.4190537E-1,1.9121743E0,1.4149625E0,-1.6783248E0,-1.17504776E-1,-1.6783248E0,-2.781794E-1,9.386838E-1,-7.373359E-2,-2.0358011E-1,1.6688758E0,-1.6783248E0,-7.1758014E-1,-5.277394E-1,-1.137472E0,-2.6644132E-1,5.4305106E-1,9.119301E-1,-6.287745E-1,-9.259376E-1,-9.271731E-1,-1.6783248E0,-1.2363263E0,-1.24044E0,6.4190537E-1,9.9719083E-1,1.3226558E0,-1.1352555E0,-6.804124E-2,-1.24044E0,-2.3709603E-3,4.2908438E-2,-6.923078E-2,7.919232E-2,-4.1499775E-2,-1.2016344E-2,1.3713123E-2,7.314906E-2,6.51131E-2,1.0309986E-1,-5.6415494E-3,4.319569E-2,-7.3333345E-2,6.373924E-2,9.7536296E-2,4.069165E-2,1.2605481E-1,9.492609E-2,-4.7605038E-2,-7.2266854E-2,-5.924012E-2,-3.1621903E-2,-6.0186572E-2,-3.6613423E-2,1.6454453E-2,-1.9787597E-2,-5.988648E-2,-4.2148765E-2,-3.667101E-2,-3.7441545E-3,-4.1194037E-2,-3.35196E-3,-7.0344836E-2,3.8060557E-2,-1.3753587E-2,-4.5259085E-2,1.2244898E-1,-1.5834125E-2,-1.4614709E-2,3.0167595E-2,2.3595503E-2,1.1612903E-1,1.3617489E-2,-2.4739798E-2,1.076923E-1,4.90566E-2,1.4314722E-1,5.1872592E-2],"split_indices":[9,5,5,8,3,6,8,9,9,3,0,8,8,7,7,6,6,0,7,0,8,3,7,7,7,3,7,8,0,7,0,7,7,0,7,6,0,9,9,3,8,3,9,7,8,7,0,3,0,3,9,9,3,0,0,0,0,0,0,0,0,0,0,0,0,0,0,0,0,0,0,0,0,0,0,0,0,0,0,0,0,0,0,0,0,0,0,0,0,0,0,0,0,0,0,0,0,0,0,0,0,0,0],"split_type":[0,0,0,0,0,0,0,0,0,0,0,0,0,0,0,0,0,0,0,0,0,0,0,0,0,0,0,0,0,0,0,0,0,0,0,0,0,0,0,0,0,0,0,0,0,0,0,0,0,0,0,0,0,0,0,0,0,0,0,0,0,0,0,0,0,0,0,0,0,0,0,0,0,0,0,0,0,0,0,0,0,0,0,0,0,0,0,0,0,0,0,0,0,0,0,0,0,0,0,0,0,0,0],"sum_hessian":[2.9416443E4,1.3549333E4,1.586711E4,9.209777E3,4.339555E3,1.424311E4,1.6239999E3,3.7639998E3,5.4457773E3,2.9977776E3,1.3417777E3,1.3219555E4,1.0235555E3,6.746666E2,9.4933325E2,1.4671111E3,2.2968887E3,2.8937776E3,2.5519998E3,6.1199994E2,2.3857776E3,1.1915555E4,1.3039999E3,3.9111108E2,6.324444E2,4.733333E2,2.0133333E2,6.0222217E2,3.4711108E2,1.00488885E3,4.622222E2,1.6928888E3,6.0399994E2,5.8222218E1,2.8355554E3,1.0755555E3,1.4764443E3,7.871111E2,1.5986666E3,1.1160889E4,7.546666E2,9.937777E2,3.102222E2,2.3644443E2,1.5466666E2,3.2844443E2,3.0399997E2,3.5199997E2,1.2133333E2,1.831111E2,1.8222221E1,5.3822217E2,6.3999996E1,9.777777E0,3.373333E2,4.4888885E2,5.5599994E2,1.1999999E1,4.502222E2,7.146666E2,9.7822217E2,4.9244443E2,1.1155555E2,1.0551111E3,1.7804443E3,7.671111E2,3.0844443E2,4.3999996E1,1.4324443E3,2.5155554E2,5.3555554E2,7.653333E2,8.333333E2,4.142222E2,1.0746666E4,4.2888885E2,3.2577777E2,8.2088885E2,1.7288889E2,1.12444435E2,1.9777777E2,1.16444435E2,1.1999999E2,8.444444E1,7.022222E1,1.1066666E2,2.1777777E2,1.5111111E1,2.888889E2,3.7777775E1,3.142222E2,4.444444E0,1.16888885E2,1.24444435E2,5.8666664E1,8.888888E0,9.333333E0,4.0044443E2,1.3777777E2,1.1999999E1,5.1999996E1,2.0888887E1,3.1644443E2],"tree_param":{"num_deleted":"0","num_feature":"10","num_nodes":"103","size_leaf_vector":"1"}},{"base_weights":[-2.2017006E-3,6.0263497E-1,-7.153967E-1,-7.231699E-2,1.0104539E0,-1.3877396E-1,-7.2245127E-1,1.0866766E0,-7.218257E-2,-7.132828E-2,3.035646E-1,-5.848204E-1,-7.246243E-2,1.1318496E0,-7.390771E-2,5.008616E-1,-6.796938E-2,-7.1860686E-2,-3.3673546E-1,-7.2010174E-2,1.1587497E0,7.866016E-1,3.0908657E-3,-1.2622656E-1,-6.454432E-1,1.1929756E-1,9.183238E-2,-5.8895487E-2,9.2974715E-2,6.8754084E-2,-2.993097E-2,-1.1054267E-3,-6.4700805E-2,-9.4398E-3,-6.7512915E-2],"categories":[],"categories_nodes":[],"categories_segments":[],"categories_sizes":[],"default_left":[0,0,0,0,0,0,0,0,0,0,0,0,0,0,0,0,0,0,0,0,0,0,0,0,0,0,0,0,0,0,0,0,0,0,0],"id":3,"left_children":[1,3,5,-1,7,9,11,13,-1,-1,15,17,-1,19,-1,21,-1,-1,23,-1,25,27,29,31,33,-1,-1,-1,-1,-1,-1,-1,-1,-1,-1],"loss_changes":[1.2621474E4,8.561116E3,5.451758E1,0E0,1.5995596E3,4.1771694E1,3.543457E0,9.5741797E2,0E0,0E0,1.8399174E1,6.77314E0,0E0,5.6470996E2,0E0,1.11070595E1,0E0,0E0,4.852927E0,0E0,9.071289E1,1.0317699E1,6.3094006E0,2.7752228E0,4.3588066E-1,0E0,0E0,0E0,0E0,0E0,0E0,0E0,0E0,0E0,0E0],"parents":[2147483647,0,0,1,1,2,2,4,4,5,5,6,6,7,7,10,10,11,11,13,13,15,15,18,18,20,20,21,21,22,22,23,23,24,24],"right_children":[2,4,6,-1,8,10,12,14,-1,-1,16,18,-1,20,-1,22,-1,-1,24,-1,26,28,30,32,34,-1,-1,-1,-1,-1,-1,-1,-1,-1,-1],"split_conditions":[-5.656457E-1,6.6502243E-1,-5.484406E-1,-7.231699E-2,1.5014273E0,5.97526E-1,-5.140303E-1,1.6688758E0,-7.218257E-2,-7.132828E-2,1.5014273E0,6.6502243E-1,-7.246243E-2,-1.24044E0,-7.390771E-2,-4.404278E-1,-6.796938E-2,-7.1860686E-2,-2.6426405E-1,-7.2010174E-2,3.7081432E-1,-1.24044E0,-1.2544388E0,1.5014273E0,6.801349E-1,1.1929756E-1,9.183238E-2,-5.8895487E-2,9.2974715E-2,6.8754084E-2,-2.993097E-2,-1.1054267E-3,-6.4700805E-2,-9.4398E-3,-6.7512915E-2],"split_indices":[4,9,4,0,5,9,4,6,0,0,5,9,0,0,0,7,0,0,7,0,7,0,8,5,9,0,0,0,0,0,0,0,0,0,0],"split_type":[0,0,0,0,0,0,0,0,0,0,0,0,0,0,0,0,0,0,0,0,0,0,0,0,0,0,0,0,0,0,0,0,0,0,0],"sum_hessian":[2.9257283E4,1.583138E4,1.3425904E4,3.7240042E3,1.2107375E4,1.6252097E2,1.3263384E4,1.1597445E4,5.0993036E2,7.0431755E1,9.208921E1,2.1035986E2,1.3053023E4,1.1317798E4,2.7964673E2,7.710768E1,1.498153E1,1.3542935E2,7.4930504E1,1.6167091E2,1.1156127E4,4.86185E1,2.848918E1,4.538869E1,2.9541817E1,9.762435E3,1.3936927E3,4.289001E0,4.4329502E1,8.339666E0,2.0149513E1,3.8005E1,7.3836875E0,1.723791E0,2.7818026E1],"tree_param":{"num_deleted":"0","num_feature":"10","num_nodes":"35","size_leaf_vector":"1"}},{"base_weights":[1.5583725E-3,1.3633469E-1,-4.177253E-2,-2.625088E-1,1.9346981E-1,-3.5959348E-1,3.6763206E-1,4.718328E-1,4.8770267E-4,4.037862E-1,-4.131606E-1,-1.428811E-1,4.8396453E-1,3.2523204E-2,5.810585E-1,2.51485E-1,-1.6556068E-1,5.689534E-1,5.0040456E-3,5.7029605E-1,-4.678488E-1,-6.285727E-1,3.5126028E-3,3.0112106E-2,5.6554383E-1,-3.107685E-1,2.2958328E-1,7.4269676E-1,3.9862594E-1,-1.4259544E-1,3.528234E-1,-4.5546657E-1,-6.708962E-2,-1.4159292E-3,6.924785E-2,3.4764078E-2,-1.9399254E-2,7.5317204E-2,9.552103E-3,-5.104745E-2,3.983458E-2,1.3183773E-3,-6.929748E-2,1.7539613E-2,-4.184884E-2,2.6997266E-2,-1.4654486E-2,8.16576E-2,3.6537223E-2,-1.7202383E-2,-7.071033E-2,3.8290266E-2,-2.2033907E-2,-1.2892239E-2,7.811841E-2,6.799244E-2,3.3551566E-2,8.5421297E-4,-5.0442375E-2,4.774767E-2,2.0475922E-2,-6.8575114E-2,-3.8176656E-2,2.2257403E-4,-3.2745436E-2],"categories":[],"categories_nodes":[],"categories_segments":[],"categories_sizes":[],"default_left":[0,0,0,0,0,0,0,0,0,0,0,0,0,0,0,0,0,0,0,0,0,0,0,0,0,0,0,0,0,0,0,0,0,0,0,0,0,0,0,0,0,0,0,0,0,0,0,0,0,0,0,0,0,0,0,0,0,0,0,0,0,0,0,0,0],"id":4,"left_children":[1,-1,3,5,7,9,11,13,15,17,19,21,23,25,27,29,31,33,35,37,39,41,43,45,47,49,51,53,55,57,59,61,63,-1,-1,-1,-1,-1,-1,-1,-1,-1,-1,-1,-1,-1,-1,-1,-1,-1,-1,-1,-1,-1,-1,-1,-1,-1,-1,-1,-1,-1,-1,-1,-1],"loss_changes":[1.7310116E3,0E0,1.476365E3,8.97481E2,7.3937604E2,5.199208E2,1.1639389E2,2.7038342E2,3.388598E2,5.4924194E1,6.390786E2,2.590276E1,5.905304E1,7.6052666E1,1.3278662E2,1.2932878E2,1.396602E2,4.248384E1,1.678913E1,5.429277E1,4.1566333E2,3.4962845E0,2.0448458E1,1.0384339E1,6.76528E1,2.2425724E1,4.934682E1,8.033594E1,3.744925E1,3.6254524E1,4.7433777E1,2.0791931E1,6.594188E1,0E0,0E0,0E0,0E0,0E0,0E0,0E0,0E0,0E0,0E0,0E0,0E0,0E0,0E0,0E0,0E0,0E0,0E0,0E0,0E0,0E0,0E0,0E0,0E0,0E0,0E0,0E0,0E0,0E0,0E0,0E0,0E0],"parents":[2147483647,0,0,2,2,3,3,4,4,5,5,6,6,7,7,8,8,9,9,10,10,11,11,12,12,13,13,14,14,15,15,16,16,17,17,18,18,19,19,20,20,21,21,22,22,23,23,24,24,25,25,26,26,27,27,28,28,29,29,30,30,31,31,32,32],"right_children":[2,-1,4,6,8,10,12,14,16,18,20,22,24,26,28,30,32,34,36,38,40,42,44,46,48,50,52,54,56,58,60,62,64,-1,-1,-1,-1,-1,-1,-1,-1,-1,-1,-1,-1,-1,-1,-1,-1,-1,-1,-1,-1,-1,-1,-1,-1,-1,-1,-1,-1,-1,-1,-1,-1],"split_conditions":[-1.6783248E0,1.3633469E-1,-5.828509E-1,5.4305106E-1,-1.6135357E-1,-5.5610436E-1,-7.95488E-1,-7.95488E-1,-1.9705518E-1,1.6688758E0,-1.137472E0,-1.24044E0,6.4190537E-1,3.4622666E-1,4.6317466E-2,-7.95488E-1,-7.95488E-1,-1.137472E0,-2.781794E-1,1.6688758E0,1.6688758E0,6.4190537E-1,7.7770776E-1,7.721217E-2,-1.6135357E-1,6.4190537E-1,6.4190537E-1,-5.484406E-1,-1.5010538E0,6.4190537E-1,6.7934835E-1,-1.24044E0,1.3098748E0,-1.4159292E-3,6.924785E-2,3.4764078E-2,-1.9399254E-2,7.5317204E-2,9.552103E-3,-5.104745E-2,3.983458E-2,1.3183773E-3,-6.929748E-2,1.7539613E-2,-4.184884E-2,2.6997266E-2,-1.4654486E-2,8.16576E-2,3.6537223E-2,-1.7202383E-2,-7.071033E-2,3.8290266E-2,-2.2033907E-2,-1.2892239E-2,7.811841E-2,6.799244E-2,3.3551566E-2,8.5421297E-4,-5.0442375E-2,4.774767E-2,2.0475922E-2,-6.8575114E-2,-3.8176656E-2,2.2257403E-4,-3.2745436E-2],"split_indices":[0,0,4,3,8,1,1,1,7,6,3,0,3,4,7,1,1,3,7,6,6,3,8,2,8,3,3,4,8,3,8,0,8,0,0,0,0,0,0,0,0,0,0,0,0,0,0,0,0,0,0,0,0,0,0,0,0,0,0,0,0,0,0,0,0],"split_type":[0,0,0,0,0,0,0,0,0,0,0,0,0,0,0,0,0,0,0,0,0,0,0,0,0,0,0,0,0,0,0,0,0,0,0,0,0,0,0,0,0,0,0,0,0,0,0,0,0,0,0,0,0,0,0,0,0,0,0,0,0,0,0,0,0],"sum_hessian":[2.9333473E4,9.0364264E2,2.842983E4,1.4667074E4,1.3762756E4,1.2709392E4,1.9576832E3,5.6342725E3,8.1284834E3,8.329247E2,1.1876467E4,3.6327216E2,1.594411E3,1.1221683E3,4.512104E3,3.2361829E3,4.892301E3,5.886794E2,2.442453E2,6.2514154E2,1.1251325E4,8.337256E1,2.798996E2,2.4313585E2,1.3512751E3,4.090314E2,7.131369E2,2.3907705E3,2.1213337E3,6.618811E2,2.5743018E3,1.2394995E3,3.652801E3,1.0305996E2,4.8561945E2,8.946152E1,1.5478378E2,4.508823E2,1.742593E2,1.0724004E4,5.273208E2,7.6761518E0,7.569641E1,1.993056E2,8.0593994E1,1.0289681E2,1.4023903E2,5.9811237E2,7.5316284E2,3.0403284E2,1.0499857E2,5.319978E2,1.8113911E2,1.0100368E2,2.2897668E3,3.8692746E2,1.7344064E3,4.6755664E2,1.9432446E2,1.396436E3,1.1778658E3,2.98499E2,9.4100055E2,2.8855813E3,7.672197E2],"tree_param":{"num_deleted":"0","num_feature":"10","num_nodes":"65","size_leaf_vector":"1"}},{"base_weights":[-1.492877E-3,5.830496E-1,-5.323381E-1,3.6152366E-1,1.0382278E0,-6.6435003E-1,-1.7055151E-1,6.3640225E-1,1.5828292E-1,9.2075586E-1,1.29656E-1,-6.905555E-1,-1.4933321E-1,-2.908867E-1,1.6592988E-1,-7.399229E-2,6.732838E-1,-1.7581359E-1,3.0321655E-1,1.327743E-1,7.9123956E-1,-7.011149E-1,-4.5161548E-1,-2.3980124E-1,1.716496E-1,-4.6775794E-1,-1.5259515E-1,4.571665E-1,-2.4847629E-2,1.067664E0,5.565206E-1,-7.389375E-2,-1.3343644E-1,4.4507783E-2,4.8130578E-1,1.2901483E-1,6.714185E-1,-5.214592E-1,-7.0703083E-1,-4.7788078E-1,1.4697956E-1,-3.0622014E-1,4.548052E-2,7.819287E-2,7.87965E-1,-7.245215E-2,-4.3577108E-1,-7.260799E-2,-1.0024915E-1,2.2643012E-1,1.3895681E0,-2.5332624E-1,1.4286114E-1,9.275396E-2,1.3893503E-1,3.0007271E-2,6.9483034E-2,1.3481508E-1,-1.7548522E-2,4.4173192E-2,-5.3907456E-3,-7.337438E-2,5.173303E-2,9.438328E-2,5.0813276E-2,-7.236197E-2,-4.2589985E-2,-4.9218737E-2,-7.103047E-2,-5.8679175E-2,-3.760287E-2,-4.135257E-2,3.307761E-2,-3.556803E-2,-5.889516E-3,-7.6703243E-3,5.5824395E-2,3.8572963E-2,-2.0982018E-3,9.229872E-2,-1.526323E-2,-6.0580806E-3,-4.4847857E-2,6.09755E-2,-1.2778572E-2,1.3545442E-1,3.6871228E-3,5.6715447E-2,1.4240527E-1,-1.2449156E-2,-3.9520353E-2,-7.003524E-2,1.8375225E-2],"categories":[],"categories_nodes":[],"categories_segments":[],"categories_sizes":[],"default_left":[0,0,0,0,0,0,0,0,0,0,0,0,0,0,0,0,0,0,0,0,0,0,0,0,0,0,0,0,0,0,0,0,0,0,0,0,0,0,0,0,0,0,0,0,0,0,0,0,0,0,0,0,0,0,0,0,0,0,0,0,0,0,0,0,0,0,0,0,0,0,0,0,0,0,0,0,0,0,0,0,0,0,0,0,0,0,0,0,0,0,0,0,0],"id":5,"left_children":[1,3,5,7,9,11,13,15,17,19,-1,21,23,25,27,-1,29,31,33,-1,35,37,39,41,43,45,47,49,51,53,55,-1,57,59,61,-1,63,65,67,69,71,73,75,77,79,-1,81,-1,83,85,87,89,91,-1,-1,-1,-1,-1,-1,-1,-1,-1,-1,-1,-1,-1,-1,-1,-1,-1,-1,-1,-1,-1,-1,-1,-1,-1,-1,-1,-1,-1,-1,-1,-1,-1,-1,-1,-1,-1,-1,-1,-1],"loss_changes":[9.089383E3,1.4053442E3,7.330596E2,5.23859E2,1.3728418E2,1.5168701E2,1.6627472E2,2.0285352E2,2.6120877E2,1.6447559E2,0E0,2.6685059E1,1.5891573E1,7.39012E1,6.0132328E1,0E0,1.7821094E2,3.8856865E1,1.7330237E2,0E0,1.416864E2,1.0522461E1,7.235504E0,8.09034E0,6.8847632E0,1.0579193E1,5.0921906E1,9.183458E1,2.5124416E1,3.8644653E1,1.06128784E2,0E0,9.489325E1,6.0027283E1,9.790381E1,0E0,8.514325E1,6.076294E0,6.6259766E0,4.624901E0,2.1890564E0,4.2100105E0,5.140516E0,3.2358987E0,2.1436033E0,0E0,5.608719E0,0E0,3.0534332E1,7.363011E1,1.5966034E0,5.0234413E0,1.3169811E1,0E0,0E0,0E0,0E0,0E0,0E0,0E0,0E0,0E0,0E0,0E0,0E0,0E0,0E0,0E0,0E0,0E0,0E0,0E0,0E0,0E0,0E0,0E0,0E0,0E0,0E0,0E0,0E0,0E0,0E0,0E0,0E0,0E0,0E0,0E0,0E0,0E0,0E0,0E0,0E0],"parents":[2147483647,0,0,1,1,2,2,3,3,4,4,5,5,6,6,7,7,8,8,9,9,11,11,12,12,13,13,14,14,16,16,17,17,18,18,20,20,21,21,22,22,23,23,24,24,25,25,26,26,27,27,28,28,29,29,30,30,32,32,33,33,34,34,36,36,37,37,38,38,39,39,40,40,41,41,42,42,43,43,44,44,46,46,48,48,49,49,50,50,51,51,52,52],"right_children":[2,4,6,8,10,12,14,16,18,20,-1,22,24,26,28,-1,30,32,34,-1,36,38,40,42,44,46,48,50,52,54,56,-1,58,60,62,-1,64,66,68,70,72,74,76,78,80,-1,82,-1,84,86,88,90,92,-1,-1,-1,-1,-1,-1,-1,-1,-1,-1,-1,-1,-1,-1,-1,-1,-1,-1,-1,-1,-1,-1,-1,-1,-1,-1,-1,-1,-1,-1,-1,-1,-1,-1,-1,-1,-1,-1,-1,-1],"split_conditions":[5.97526E-1,1.5014273E0,-5.484406E-1,-5.277394E-1,6.4190537E-1,1.5014273E0,1.5014273E0,-1.6783248E0,-5.656457E-1,-7.95488E-1,1.29656E-1,6.4190537E-1,6.953112E-1,-2.781794E-1,3.290215E-1,-7.399229E-2,-7.95488E-1,-1.6783248E0,-1.9705518E-1,1.327743E-1,-1.137472E0,-7.95488E-1,1.5876775E0,-7.032868E-1,1.9121743E0,-1.6783248E0,-1.6783248E0,6.4190537E-1,-2.9469272E-1,6.4190537E-1,-2.781794E-1,-7.389375E-2,-1.24044E0,-7.95488E-1,-1.6783248E0,1.2901483E-1,-6.3625056E-1,-1.6783248E0,-1.137472E0,-2.9469272E-1,-7.95488E-1,1.0461353E0,8.922861E-1,-7.95488E-1,-6.762294E-1,-7.245215E-2,-1.24044E0,-7.260799E-2,-1.24044E0,-7.95488E-1,-5.140303E-1,1.0765269E0,-1.6783248E0,9.275396E-2,1.3893503E-1,3.0007271E-2,6.9483034E-2,1.3481508E-1,-1.7548522E-2,4.4173192E-2,-5.3907456E-3,-7.337438E-2,5.173303E-2,9.438328E-2,5.0813276E-2,-7.236197E-2,-4.2589985E-2,-4.9218737E-2,-7.103047E-2,-5.8679175E-2,-3.760287E-2,-4.135257E-2,3.307761E-2,-3.556803E-2,-5.889516E-3,-7.6703243E-3,5.5824395E-2,3.8572963E-2,-2.0982018E-3,9.229872E-2,-1.526323E-2,-6.0580806E-3,-4.4847857E-2,6.09755E-2,-1.2778572E-2,1.3545442E-1,3.6871228E-3,5.6715447E-2,1.4240527E-1,-1.2449156E-2,-3.9520353E-2,-7.003524E-2,1.8375225E-2],"split_indices":[9,5,4,9,3,5,5,0,4,1,0,3,7,7,4,0,1,0,7,0,3,1,7,4,7,0,0,3,7,3,7,0,0,1,0,0,9,0,3,7,1,3,3,1,4,0,0,0,0,1,4,9,0,0,0,0,0,0,0,0,0,0,0,0,0,0,0,0,0,0,0,0,0,0,0,0,0,0,0,0,0,0,0,0,0,0,0,0,0,0,0,0,0],"split_type":[0,0,0,0,0,0,0,0,0,0,0,0,0,0,0,0,0,0,0,0,0,0,0,0,0,0,0,0,0,0,0,0,0,0,0,0,0,0,0,0,0,0,0,0,0,0,0,0,0,0,0,0,0,0,0,0,0,0,0,0,0,0,0,0,0,0,0,0,0,0,0,0,0,0,0,0,0,0,0,0,0,0,0,0,0,0,0,0,0,0,0,0,0],"sum_hessian":[2.9290096E4,1.3939955E4,1.5350141E4,9.377776E3,4.562178E3,1.1245826E4,4.1043145E3,3.9854346E3,5.3923423E3,3.1392324E3,1.4229458E3,1.0700988E4,5.4483777E2,3.0232507E3,1.0810638E3,1.03513504E2,3.881921E3,1.6314232E3,3.7609192E3,7.556031E2,2.3836294E3,1.0246248E4,4.5474026E2,4.252385E2,1.1959927E2,1.3255391E3,1.6977115E3,4.273242E2,6.537397E2,8.849076E2,2.9970134E3,1.13027885E2,1.5183954E3,1.5338938E3,2.2270254E3,4.597138E2,1.9239155E3,3.294883E2,9.91676E3,4.3581897E2,1.8921312E1,3.4487238E2,8.03661E1,1.04829956E2,1.4769317E1,1.4444063E2,1.1810984E3,1.4092416E2,1.5567875E3,3.4355045E2,8.3773735E1,2.765163E2,3.772234E2,6.191104E2,2.6579718E2,1.0511633E3,1.9458501E3,4.104691E1,1.4773484E3,3.038806E2,1.2300132E3,6.356919E1,2.163456E3,7.1922736E2,1.2046881E3,1.036466E2,2.2584172E2,1.5111882E2,9.765641E3,2.0831033E2,2.2750862E2,4.363744E0,1.45575695E1,2.8703326E2,5.7839127E1,6.5587906E1,1.4778193E1,2.4857769E1,7.997218E1,1.2931702E1,1.837615E0,3.8881546E1,1.1422169E3,5.733426E1,1.4994531E3,4.8538647E1,2.950118E2,4.0734673E0,7.9700264E1,1.4590323E2,1.3061305E2,1.6701216E1,3.605222E2],"tree_param":{"num_deleted":"0","num_feature":"10","num_nodes":"93","size_leaf_vector":"1"}},{"base_weights":[-2.2879734E-3,5.507669E-1,-6.928138E-1,-7.013533E-2,9.048214E-1,-1.1056746E-1,-7.000453E-1,9.8255897E-1,-7.2546266E-2,-6.90425E-2,2.9482654E-1,-5.757534E-1,-7.0195585E-2,-7.1758956E-2,1.0438323E0,-6.848277E-2,5.397165E-1,-6.539162E-1,-1.4186506E-1,-7.286552E-2,1.0745947E0,6.7357874E-1,-6.374849E-2,-6.938244E-2,-5.135326E-1,1.1854563E-1,-6.538409E-2,1.0954445E-1,-7.4167706E-2,-4.6755534E-2,8.27627E-2,-5.5452164E-2,2.5606114E-2,5.3860534E-2,-6.338672E-2],"categories":[],"categories_nodes":[],"categories_segments":[],"categories_sizes":[],"default_left":[0,0,0,0,0,0,0,0,0,0,0,0,0,0,0,0,0,0,0,0,0,0,0,0,0,0,0,0,0,0,0,0,0,0,0],"id":6,"left_children":[1,3,5,-1,7,9,11,13,-1,-1,15,17,-1,-1,19,-1,21,23,25,-1,27,29,-1,-1,31,33,-1,-1,-1,-1,-1,-1,-1,-1,-1],"loss_changes":[1.1026552E4,7.1080835E3,5.3987793E1,0E0,1.5847305E3,3.751171E1,2.6074219E0,1.2435742E3,0E0,0E0,2.2946764E1,6.6075516E0,0E0,0E0,6.286904E2,0E0,1.2381559E1,5.8005524E-1,4.2685738E0,0E0,4.2947168E2,1.2444202E1,0E0,0E0,1.4304066E0,7.1945934E0,0E0,0E0,0E0,0E0,0E0,0E0,0E0,0E0,0E0],"parents":[2147483647,0,0,1,1,2,2,4,4,5,5,6,6,7,7,10,10,11,11,14,14,16,16,17,17,18,18,20,20,21,21,24,24,25,25],"right_children":[2,4,6,-1,8,10,12,14,-1,-1,16,18,-1,-1,20,-1,22,24,26,-1,28,30,-1,-1,32,34,-1,-1,-1,-1,-1,-1,-1,-1,-1],"split_conditions":[-5.656457E-1,6.6502243E-1,-5.484406E-1,-7.013533E-2,6.4190537E-1,6.6502243E-1,-5.140303E-1,-5.5610436E-1,-7.2546266E-2,-6.90425E-2,-7.95488E-1,1.2361135E0,-7.0195585E-2,-7.1758956E-2,-1.137472E0,-6.848277E-2,6.4190537E-1,6.6502243E-1,-2.6426405E-1,-7.286552E-2,1.6688758E0,-1.1352555E0,-6.374849E-2,-6.938244E-2,1.5569489E0,3.6107895E-1,-6.538409E-2,1.0954445E-1,-7.4167706E-2,-4.6755534E-2,8.27627E-2,-5.5452164E-2,2.5606114E-2,5.3860534E-2,-6.338672E-2],"split_indices":[4,9,4,0,3,9,4,1,0,0,1,9,0,0,3,0,3,9,7,0,6,3,0,0,2,3,0,0,0,0,0,0,0,0,0],"split_type":[0,0,0,0,0,0,0,0,0,0,0,0,0,0,0,0,0,0,0,0,0,0,0,0,0,0,0,0,0,0,0,0,0,0,0],"sum_hessian":[2.8870979E4,1.6031365E4,1.2839613E4,3.5336316E3,1.2497733E4,1.5771031E2,1.2681903E4,1.1929301E4,5.6843274E2,6.460257E1,9.3107735E1,1.9656845E2,1.2485335E4,4.1460355E2,1.1514697E4,1.8260847E1,7.484689E1,1.6613327E2,3.043518E1,1.9604774E2,1.1318649E4,6.7589005E1,7.2578845E0,1.2628944E2,3.9843834E1,2.0683306E1,9.751874E0,1.1190586E4,1.2806415E2,7.7969437E0,5.9792065E1,3.8094364E1,1.7494681E0,1.345549E1,7.227816E0],"tree_param":{"num_deleted":"0","num_feature":"10","num_nodes":"35","size_leaf_vector":"1"}},{"base_weights":[5.6671565E-3,1.2050753E-1,-3.4262616E-2,6.405241E-2,-1.8933675E-1,1.9636483E-1,-2.795862E-1,-3.0150923E-1,7.948497E-1,-1.4157192E-1,2.6335055E-1,-3.9301863E-1,4.715387E-1,-3.8004538E-1,6.598753E-1,9.1876245E-1,4.117046E-1,1.2972756E-1,-2.933757E-1,3.6125204E-1,-7.586295E-3,-2.5494373E-1,-7.110725E-2,-8.336881E-2,5.939884E-1,8.7967086E-1,-4.453682E-1,-5.8287877E-1,6.952746E-1,-5.3742486E-1,9.377941E-1,-7.035207E-2,5.507807E-1,-2.7451599E-2,2.4534527E-2,-5.2856486E-2,-2.1566695E-2,-8.313521E-3,4.6443317E-2,-1.4352873E-2,8.183747E-2,-7.144061E-2,-1.1737405E-2,1.3788021E-2,-7.12187E-2,8.1850946E-2,4.2501587E-2,1.0700605E-1,7.434794E-2,9.668442E-2,-5.023269E-2,9.803823E-3,-7.1230635E-2,9.201953E-2,5.426116E-2,-2.9959832E-3,-6.0310125E-2,9.700647E-2,4.693115E-2,8.462605E-2,3.439265E-2],"categories":[],"categories_nodes":[],"categories_segments":[],"categories_sizes":[],"default_left":[0,0,0,0,0,0,0,0,0,0,0,0,0,0,0,0,0,0,0,0,0,0,0,0,0,0,0,0,0,0,0,0,0,0,0,0,0,0,0,0,0,0,0,0,0,0,0,0,0,0,0,0,0,0,0,0,0,0,0,0,0],"id":7,"left_children":[1,-1,3,5,7,9,11,13,15,17,19,21,23,25,27,29,31,33,35,37,39,41,-1,43,45,47,49,51,53,55,57,-1,59,-1,-1,-1,-1,-1,-1,-1,-1,-1,-1,-1,-1,-1,-1,-1,-1,-1,-1,-1,-1,-1,-1,-1,-1,-1,-1,-1,-1],"loss_changes":[1.3961266E3,0E0,4.3014203E2,7.851334E2,1.2087378E3,2.8225766E2,4.0919693E2,7.4225385E2,5.280835E1,8.500491E1,2.760008E2,1.8299811E2,4.2876892E1,7.480515E2,3.3071716E1,2.3941101E1,4.3130104E1,3.4695415E1,2.4068901E1,3.5050293E2,3.1033804E2,1.8385771E2,0E0,1.6072397E1,1.9246094E1,1.0827515E1,6.953557E2,1.9301758E0,2.4306976E1,3.667369E-1,1.2170654E1,0E0,1.4719322E1,0E0,0E0,0E0,0E0,0E0,0E0,0E0,0E0,0E0,0E0,0E0,0E0,0E0,0E0,0E0,0E0,0E0,0E0,0E0,0E0,0E0,0E0,0E0,0E0,0E0,0E0,0E0,0E0],"parents":[2147483647,0,0,2,2,3,3,4,4,5,5,6,6,7,7,8,8,9,9,10,10,11,11,12,12,13,13,14,14,15,15,16,16,17,17,18,18,19,19,20,20,21,21,23,23,24,24,25,25,26,26,27,27,28,28,29,29,30,30,32,32],"right_children":[2,-1,4,6,8,10,12,14,16,18,20,22,24,26,28,30,32,34,36,38,40,42,-1,44,46,48,50,52,54,56,58,-1,60,-1,-1,-1,-1,-1,-1,-1,-1,-1,-1,-1,-1,-1,-1,-1,-1,-1,-1,-1,-1,-1,-1,-1,-1,-1,-1,-1,-1],"split_conditions":[-1.6783248E0,1.2050753E-1,9.119301E-1,1.5014273E0,6.4190537E-1,-1.0062199E0,5.97526E-1,1.5014273E0,1.5014273E0,-1.7904001E-1,6.801349E-1,6.4190537E-1,-7.95488E-1,-5.5610436E-1,-1.24044E0,-1.24044E0,-7.95488E-1,-7.95488E-1,-7.95488E-1,-7.95488E-1,6.4190537E-1,-7.95488E-1,-7.110725E-2,6.4190537E-1,-2.6644132E-1,-3.593036E-1,-1.137472E0,-1.3173187E0,-2.7473316E-1,-1.1960816E0,1.3443049E0,-7.035207E-2,-2.9469272E-1,-2.7451599E-2,2.4534527E-2,-5.2856486E-2,-2.1566695E-2,-8.313521E-3,4.6443317E-2,-1.4352873E-2,8.183747E-2,-7.144061E-2,-1.1737405E-2,1.3788021E-2,-7.12187E-2,8.1850946E-2,4.2501587E-2,1.0700605E-1,7.434794E-2,9.668442E-2,-5.023269E-2,9.803823E-3,-7.1230635E-2,9.201953E-2,5.426116E-2,-2.9959832E-3,-6.0310125E-2,9.700647E-2,4.693115E-2,8.462605E-2,3.439265E-2],"split_indices":[0,0,9,5,3,9,9,5,5,8,9,3,1,1,0,0,1,1,1,1,3,1,0,3,8,7,3,8,8,2,7,0,7,0,0,0,0,0,0,0,0,0,0,0,0,0,0,0,0,0,0,0,0,0,0,0,0,0,0,0,0],"split_type":[0,0,0,0,0,0,0,0,0,0,0,0,0,0,0,0,0,0,0,0,0,0,0,0,0,0,0,0,0,0,0,0,0,0,0,0,0,0,0,0,0,0,0,0,0,0,0,0,0,0,0,0,0,0,0,0,0,0,0,0,0],"sum_hessian":[2.9149645E4,9.382215E2,2.8211424E4,1.7265746E4,1.0945677E4,1.2466249E4,4.799497E3,9.826407E3,1.1192694E3,2.0620889E3,1.040416E4,4.170203E3,6.2929376E2,9.084863E3,7.4154407E2,8.4469055E2,2.745789E2,7.3990204E2,1.3221868E3,7.642319E3,2.7618418E3,2.9090957E3,1.2611075E3,1.1381871E2,5.1547504E2,4.4725815E2,8.6376045E3,2.0109203E1,7.214349E2,1.0545856E1,8.341447E2,2.999512E1,2.4458376E2,1.6424936E2,5.7565265E2,3.2692657E2,9.9526025E2,1.4401179E3,6.2022007E3,2.3722297E3,3.8961197E2,6.6935516E2,2.2397405E3,8.477237E1,2.9046337E1,2.1970264E2,2.9577243E2,1.8365692E2,2.6360123E2,3.342543E2,8.303351E3,3.2505612E0,1.6858643E1,2.8965466E2,4.3178024E2,1.3753151E0,9.170542E0,7.793874E2,5.475733E1,9.944335E1,1.4514041E2],"tree_param":{"num_deleted":"0","num_feature":"10","num_nodes":"61","size_leaf_vector":"1"}},{"base_weights":[-3.5014998E-3,5.313828E-1,-5.0990164E-1,3.3323085E-1,9.378599E-1,-6.387885E-1,-1.7095013E-1,4.4379175E-2,5.27908E-1,1.18482314E-1,8.4884304E-1,-6.6282773E-1,-5.242585E-2,-2.9296246E-1,1.6835268E-1,2.897023E-1,-1.4511023E-1,7.1492076E-1,3.0881697E-1,5.3596926E-1,9.3189824E-1,-6.784286E-1,-2.8722888E-1,-3.64563E-1,9.5186494E-2,-4.4285437E-1,-7.085632E-2,4.6255237E-1,-3.1794716E-2,-7.1365744E-2,3.3324295E-1,-2.6256037E-1,1.6615032E-1,-7.014337E-2,7.40051E-1,1.7703515E-1,6.0723424E-1,7.157828E-1,2.4227968E-1,1.0175471E0,7.837891E-1,-6.845058E-1,-5.77728E-1,-4.6956968E-1,-5.811596E-2,-4.4966888E-1,-1.6772021E-1,-6.3745044E-2,4.456065E-1,-4.96129E-1,-2.6709712E-1,-7.006275E-2,-1.713967E-2,1.2078551E0,3.0373764E-1,7.811705E-2,-7.4037455E-2,7.8870825E-2,2.1083096E-2,-4.908727E-2,-1.471805E-2,-1.578669E-2,2.8496305E-2,1.0257127E-1,6.489893E-2,-1.1415153E-2,3.0232592E-2,-6.907367E-2,6.3731216E-2,8.9098744E-2,4.3398812E-2,-8.642804E-3,3.8899757E-2,7.7354684E-2,1.2286826E-1,8.609874E-2,-7.927566E-2,-5.8561184E-2,-6.876503E-2,-5.859918E-2,-1.0112186E-2,-1.914267E-2,-5.0317813E-2,-1.630068E-2,1.7349958E-2,-6.5602474E-2,-4.1073773E-2,-9.4300285E-3,-5.029107E-2,-6.749314E-2,-5.727983E-4,-6.0486384E-2,5.1063646E-2,-5.3759642E-2,-3.7084144E-2,-6.8967566E-2,-2.2339772E-2,-1.2630174E-2,2.9947776E-2,5.4273736E-2,1.2302078E-1,1.2257654E-2,8.0178425E-2,-6.940772E-2,1.1418819E-2],"categories":[],"categories_nodes":[],"categories_segments":[],"categories_sizes":[],"default_left":[0,0,0,0,0,0,0,0,0,0,0,0,0,0,0,0,0,0,0,0,0,0,0,0,0,0,0,0,0,0,0,0,0,0,0,0,0,0,0,0,0,0,0,0,0,0,0,0,0,0,0,0,0,0,0,0,0,0,0,0,0,0,0,0,0,0,0,0,0,0,0,0,0,0,0,0,0,0,0,0,0,0,0,0,0,0,0,0,0,0,0,0,0,0,0,0,0,0,0,0,0,0,0,0,0],"id":8,"left_children":[1,3,5,7,9,11,13,15,17,-1,19,21,23,25,27,29,31,33,35,37,39,41,43,45,47,49,51,53,55,-1,57,59,61,-1,63,65,67,69,71,73,75,77,79,81,83,85,87,89,91,93,95,-1,97,99,101,103,-1,-1,-1,-1,-1,-1,-1,-1,-1,-1,-1,-1,-1,-1,-1,-1,-1,-1,-1,-1,-1,-1,-1,-1,-1,-1,-1,-1,-1,-1,-1,-1,-1,-1,-1,-1,-1,-1,-1,-1,-1,-1,-1,-1,-1,-1,-1,-1,-1],"loss_changes":[7.8781777E3,1.138969E3,6.52583E2,5.347927E2,1.0089087E2,1.5253857E2,1.7050461E2,1.780971E2,2.325647E2,0E0,8.812598E1,6.0730957E1,1.9725672E1,1.00801025E2,6.4175644E1,7.317557E1,7.9071236E1,1.0958984E2,1.0285181E2,3.7732697E1,3.337329E1,5.713867E0,1.7368038E1,2.226736E0,1.6231853E1,1.6797943E1,4.131309E1,5.185871E1,5.0634228E1,0E0,8.908536E1,4.1282722E1,2.2867865E1,0E0,7.766992E1,6.634291E1,3.1734222E1,2.1568802E1,1.3252434E1,8.6803955E1,1.21335144E2,2.5234375E0,2.203659E0,2.06979E0,4.5389934E0,4.965248E-1,1.0126474E0,7.124716E0,6.5189342E0,7.003479E0,7.6527443E0,0E0,3.8976048E1,4.79599E-1,3.283953E1,1.5763879E1,0E0,0E0,0E0,0E0,0E0,0E0,0E0,0E0,0E0,0E0,0E0,0E0,0E0,0E0,0E0,0E0,0E0,0E0,0E0,0E0,0E0,0E0,0E0,0E0,0E0,0E0,0E0,0E0,0E0,0E0,0E0,0E0,0E0,0E0,0E0,0E0,0E0,0E0,0E0,0E0,0E0,0E0,0E0,0E0,0E0,0E0,0E0,0E0,0E0],"parents":[2147483647,0,0,1,1,2,2,3,3,4,4,5,5,6,6,7,7,8,8,10,10,11,11,12,12,13,13,14,14,15,15,16,16,17,17,18,18,19,19,20,20,21,21,22,22,23,23,24,24,25,25,26,26,27,27,28,28,30,30,31,31,32,32,34,34,35,35,36,36,37,37,38,38,39,39,40,40,41,41,42,42,43,43,44,44,45,45,46,46,47,47,48,48,49,49,50,50,52,52,53,53,54,54,55,55],"right_children":[2,4,6,8,10,12,14,16,18,-1,20,22,24,26,28,30,32,34,36,38,40,42,44,46,48,50,52,54,56,-1,58,60,62,-1,64,66,68,70,72,74,76,78,80,82,84,86,88,90,92,94,96,-1,98,100,102,104,-1,-1,-1,-1,-1,-1,-1,-1,-1,-1,-1,-1,-1,-1,-1,-1,-1,-1,-1,-1,-1,-1,-1,-1,-1,-1,-1,-1,-1,-1,-1,-1,-1,-1,-1,-1,-1,-1,-1,-1,-1,-1,-1,-1,-1,-1,-1,-1,-1],"split_conditions":[5.97526E-1,1.5014273E0,-5.484406E-1,-1.6135357E-1,-7.95488E-1,1.6688758E0,1.5014273E0,-4.3476003E-1,-3.5668218E-1,1.18482314E-1,-5.836086E-1,1.5014273E0,-5.2744603E-1,1.5390965E-1,3.290215E-1,-1.6783248E0,1.6688758E0,-1.6783248E0,1.6688758E0,-1.6207165E-1,3.4622666E-1,7.844361E-1,3.3776872E-3,1.5014273E0,1.5014273E0,1.6688758E0,-1.6783248E0,-7.95488E-1,1.6688758E0,-7.1365744E-2,-7.95488E-1,-5.484406E-1,-6.00056E-1,-7.014337E-2,-7.95488E-1,-5.484406E-1,-1.6783248E0,4.1504723E-1,-6.762294E-1,-5.140303E-1,1.6688758E0,-7.95488E-1,1.6598711E0,6.801349E-1,9.9461156E-1,-1.6783248E0,1.4880811E0,-1.6783248E0,-1.6783248E0,-2.6644132E-1,-1.6783248E0,-7.006275E-2,1.6688758E0,-5.140303E-1,1.6688758E0,-1.6783248E0,-7.4037455E-2,7.8870825E-2,2.1083096E-2,-4.908727E-2,-1.471805E-2,-1.578669E-2,2.8496305E-2,1.0257127E-1,6.489893E-2,-1.1415153E-2,3.0232592E-2,-6.907367E-2,6.3731216E-2,8.9098744E-2,4.3398812E-2,-8.642804E-3,3.8899757E-2,7.7354684E-2,1.2286826E-1,8.609874E-2,-7.927566E-2,-5.8561184E-2,-6.876503E-2,-5.859918E-2,-1.0112186E-2,-1.914267E-2,-5.0317813E-2,-1.630068E-2,1.7349958E-2,-6.5602474E-2,-4.1073773E-2,-9.4300285E-3,-5.029107E-2,-6.749314E-2,-5.727983E-4,-6.0486384E-2,5.1063646E-2,-5.3759642E-2,-3.7084144E-2,-6.8967566E-2,-2.2339772E-2,-1.2630174E-2,2.9947776E-2,5.4273736E-2,1.2302078E-1,1.2257654E-2,8.0178425E-2,-6.940772E-2,1.1418819E-2],"split_indices":[9,5,4,8,1,6,5,9,9,0,8,5,8,8,4,0,6,0,6,9,4,8,8,5,5,6,0,1,6,0,1,4,4,0,1,4,0,4,4,4,6,1,2,9,8,0,9,0,0,8,0,0,6,4,6,0,0,0,0,0,0,0,0,0,0,0,0,0,0,0,0,0,0,0,0,0,0,0,0,0,0,0,0,0,0,0,0,0,0,0,0,0,0,0,0,0,0,0,0,0,0,0,0,0,0],"split_type":[0,0,0,0,0,0,0,0,0,0,0,0,0,0,0,0,0,0,0,0,0,0,0,0,0,0,0,0,0,0,0,0,0,0,0,0,0,0,0,0,0,0,0,0,0,0,0,0,0,0,0,0,0,0,0,0,0,0,0,0,0,0,0,0,0,0,0,0,0,0,0,0,0,0,0,0,0,0,0,0,0,0,0,0,0,0,0,0,0,0,0,0,0,0,0,0,0,0,0,0,0,0,0,0,0],"sum_hessian":[2.9083201E4,1.4143793E4,1.4939407E4,9.509744E3,4.634049E3,1.0823043E4,4.1163643E3,3.8292837E3,5.6804604E3,1.2245153E3,3.4095334E3,1.0396678E4,4.2636502E2,3.0277356E3,1.0886287E3,1.6685547E3,2.160729E3,3.0633606E3,2.6170999E3,7.167913E2,2.692742E3,9.981289E3,4.1538904E2,1.3642166E2,2.8994336E2,1.8071545E3,1.220581E3,4.402247E2,6.48404E2,6.87552E1,1.5997996E3,1.5688865E3,5.918426E2,5.2936184E1,3.0104246E3,1.8165154E3,8.005846E2,4.4369727E2,2.7309406E2,1.7024023E3,9.9033966E2,9.40774E3,5.7354926E2,2.3071985E2,1.846692E2,9.434622E1,4.207544E1,2.0003596E2,8.9907394E1,1.3853973E3,4.217573E2,9.498138E1,1.1255996E3,7.616834E1,3.6405634E2,5.621028E2,8.6301155E1,3.377332E2,1.2620664E3,5.255936E2,1.0432928E3,1.5870511E2,4.3313745E2,7.251996E2,2.2852249E3,5.4649713E2,1.2700183E3,1.763429E1,7.8295026E2,2.722594E2,1.7143785E2,8.4404526E1,1.8868954E2,7.919006E2,9.105018E2,9.4454236E2,4.5797264E1,2.9568185E2,9.112058E3,5.6354846E2,1.0000771E1,2.5594667E1,2.0512518E2,1.2731071E2,5.735849E1,1.2458532E1,8.1887695E1,3.556634E1,6.509098E0,1.6420395E1,1.8361557E2,4.757362E0,8.515003E1,1.0384142E3,3.469831E2,3.814156E1,3.8361575E2,8.374635E2,2.8813617E2,3.2985573E0,7.286978E1,2.6786746E2,9.618888E1,2.4271343E1,5.378315E2],"tree_param":{"num_deleted":"0","num_feature":"10","num_nodes":"105","size_leaf_vector":"1"}},{"base_weights":[-7.5153545E-3,-6.494226E-1,5.095414E-1,-6.7971416E-2,-1.4125201E-1,6.3427275E-1,-6.91048E-2,9.980358E-3,-6.934196E-2,7.287076E-1,-6.893944E-2,1.5585347E-1,-6.852224E-2,-6.993993E-2,7.9120827E-1,2.9121533E-1,-6.891375E-2,8.4412545E-1,-7.0374995E-2,-6.975893E-2,4.155142E-2,-6.777298E-2,8.7642506E-2],"categories":[],"categories_nodes":[],"categories_segments":[],"categories_sizes":[],"default_left":[0,0,0,0,0,0,0,0,0,0,0,0,0,0,0,0,0,0,0,0,0,0,0],"id":9,"left_children":[1,3,5,-1,7,9,-1,11,-1,13,-1,15,-1,-1,17,19,-1,21,-1,-1,-1,-1,-1],"loss_changes":[9.425692E3,1.9493408E2,2.3558958E3,0E0,5.9631004E1,1.7816753E3,0E0,5.7047714E1,0E0,1.1877612E3,0E0,5.3377747E1,0E0,0E0,1.00873535E3,4.9628162E1,0E0,6.056201E2,0E0,0E0,0E0,0E0,0E0],"parents":[2147483647,0,0,1,1,2,2,4,4,5,5,7,7,9,9,11,11,14,14,15,15,17,17],"right_children":[2,4,6,-1,8,10,-1,12,-1,14,-1,16,-1,-1,18,20,-1,22,-1,-1,-1,-1,-1],"split_conditions":[6.801349E-1,6.6502243E-1,6.4190537E-1,-6.7971416E-2,6.4190537E-1,1.5014273E0,-6.91048E-2,1.5014273E0,-6.934196E-2,-1.137472E0,-6.893944E-2,1.6688758E0,-6.852224E-2,-6.993993E-2,1.6688758E0,-1.137472E0,-6.891375E-2,-1.24044E0,-7.0374995E-2,-6.975893E-2,4.155142E-2,-6.777298E-2,8.7642506E-2],"split_indices":[9,9,3,0,3,5,0,5,0,3,0,6,0,0,6,3,0,0,0,0,0,0,0],"split_type":[0,0,0,0,0,0,0,0,0,0,0,0,0,0,0,0,0,0,0,0,0,0,0],"sum_hessian":[2.8396982E4,1.2668832E4,1.572815E4,1.1955819E4,7.1301294E2,1.4248338E4,1.4798129E3,5.6048456E2,1.5252838E2,1.3299926E4,9.4841235E2,4.6391742E2,9.656713E1,5.5723364E2,1.2742692E4,4.0042706E2,6.3490364E1,1.2307479E4,4.3521356E2,4.4200138E1,3.5622693E2,2.5536777E2,1.205211E4],"tree_param":{"num_deleted":"0","num_feature":"10","num_nodes":"23","size_leaf_vector":"1"}},{"base_weights":[4.2483825E-3,-1.2897167E-1,3.2146794E-1,2.2916883E-2,-3.0260438E-1,4.138569E-2,6.796882E-1,1.6322812E-1,-3.5546136E-1,-4.4074556E-1,7.041784E-1,2.8674066E-1,-1.22034796E-1,7.4999076E-1,3.084903E-1,2.8555265E-1,-1.295642E-1,-4.7464824E-1,4.0966162E-1,9.0458465E-1,-5.128829E-1,8.67863E-1,2.0073506E-1,4.0056866E-1,-7.329246E-2,-2.4742469E-1,1.0805148E-1,5.6082404E-1,8.588717E-1,5.856982E-1,7.542506E-2,5.105738E-1,-3.0262446E-2,-3.4617248E-1,8.403661E-1,-2.0135283E-1,-6.991077E-1,7.2186893E-1,2.4029242E-2,9.823132E-1,5.9085906E-1,-5.6502503E-1,8.4702927E-1,9.8943883E-1,7.56967E-1,4.042101E-1,-7.218425E-1,4.8567003E-1,2.7734509E-2,1.18863896E-1,-6.930141E-2,-1.5214945E-1,-4.6989462E-1,2.2829598E-1,-2.1537727E-1,6.595705E-1,2.0100988E-1,9.515398E-1,7.0322853E-1,4.90113E-1,9.255335E-1,-1.3021679E-1,2.724109E-1,5.7637252E-2,-1.0638234E-2,1.7169809E-2,-6.594431E-2,1.0225462E-1,-4.5471687E-2,9.785752E-2,6.456206E-2,-1.3959764E-3,-6.8592355E-2,-5.4689527E-2,-7.0314355E-2,7.891255E-2,1.8068498E-2,2.2320198E-2,-6.5853484E-2,1.0750929E-1,8.986145E-2,7.190342E-2,-6.426513E-2,-5.979277E-2,7.91853E-2,8.731357E-2,-1.9440873E-2,5.6299724E-2,1.0129787E-1,8.975934E-2,5.1127236E-2,-6.1930973E-2,5.4673173E-2,-7.488875E-3,-7.389141E-2,3.4386232E-2,6.798193E-2,-1.5360439E-2,2.626935E-2,-6.924528E-2,3.055627E-2,5.120835E-3,-2.7830867E-2,1.1894176E-2,-5.0433893E-2,4.471616E-2,3.8445462E-3,-4.900727E-3,-6.7968756E-2,8.064377E-2,4.988743E-2,-5.0612103E-2,3.533253E-2,1.03592776E-1,8.833667E-2,8.547531E-2,5.5654265E-2,5.853748E-2,1.8028878E-2,2.9948369E-2,9.884531E-2,1.4016472E-2,-3.0881986E-2,-2.525846E-3,3.5665613E-2],"categories":[],"categories_nodes":[],"categories_segments":[],"categories_sizes":[],"default_left":[0,0,0,0,0,0,0,0,0,0,0,0,0,0,0,0,0,0,0,0,0,0,0,0,0,0,0,0,0,0,0,0,0,0,0,0,0,0,0,0,0,0,0,0,0,0,0,0,0,0,0,0,0,0,0,0,0,0,0,0,0,0,0,0,0,0,0,0,0,0,0,0,0,0,0,0,0,0,0,0,0,0,0,0,0,0,0,0,0,0,0,0,0,0,0,0,0,0,0,0,0,0,0,0,0,0,0,0,0,0,0,0,0,0,0,0,0,0,0,0,0,0,0,0,0],"id":10,"left_children":[1,3,5,7,9,11,13,15,17,19,21,23,25,27,29,31,33,35,37,39,41,43,45,47,49,51,53,55,57,59,61,63,65,67,69,71,73,75,77,79,81,83,85,87,89,91,93,95,97,99,-1,101,103,105,107,109,111,113,115,117,119,121,123,-1,-1,-1,-1,-1,-1,-1,-1,-1,-1,-1,-1,-1,-1,-1,-1,-1,-1,-1,-1,-1,-1,-1,-1,-1,-1,-1,-1,-1,-1,-1,-1,-1,-1,-1,-1,-1,-1,-1,-1,-1,-1,-1,-1,-1,-1,-1,-1,-1,-1,-1,-1,-1,-1,-1,-1,-1,-1,-1,-1,-1,-1],"loss_changes":[1.2195011E3,5.3596796E2,8.5626276E2,5.7561017E2,1.319127E3,1.9212599E2,9.749548E1,2.8330377E2,2.6765356E2,8.097561E2,9.413995E1,7.8532425E1,8.300702E1,6.435376E1,3.859213E1,3.96469E2,4.9008035E2,1.5555402E2,4.7639755E1,9.777283E0,5.617427E2,1.08914795E1,5.3250576E1,4.6169815E1,5.4978493E1,3.93946E1,3.9532646E1,4.0828125E1,2.8119629E1,8.414085E0,1.3242149E1,1.3230725E2,2.9517432E2,2.8369238E2,1.0830963E1,1.04047E2,4.711914E-1,7.8179016E0,2.4362919E1,1.6656799E0,1.4193434E1,3.408291E2,8.127304E0,3.5314636E0,1.5289001E1,3.4148834E1,5.116463E-1,3.2391754E1,1.1610722E1,5.3641E1,0E0,3.3498253E1,1.1373901E1,3.075518E1,2.1261227E1,2.0936462E1,2.707222E1,6.2663574E0,1.6166016E1,6.245682E0,2.0202713E0,7.7786818E0,4.1928663E0,0E0,0E0,0E0,0E0,0E0,0E0,0E0,0E0,0E0,0E0,0E0,0E0,0E0,0E0,0E0,0E0,0E0,0E0,0E0,0E0,0E0,0E0,0E0,0E0,0E0,0E0,0E0,0E0,0E0,0E0,0E0,0E0,0E0,0E0,0E0,0E0,0E0,0E0,0E0,0E0,0E0,0E0,0E0,0E0,0E0,0E0,0E0,0E0,0E0,0E0,0E0,0E0,0E0,0E0,0E0,0E0,0E0,0E0,0E0,0E0,0E0,0E0],"parents":[2147483647,0,0,1,1,2,2,3,3,4,4,5,5,6,6,7,7,8,8,9,9,10,10,11,11,12,12,13,13,14,14,15,15,16,16,17,17,18,18,19,19,20,20,21,21,22,22,23,23,24,24,25,25,26,26,27,27,28,28,29,29,30,30,31,31,32,32,33,33,34,34,35,35,36,36,37,37,38,38,39,39,40,40,41,41,42,42,43,43,44,44,45,45,46,46,47,47,48,48,49,49,51,51,52,52,53,53,54,54,55,55,56,56,57,57,58,58,59,59,60,60,61,61,62,62],"right_children":[2,4,6,8,10,12,14,16,18,20,22,24,26,28,30,32,34,36,38,40,42,44,46,48,50,52,54,56,58,60,62,64,66,68,70,72,74,76,78,80,82,84,86,88,90,92,94,96,98,100,-1,102,104,106,108,110,112,114,116,118,120,122,124,-1,-1,-1,-1,-1,-1,-1,-1,-1,-1,-1,-1,-1,-1,-1,-1,-1,-1,-1,-1,-1,-1,-1,-1,-1,-1,-1,-1,-1,-1,-1,-1,-1,-1,-1,-1,-1,-1,-1,-1,-1,-1,-1,-1,-1,-1,-1,-1,-1,-1,-1,-1,-1,-1,-1,-1,-1,-1,-1,-1,-1,-1],"split_conditions":[3.290215E-1,9.119301E-1,2.5837463E-1,1.5014273E0,-5.484406E-1,-1.6135357E-1,9.9461156E-1,6.801349E-1,5.97526E-1,-5.5610436E-1,1.5014273E0,1.5014273E0,-3.5668218E-1,6.801349E-1,-1.17504776E-1,-5.140303E-1,-5.656457E-1,-5.484406E-1,-5.815344E-1,1.5014273E0,6.4190537E-1,-2.6644132E-1,6.4190537E-1,8.575596E-1,6.4190537E-1,1.5014273E0,1.5014273E0,1.5014273E0,1.2744167E-1,1.2361135E0,7.48383E-1,6.6502243E-1,6.4190537E-1,-5.5610436E-1,1.5390965E-1,6.4190537E-1,-5.140303E-1,1.0996993E0,6.4190537E-1,-2.781794E-1,6.4190537E-1,1.5014273E0,1.9932986E0,-5.140303E-1,9.437363E-2,-7.95488E-1,-1.6385739E0,-3.5668218E-1,-4.3476003E-1,-7.95488E-1,-6.930141E-2,-1.9705518E-1,-1.2574103E0,-5.96101E-2,6.4190537E-1,-5.96101E-2,-7.95488E-1,-4.766168E-1,-3.7152904E-1,1.5014273E0,-1.2363263E0,1.3098748E0,-9.2309284E-1,5.7637252E-2,-1.0638234E-2,1.7169809E-2,-6.594431E-2,1.0225462E-1,-4.5471687E-2,9.785752E-2,6.456206E-2,-1.3959764E-3,-6.8592355E-2,-5.4689527E-2,-7.0314355E-2,7.891255E-2,1.8068498E-2,2.2320198E-2,-6.5853484E-2,1.0750929E-1,8.986145E-2,7.190342E-2,-6.426513E-2,-5.979277E-2,7.91853E-2,8.731357E-2,-1.9440873E-2,5.6299724E-2,1.0129787E-1,8.975934E-2,5.1127236E-2,-6.1930973E-2,5.4673173E-2,-7.488875E-3,-7.389141E-2,3.4386232E-2,6.798193E-2,-1.5360439E-2,2.626935E-2,-6.924528E-2,3.055627E-2,5.120835E-3,-2.7830867E-2,1.1894176E-2,-5.0433893E-2,4.471616E-2,3.8445462E-3,-4.900727E-3,-6.7968756E-2,8.064377E-2,4.988743E-2,-5.0612103E-2,3.533253E-2,1.03592776E-1,8.833667E-2,8.547531E-2,5.5654265E-2,5.853748E-2,1.8028878E-2,2.9948369E-2,9.884531E-2,1.4016472E-2,-3.0881986E-2,-2.525846E-3,3.5665613E-2],"split_indices":[4,9,9,5,4,8,8,9,9,1,5,5,9,9,7,4,4,4,4,5,3,8,3,7,3,5,5,5,7,9,9,9,3,1,8,3,4,8,3,7,3,5,7,4,7,1,7,9,9,1,0,7,7,7,3,7,1,8,8,5,3,8,3,0,0,0,0,0,0,0,0,0,0,0,0,0,0,0,0,0,0,0,0,0,0,0,0,0,0,0,0,0,0,0,0,0,0,0,0,0,0,0,0,0,0,0,0,0,0,0,0,0,0,0,0,0,0,0,0,0,0,0,0,0,0],"split_type":[0,0,0,0,0,0,0,0,0,0,0,0,0,0,0,0,0,0,0,0,0,0,0,0,0,0,0,0,0,0,0,0,0,0,0,0,0,0,0,0,0,0,0,0,0,0,0,0,0,0,0,0,0,0,0,0,0,0,0,0,0,0,0,0,0,0,0,0,0,0,0,0,0,0,0,0,0,0,0,0,0,0,0,0,0,0,0,0,0,0,0,0,0,0,0,0,0,0,0,0,0,0,0,0,0,0,0,0,0,0,0,0,0,0,0,0,0,0,0,0,0,0,0,0,0],"sum_hessian":[2.8855121E4,2.0321477E4,8.533646E3,1.0839918E4,9.481558E3,4.789774E3,3.7438726E3,7.908015E3,2.931903E3,8.338051E3,1.1435061E3,1.9145569E3,2.875217E3,3.1468572E3,5.9701544E2,5.577739E3,2.3302766E3,2.5370708E3,3.9483212E2,4.237501E2,7.9143013E3,8.623924E2,2.811137E2,1.4545682E3,4.5998865E2,1.8609703E3,1.0142466E3,1.1518373E3,1.9950198E3,2.7199338E2,3.2502206E2,3.2566963E3,2.3210425E3,1.9053992E3,4.248774E2,1.1449318E3,1.392139E3,2.1770589E2,1.7712624E2,3.3790076E2,8.5849335E1,7.622617E3,2.916842E2,4.076079E2,4.547845E2,2.3077747E2,5.0336235E1,1.1840092E3,2.7055905E2,3.5173483E2,1.0825381E2,1.3041412E3,5.5682916E2,7.3957947E2,2.7466708E2,9.031469E2,2.4869043E2,1.2472866E3,7.4773315E2,2.1419041E2,5.7802975E1,1.5918307E2,1.6583897E2,2.9429001E3,3.1379617E2,1.7575984E3,5.6344403E2,1.3938367E2,1.7660155E3,2.4615721E2,1.787202E2,8.263822E2,3.1854956E2,3.9484478E1,1.3526547E3,1.9323334E2,2.4472551E1,1.3763673E2,3.9489513E1,1.5463914E2,1.832616E2,7.814618E1,7.703155E0,7.4426997E3,1.7991708E2,2.8470883E2,6.9753876E0,2.2626633E1,3.8498126E2,2.875489E2,1.6723558E2,2.7798319E1,2.0297914E2,1.4325937E0,4.890364E1,6.8583936E2,4.9816983E2,1.5289925E2,1.176598E2,6.52923E1,2.8644254E2,4.9953226E2,8.046089E2,3.0636438E1,5.2619275E2,3.429085E2,3.96671E2,2.0302531E2,7.164176E1,4.6977795E2,4.3336896E2,4.3662502E1,2.0502792E2,5.5101654E2,6.9627E2,3.6542593E2,3.8230725E2,1.6314023E2,5.1050182E1,5.804826E0,5.199815E1,6.3407578E1,9.57755E1,3.67363E1,1.2910268E2],"tree_param":{"num_deleted":"0","num_feature":"10","num_nodes":"125","size_leaf_vector":"1"}},{"base_weights":[-3.503376E-4,4.864314E-1,-4.896975E-1,3.0521622E-1,8.499726E-1,-6.154326E-1,-1.7368601E-1,3.763937E-2,4.818644E-1,1.0671822E-1,7.711138E-1,-6.403094E-1,-4.29208E-2,-2.9179388E-1,1.4465079E-1,-2.651527E-1,1.6736722E-1,2.637443E-1,6.4127743E-1,5.5252093E-1,8.684646E-1,-6.572688E-1,-2.5710323E-1,-2.0829493E-1,3.0899012E-1,-4.3205634E-1,-8.730018E-2,4.1527587E-1,-3.412781E-2,-3.5919535E-1,1.0357584E-2,3.9255908E-1,-1.7750794E-2,4.986096E-1,8.68091E-2,-6.86667E-2,6.635976E-1,7.978671E-1,4.2106742E-1,9.6530104E-1,7.572547E-1,-6.6221696E-1,-5.461016E-1,-4.2132273E-1,-4.6294674E-2,-2.8189725E-1,2.3225309E-1,-1.4791095E-2,6.2170684E-1,-5.4843134E-1,-3.361237E-1,-2.7514336E-1,1.6869654E-1,1.1043074E0,2.5426728E-1,6.394501E-2,-7.206484E-2,-1.7941866E-2,-4.732713E-2,-9.192317E-3,4.336619E-2,-6.7922086E-2,4.2448867E-2,-1.3307038E-2,2.7645597E-2,1.824185E-2,6.0604155E-2,-3.1725236E-3,3.856258E-2,9.472911E-2,5.7354897E-2,9.1758355E-2,5.8322378E-2,1.16915535E-2,5.6474984E-2,5.9964925E-2,9.756946E-2,8.702957E-2,5.7182968E-2,-6.629425E-2,-2.9913548E-2,-6.143703E-2,-2.5450215E-2,-4.4424366E-2,5.8245804E-2,-2.0776315E-2,3.562038E-2,-4.1219633E-2,-7.711326E-3,-1.9876051E-3,8.315127E-2,-3.895495E-2,1.3687121E-2,4.673117E-2,9.7724505E-2,-6.1007567E-2,-4.738837E-2,-4.214295E-2,-6.1301864E-3,-3.6035072E-2,2.2830789E-3,-6.624786E-2,2.1490116E-2,5.021432E-2,1.12347595E-1,1.052019E-2,6.775776E-2,-1.0160073E-2,3.133741E-2],"categories":[],"categories_nodes":[],"categories_segments":[],"categories_sizes":[],"default_left":[0,0,0,0,0,0,0,0,0,0,0,0,0,0,0,0,0,0,0,0,0,0,0,0,0,0,0,0,0,0,0,0,0,0,0,0,0,0,0,0,0,0,0,0,0,0,0,0,0,0,0,0,0,0,0,0,0,0,0,0,0,0,0,0,0,0,0,0,0,0,0,0,0,0,0,0,0,0,0,0,0,0,0,0,0,0,0,0,0,0,0,0,0,0,0,0,0,0,0,0,0,0,0,0,0,0,0,0,0],"id":11,"left_children":[1,3,5,7,9,11,13,15,17,-1,19,21,23,25,27,29,31,33,35,37,39,41,43,45,47,49,51,53,55,57,59,61,63,65,67,-1,69,71,73,75,77,79,81,83,85,87,89,91,93,95,97,99,101,103,105,107,-1,-1,-1,-1,-1,-1,-1,-1,-1,-1,-1,-1,-1,-1,-1,-1,-1,-1,-1,-1,-1,-1,-1,-1,-1,-1,-1,-1,-1,-1,-1,-1,-1,-1,-1,-1,-1,-1,-1,-1,-1,-1,-1,-1,-1,-1,-1,-1,-1,-1,-1,-1,-1],"loss_changes":[6.816471E3,9.448152E2,5.6690845E2,4.5256458E2,8.090845E1,1.4535986E2,1.5281055E2,1.4964995E2,2.0036987E2,0E0,7.409082E1,6.3410645E1,2.4865902E1,8.49772E1,5.324521E1,2.9611588E1,1.1118263E2,1.0122748E2,9.919861E1,3.4576385E1,2.5359985E1,4.7910156E0,1.4390837E1,9.485663E0,1.3844876E1,1.944049E1,5.8094017E1,4.828425E1,4.4716522E1,1.7387276E1,1.2672338E1,4.1465805E1,4.972903E1,3.545044E1,4.9285355E1,0E0,8.3167725E1,9.14035E0,3.0829323E1,4.322876E0,2.3236328E1,2.163086E0,7.904091E0,5.6393127E0,1.1993084E1,6.6225204E0,6.383052E0,3.9245918E0,3.3602772E0,3.3537445E0,2.2624054E1,1.7695274E1,1.9786285E1,3.8947296E-1,2.240156E1,2.4041094E1,0E0,0E0,0E0,0E0,0E0,0E0,0E0,0E0,0E0,0E0,0E0,0E0,0E0,0E0,0E0,0E0,0E0,0E0,0E0,0E0,0E0,0E0,0E0,0E0,0E0,0E0,0E0,0E0,0E0,0E0,0E0,0E0,0E0,0E0,0E0,0E0,0E0,0E0,0E0,0E0,0E0,0E0,0E0,0E0,0E0,0E0,0E0,0E0,0E0,0E0,0E0,0E0,0E0],"parents":[2147483647,0,0,1,1,2,2,3,3,4,4,5,5,6,6,7,7,8,8,10,10,11,11,12,12,13,13,14,14,15,15,16,16,17,17,18,18,19,19,20,20,21,21,22,22,23,23,24,24,25,25,26,26,27,27,28,28,29,29,30,30,31,31,32,32,33,33,34,34,36,36,37,37,38,38,39,39,40,40,41,41,42,42,43,43,44,44,45,45,46,46,47,47,48,48,49,49,50,50,51,51,52,52,53,53,54,54,55,55],"right_children":[2,4,6,8,10,12,14,16,18,-1,20,22,24,26,28,30,32,34,36,38,40,42,44,46,48,50,52,54,56,58,60,62,64,66,68,-1,70,72,74,76,78,80,82,84,86,88,90,92,94,96,98,100,102,104,106,108,-1,-1,-1,-1,-1,-1,-1,-1,-1,-1,-1,-1,-1,-1,-1,-1,-1,-1,-1,-1,-1,-1,-1,-1,-1,-1,-1,-1,-1,-1,-1,-1,-1,-1,-1,-1,-1,-1,-1,-1,-1,-1,-1,-1,-1,-1,-1,-1,-1,-1,-1,-1,-1],"split_conditions":[5.97526E-1,1.5014273E0,-5.484406E-1,-1.6135357E-1,-7.95488E-1,1.6688758E0,1.5014273E0,-5.828509E-1,-1.1593097E-1,1.0671822E-1,-2.6644132E-1,1.5014273E0,1.5014273E0,1.5390965E-1,3.290215E-1,1.6688758E0,-4.3476003E-1,-5.277394E-1,-1.6783248E0,-7.1758014E-1,-4.3476003E-1,9.386838E-1,3.3776872E-3,1.0996993E0,-1.0419941E-1,-2.781794E-1,1.2744167E-1,-7.95488E-1,1.6688758E0,-4.3476003E-1,9.386838E-1,-1.6783248E0,1.6688758E0,-6.6005015E-1,1.6688758E0,-6.86667E-2,-7.95488E-1,4.3225235E-1,-3.781582E-1,-1.5986557E0,3.4622666E-1,1.8353134E0,2.551481E-1,1.9121743E0,4.6652275E-1,1.2744167E-1,4.5193854E-1,-6.559806E-1,1.0996993E0,-5.836086E-1,1.6688758E0,1.6688758E0,-1.6783248E0,-5.140303E-1,1.6688758E0,1.2744167E-1,-7.206484E-2,-1.7941866E-2,-4.732713E-2,-9.192317E-3,4.336619E-2,-6.7922086E-2,4.2448867E-2,-1.3307038E-2,2.7645597E-2,1.824185E-2,6.0604155E-2,-3.1725236E-3,3.856258E-2,9.472911E-2,5.7354897E-2,9.1758355E-2,5.8322378E-2,1.16915535E-2,5.6474984E-2,5.9964925E-2,9.756946E-2,8.702957E-2,5.7182968E-2,-6.629425E-2,-2.9913548E-2,-6.143703E-2,-2.5450215E-2,-4.4424366E-2,5.8245804E-2,-2.0776315E-2,3.562038E-2,-4.1219633E-2,-7.711326E-3,-1.9876051E-3,8.315127E-2,-3.895495E-2,1.3687121E-2,4.673117E-2,9.7724505E-2,-6.1007567E-2,-4.738837E-2,-4.214295E-2,-6.1301864E-3,-3.6035072E-2,2.2830789E-3,-6.624786E-2,2.1490116E-2,5.021432E-2,1.12347595E-1,1.052019E-2,6.775776E-2,-1.0160073E-2,3.133741E-2],"split_indices":[9,5,4,8,1,6,5,4,7,0,8,5,5,8,4,6,9,9,0,9,9,7,8,8,8,7,7,1,6,9,7,0,6,4,6,0,1,4,7,7,4,8,8,7,7,7,7,7,8,8,6,6,0,4,6,7,0,0,0,0,0,0,0,0,0,0,0,0,0,0,0,0,0,0,0,0,0,0,0,0,0,0,0,0,0,0,0,0,0,0,0,0,0,0,0,0,0,0,0,0,0,0,0,0,0,0,0,0,0],"split_type":[0,0,0,0,0,0,0,0,0,0,0,0,0,0,0,0,0,0,0,0,0,0,0,0,0,0,0,0,0,0,0,0,0,0,0,0,0,0,0,0,0,0,0,0,0,0,0,0,0,0,0,0,0,0,0,0,0,0,0,0,0,0,0,0,0,0,0,0,0,0,0,0,0,0,0,0,0,0,0,0,0,0,0,0,0,0,0,0,0,0,0,0,0,0,0,0,0,0,0,0,0,0,0,0,0,0,0,0,0],"sum_hessian":[2.8613955E4,1.4344581E4,1.4269373E4,9.574032E3,4.770549E3,1.0207178E4,4.0621956E3,3.8076416E3,5.7663906E3,1.2673134E3,3.5032356E3,9.782012E3,4.2516556E2,2.962971E3,1.0992245E3,1.1417318E3,2.66591E3,2.4359739E3,3.3304167E3,1.0814987E3,2.421737E3,9.366755E3,4.152567E2,2.8951932E2,1.3564622E2,1.7568397E3,1.2061312E3,4.3675946E2,6.624651E2,8.50961E2,2.9077078E2,1.2022633E3,1.4636465E3,1.0458652E3,1.3901088E3,5.4560455E1,3.2758564E3,3.75532E2,7.059666E2,1.2904192E3,1.1313177E3,8.962852E3,4.0390353E2,2.3286034E2,1.8239636E2,2.4838225E2,4.113707E1,6.711219E1,6.8534035E1,7.917084E2,9.6513135E2,6.956258E2,5.105054E2,8.161818E1,3.551413E2,5.804516E2,8.20135E1,3.3134863E2,5.1961237E2,2.3481622E2,5.595454E1,3.419422E1,1.1680691E3,1.051888E3,4.1175854E2,2.6591843E2,7.799468E2,9.959357E2,3.9417303E2,7.869837E2,2.4888728E3,2.3897168E2,1.3656033E2,2.2708305E2,4.7888354E2,3.7288242E1,1.253131E3,7.0054816E2,4.307696E2,8.944153E3,1.869827E1,3.2638425E2,7.751929E1,2.2820676E2,4.6535745E0,1.3052007E2,5.1876312E1,1.5117833E2,9.720392E1,2.963531E1,1.1501762E1,1.888319E1,4.8229004E1,4.939727E1,1.9136766E1,4.2942685E2,3.6228152E2,7.3610724E2,2.2902406E2,5.40778E2,1.5484778E2,2.6181856E1,4.8432355E2,3.3569915E0,7.8261185E1,2.6357422E2,9.1567055E1,3.492485E2,2.3120308E2],"tree_param":{"num_deleted":"0","num_feature":"10","num_nodes":"109","size_leaf_vector":"1"}},{"base_weights":[-8.143621E-3,4.6671623E-1,-6.6615134E-1,-6.642537E-2,7.5830394E-1,-5.2669954E-1,-6.684129E-1,-6.880746E-2,8.224948E-1,-6.329175E-1,-2.3026307E-1,-6.616249E-2,-6.833206E-2,8.541951E-1,-6.926784E-2,-6.556752E-2,-4.359114E-1,-6.46713E-2,-8.640119E-2,8.949273E-1,6.882728E-1,-2.2321748E-2,-6.423403E-2,4.257579E-1,-2.8782862E-1,9.3285106E-2,8.121566E-2,7.761823E-2,2.291815E-2,9.010546E-2,-3.9960198E-2,6.606606E-2,-4.6439316E-2,-1.8647334E-3,-5.8648624E-2],"categories":[],"categories_nodes":[],"categories_segments":[],"categories_sizes":[],"default_left":[0,0,0,0,0,0,0,0,0,0,0,0,0,0,0,0,0,0,0,0,0,0,0,0,0,0,0,0,0,0,0,0,0,0,0],"id":12,"left_children":[1,3,5,-1,7,9,11,-1,13,15,17,-1,-1,19,-1,-1,21,-1,23,25,27,29,-1,31,33,-1,-1,-1,-1,-1,-1,-1,-1,-1,-1],"loss_changes":[8.654154E3,5.3056895E3,3.3100586E0,0E0,1.1880635E3,5.8365555E0,7.03125E-1,0E0,5.8883887E2,3.3872986E-1,3.0409942E0,0E0,0E0,8.0461914E1,0E0,0E0,1.4719906E0,0E0,4.2050447E0,2.9467285E1,9.542737E1,2.7401958E0,0E0,2.7268975E0,2.3204165E0,0E0,0E0,0E0,0E0,0E0,0E0,0E0,0E0,0E0,0E0],"parents":[2147483647,0,0,1,1,2,2,4,4,5,5,6,6,8,8,9,9,10,10,13,13,16,16,18,18,19,19,20,20,21,21,23,23,24,24],"right_children":[2,4,6,-1,8,10,12,-1,14,16,18,-1,-1,20,-1,-1,22,-1,24,26,28,30,-1,32,34,-1,-1,-1,-1,-1,-1,-1,-1,-1,-1],"split_conditions":[-5.484406E-1,6.6502243E-1,-5.140303E-1,-6.642537E-2,-5.5610436E-1,8.4006685E-1,5.97526E-1,-6.880746E-2,1.6688758E0,6.6502243E-1,-7.95488E-1,-6.616249E-2,-6.833206E-2,4.882191E-2,-6.926784E-2,-6.556752E-2,6.801349E-1,-6.46713E-2,-5.39932E-1,-2.781794E-1,1.2744167E-1,-6.7018664E-1,-6.423403E-2,7.024464E-1,-4.5326218E-1,9.3285106E-2,8.121566E-2,7.761823E-2,2.291815E-2,9.010546E-2,-3.9960198E-2,6.606606E-2,-4.6439316E-2,-1.8647334E-3,-5.8648624E-2],"split_indices":[4,9,4,0,1,9,9,0,6,9,1,0,0,8,0,0,9,0,1,7,7,8,0,8,8,0,0,0,0,0,0,0,0,0,0],"split_type":[0,0,0,0,0,0,0,0,0,0,0,0,0,0,0,0,0,0,0,0,0,0,0,0,0,0,0,0,0,0,0,0,0,0,0],"sum_hessian":[2.7694717E4,1.6086195E4,1.1608522E4,3.296994E3,1.2789201E4,1.8899309E2,1.1419529E4,5.4305774E2,1.2246144E4,1.3830212E2,5.0690964E1,7.877826E3,3.5417031E3,1.1995609E4,2.5053459E2,1.2189309E2,1.6409039E1,1.2117622E1,3.857334E1,9.627712E3,2.3678977E3,5.8321657E0,1.0576874E1,1.0573908E1,2.7999432E1,6.595518E3,3.0321936E3,1.9867689E3,3.811287E2,1.2890308E0,4.5431347E0,8.570138E0,2.0037696E0,1.5285231E1,1.2714201E1],"tree_param":{"num_deleted":"0","num_feature":"10","num_nodes":"35","size_leaf_vector":"1"}},{"base_weights":[9.535607E-3,-1.1606236E-1,3.080022E-1,1.0144102E-1,-1.4522523E-1,5.21965E-1,1.4031966E-1,-2.171351E-1,1.6482767E-2,7.42525E-1,4.109189E-1,1.0445233E-1,1.0230756E-1,-2.6052874E-1,1.416386E-1,2.238517E-1,-4.3974805E-1,7.954837E-1,5.5381393E-1,1.0181779E-1,3.671826E-1,2.8444564E-1,-4.159133E-2,3.368991E-1,-3.0377758E-1,3.2404622E-1,-2.172607E-1,-2.930362E-1,3.320722E-1,-6.465873E-1,-3.6918443E-1,8.751998E-1,5.514025E-1,4.441254E-2,6.560084E-1,-3.9208013E-1,4.0072086E-1,3.740155E-1,4.1459985E-2,6.0604744E-2,-2.7911913E-1,5.6259256E-2,-3.384484E-2,-3.6143802E-2,3.8607758E-2,6.2394347E-2,1.7591575E-2,1.8708134E-2,-3.5274554E-2,3.1918056E-2,-3.663104E-2,4.9816795E-2,1.6835416E-2,-3.283957E-2,-6.6078E-2,-2.8109713E-2,-5.4529227E-2,9.073595E-2,6.8385504E-2,6.636193E-2,3.3330373E-2,9.188003E-2,-1.8663174E-2,5.8615204E-2,1.1340783E-1,-2.6468504E-2,-6.763952E-2,4.7890242E-2,1.8471776E-2,4.9992364E-2,4.3548746E-3,-8.258224E-3,1.2365117E-1,-2.3625772E-2,1.4480039E-2,-4.75332E-2,-2.1232357E-2],"categories":[],"categories_nodes":[],"categories_segments":[],"categories_sizes":[],"default_left":[0,0,0,0,0,0,0,0,0,0,0,0,0,0,0,0,0,0,0,0,0,0,0,0,0,0,0,0,0,0,0,0,0,0,0,0,0,0,0,0,0,0,0,0,0,0,0,0,0,0,0,0,0,0,0,0,0,0,0,0,0,0,0,0,0,0,0,0,0,0,0,0,0,0,0,0,0],"id":13,"left_children":[1,3,5,-1,7,9,11,13,15,17,19,-1,21,23,25,27,29,31,33,-1,35,37,39,41,43,45,47,49,51,53,55,57,59,61,63,65,67,69,71,73,75,-1,-1,-1,-1,-1,-1,-1,-1,-1,-1,-1,-1,-1,-1,-1,-1,-1,-1,-1,-1,-1,-1,-1,-1,-1,-1,-1,-1,-1,-1,-1,-1,-1,-1,-1,-1],"loss_changes":[1.0672195E3,6.607352E2,3.0244513E2,0E0,2.2715659E2,9.042273E1,1.6241713E2,2.1054681E2,5.690512E2,1.1944336E1,6.512366E1,0E0,1.1897423E2,3.1178473E2,9.562546E1,2.3141122E2,2.719455E1,1.8301208E1,1.42793045E1,0E0,5.877536E1,4.3587097E1,6.1588943E1,1.243805E2,4.476007E2,4.289971E1,2.7043715E1,3.225564E1,9.290939E1,1.936142E0,2.1623764E1,3.847107E0,5.6617813E0,9.666436E0,6.9781876E0,3.3664684E0,3.714987E1,6.0880096E1,8.025662E1,4.4381718E1,9.901833E0,0E0,0E0,0E0,0E0,0E0,0E0,0E0,0E0,0E0,0E0,0E0,0E0,0E0,0E0,0E0,0E0,0E0,0E0,0E0,0E0,0E0,0E0,0E0,0E0,0E0,0E0,0E0,0E0,0E0,0E0,0E0,0E0,0E0,0E0,0E0,0E0],"parents":[2147483647,0,0,1,1,2,2,4,4,5,5,6,6,7,7,8,8,9,9,10,10,12,12,13,13,14,14,15,15,16,16,17,17,18,18,20,20,21,21,22,22,23,23,24,24,25,25,26,26,27,27,28,28,29,29,30,30,31,31,32,32,33,33,34,34,35,35,36,36,37,37,38,38,39,39,40,40],"right_children":[2,4,6,-1,8,10,12,14,16,18,20,-1,22,24,26,28,30,32,34,-1,36,38,40,42,44,46,48,50,52,54,56,58,60,62,64,66,68,70,72,74,76,-1,-1,-1,-1,-1,-1,-1,-1,-1,-1,-1,-1,-1,-1,-1,-1,-1,-1,-1,-1,-1,-1,-1,-1,-1,-1,-1,-1,-1,-1,-1,-1,-1,-1,-1,-1],"split_conditions":[3.4622666E-1,-1.6783248E0,-1.6135357E-1,1.0144102E-1,-6.00056E-1,-4.404278E-1,-1.6783248E0,1.6688758E0,1.5014273E0,1.5014273E0,-1.6783248E0,1.0445233E-1,-1.17504776E-1,-5.5610436E-1,1.5014273E0,-7.95488E-1,-7.95488E-1,1.6688758E0,-7.95488E-1,1.0181779E-1,-1.24044E0,1.5014273E0,1.0996993E0,1.5014273E0,1.5014273E0,-4.404278E-1,-5.836086E-1,-5.140303E-1,-5.626583E-2,-5.484406E-1,1.6688758E0,1.4473556E0,1.0516374E0,-1.6783248E0,1.6688758E0,1.5014273E0,1.5014273E0,1.6688758E0,1.6688758E0,-7.95488E-1,-7.95488E-1,5.6259256E-2,-3.384484E-2,-3.6143802E-2,3.8607758E-2,6.2394347E-2,1.7591575E-2,1.8708134E-2,-3.5274554E-2,3.1918056E-2,-3.663104E-2,4.9816795E-2,1.6835416E-2,-3.283957E-2,-6.6078E-2,-2.8109713E-2,-5.4529227E-2,9.073595E-2,6.8385504E-2,6.636193E-2,3.3330373E-2,9.188003E-2,-1.8663174E-2,5.8615204E-2,1.1340783E-1,-2.6468504E-2,-6.763952E-2,4.7890242E-2,1.8471776E-2,4.9992364E-2,4.3548746E-3,-8.258224E-3,1.2365117E-1,-2.3625772E-2,1.4480039E-2,-4.75332E-2,-2.1232357E-2],"split_indices":[4,0,8,0,4,7,0,6,5,5,0,0,7,1,5,1,1,6,1,0,0,5,8,5,5,7,8,4,8,4,6,4,4,0,6,5,5,6,6,1,1,0,0,0,0,0,0,0,0,0,0,0,0,0,0,0,0,0,0,0,0,0,0,0,0,0,0,0,0,0,0,0,0,0,0,0,0],"split_type":[0,0,0,0,0,0,0,0,0,0,0,0,0,0,0,0,0,0,0,0,0,0,0,0,0,0,0,0,0,0,0,0,0,0,0,0,0,0,0,0,0,0,0,0,0,0,0,0,0,0,0,0,0,0,0,0,0,0,0,0,0,0,0,0,0,0,0,0,0,0,0,0,0,0,0,0,0],"sum_hessian":[2.8467254E4,2.0036352E4,8.430901E3,5.0303082E2,1.9533322E4,3.7033357E3,4.727566E3,1.3520536E4,6.0127856E3,1.2382451E3,2.4650906E3,1.896574E2,4.5379087E3,1.2061922E4,1.4586141E3,4.1341943E3,1.8785911E3,9.6438947E2,2.7385565E2,1.6411705E2,2.3009734E3,2.0024093E3,2.5354995E3,8.1378064E2,1.1248142E4,9.6716003E2,4.9145407E2,7.1542755E2,3.418767E3,4.7578516E2,1.4028059E3,7.2501605E2,2.3937343E2,4.5999565E1,2.2785608E2,9.688698E1,2.2040864E3,1.4626902E3,5.3971906E2,1.7732887E3,7.6221063E2,6.100694E2,2.037113E2,1.0380942E4,8.6719855E2,3.187081E2,6.484519E2,1.2324873E2,3.6820532E2,7.611548E1,6.393121E2,1.6960461E3,1.7227208E3,2.1346489E1,4.5443866E2,9.368163E2,4.659897E2,6.174911E2,1.0752493E2,1.5670334E2,8.26701E1,8.992122E0,3.7007442E1,2.0074844E2,2.7107641E1,6.824078E1,2.8646194E1,1.6174419E3,5.8664453E2,1.058781E3,4.0390918E2,4.8980942E2,4.9909626E1,3.9141306E2,1.3818756E3,1.9202333E2,5.701873E2],"tree_param":{"num_deleted":"0","num_feature":"10","num_nodes":"77","size_leaf_vector":"1"}},{"base_weights":[1.0481226E-3,4.4704768E-1,-4.6832374E-1,2.8633448E-1,7.690736E-1,-5.9977555E-1,-1.4790635E-1,4.0184967E-2,4.481334E-1,6.681292E-1,9.895333E-2,-6.274042E-1,-1.1877084E-1,-3.4890285E-1,9.824778E-4,3.9239055E-1,-6.8011254E-2,-6.982239E-2,4.744168E-1,9.896752E-2,5.6602466E-1,-6.378322E-1,-3.9825463E-1,-2.0833178E-1,3.7801027E-1,-4.3775848E-1,-9.31701E-2,-1.712545E-1,2.3470354E-1,-6.710281E-2,4.293413E-1,-3.1313372E-1,4.774182E-2,7.996352E-1,3.8090262E-1,1.0235915E-1,4.6386534E-1,-4.4801533E-1,-6.4407575E-1,-4.163269E-1,4.2348793E-1,-4.1017854E-1,-9.232925E-2,1.3578787E-1,8.800724E-1,-5.585093E-1,-3.4281692E-1,3.045947E-1,-1.8240733E-1,-2.804097E-1,1.199294E-1,-6.620892E-2,2.7606043E-1,7.812372E-2,3.2417037E-2,-4.0556088E-2,-1.216172E-2,-1.2316844E-2,2.0675464E-2,6.6500284E-2,1.11088954E-1,5.386412E-2,1.7003989E-2,6.744484E-3,5.698647E-2,-5.1851343E-2,-7.66622E-3,-4.3883096E-2,-6.473804E-2,-5.6514423E-2,-3.285035E-2,-5.0342854E-2,7.7527404E-2,-4.3573465E-2,3.773045E-2,-1.8642968E-2,1.4769034E-2,3.1317335E-2,-2.1059915E-2,1.045751E-1,5.897377E-2,-3.7720636E-2,-5.7041693E-2,-6.60811E-2,-3.0630564E-2,1.009339E-1,4.6841293E-3,-2.9564742E-2,5.858237E-3,-6.652511E-2,-2.3910398E-2,5.2444585E-2,2.2294456E-3,9.536499E-2,2.430928E-2],"categories":[],"categories_nodes":[],"categories_segments":[],"categories_sizes":[],"default_left":[0,0,0,0,0,0,0,0,0,0,0,0,0,0,0,0,0,0,0,0,0,0,0,0,0,0,0,0,0,0,0,0,0,0,0,0,0,0,0,0,0,0,0,0,0,0,0,0,0,0,0,0,0,0,0,0,0,0,0,0,0,0,0,0,0,0,0,0,0,0,0,0,0,0,0,0,0,0,0,0,0,0,0,0,0,0,0,0,0,0,0,0,0,0,0],"id":14,"left_children":[1,3,5,7,9,11,13,15,17,19,-1,21,23,25,27,29,31,-1,33,-1,35,37,39,41,43,45,47,49,51,-1,53,55,57,59,61,-1,63,65,67,69,71,73,75,77,79,81,83,85,87,89,91,-1,93,-1,-1,-1,-1,-1,-1,-1,-1,-1,-1,-1,-1,-1,-1,-1,-1,-1,-1,-1,-1,-1,-1,-1,-1,-1,-1,-1,-1,-1,-1,-1,-1,-1,-1,-1,-1,-1,-1,-1,-1,-1,-1],"loss_changes":[5.9317637E3,7.517388E2,5.8141406E2,3.8606104E2,1.069729E2,1.3002295E2,1.2023161E2,1.46583E2,1.7656506E2,1.0845996E2,0E0,2.1867432E1,2.3792696E1,3.8807785E1,9.2988495E1,3.5807816E1,8.351693E1,0E0,1.7361182E2,0E0,1.1744556E2,1.0203125E1,6.199898E0,1.0550837E1,9.82426E0,1.4351181E1,1.5748717E1,4.230384E1,3.6531525E1,0E0,3.210022E1,1.6662468E1,5.437497E1,5.2740356E1,1.477005E2,0E0,8.669354E1,7.426777E0,5.527832E0,5.008026E0,3.3980775E0,3.4800663E0,6.5429115E0,3.5276508E0,6.545315E-1,9.868469E-1,8.0728E0,1.4736738E1,9.888829E0,1.5222069E1,1.4337208E1,0E0,2.0711754E1,0E0,0E0,0E0,0E0,0E0,0E0,0E0,0E0,0E0,0E0,0E0,0E0,0E0,0E0,0E0,0E0,0E0,0E0,0E0,0E0,0E0,0E0,0E0,0E0,0E0,0E0,0E0,0E0,0E0,0E0,0E0,0E0,0E0,0E0,0E0,0E0,0E0,0E0,0E0,0E0,0E0,0E0],"parents":[2147483647,0,0,1,1,2,2,3,3,4,4,5,5,6,6,7,7,8,8,9,9,11,11,12,12,13,13,14,14,15,15,16,16,18,18,20,20,21,21,22,22,23,23,24,24,25,25,26,26,27,27,28,28,30,30,31,31,32,32,33,33,34,34,36,36,37,37,38,38,39,39,40,40,41,41,42,42,43,43,44,44,45,45,46,46,47,47,48,48,49,49,50,50,52,52],"right_children":[2,4,6,8,10,12,14,16,18,20,-1,22,24,26,28,30,32,-1,34,-1,36,38,40,42,44,46,48,50,52,-1,54,56,58,60,62,-1,64,66,68,70,72,74,76,78,80,82,84,86,88,90,92,-1,94,-1,-1,-1,-1,-1,-1,-1,-1,-1,-1,-1,-1,-1,-1,-1,-1,-1,-1,-1,-1,-1,-1,-1,-1,-1,-1,-1,-1,-1,-1,-1,-1,-1,-1,-1,-1,-1,-1,-1,-1,-1,-1],"split_conditions":[5.97526E-1,1.5014273E0,-5.484406E-1,-1.6135357E-1,6.4190537E-1,1.5014273E0,-2.6644132E-1,-8.8023925E-1,-1.6783248E0,-7.95488E-1,9.895333E-2,6.4190537E-1,9.9461156E-1,1.5014273E0,1.2744167E-1,-1.6783248E0,-5.140303E-1,-6.982239E-2,-7.95488E-1,9.896752E-2,-1.137472E0,-7.95488E-1,1.9932986E0,-5.836086E-1,6.6911405E-1,-2.781794E-1,-7.95488E-1,1.5014273E0,-1.6783248E0,-6.710281E-2,-7.95488E-1,3.7081432E-1,-3.480675E-2,6.4190537E-1,-2.4451564E-1,1.0235915E-1,-6.937299E-1,8.3667725E-1,-1.137472E0,-4.766168E-1,-1.4157367E0,1.9121743E0,5.3306276E-1,1.2361135E0,1.2436577E0,-1.4955555E0,-1.6783248E0,3.290215E-1,4.5193854E-1,-1.6783248E0,-7.95488E-1,-6.620892E-2,-1.24044E0,7.812372E-2,3.2417037E-2,-4.0556088E-2,-1.216172E-2,-1.2316844E-2,2.0675464E-2,6.6500284E-2,1.11088954E-1,5.386412E-2,1.7003989E-2,6.744484E-3,5.698647E-2,-5.1851343E-2,-7.66622E-3,-4.3883096E-2,-6.473804E-2,-5.6514423E-2,-3.285035E-2,-5.0342854E-2,7.7527404E-2,-4.3573465E-2,3.773045E-2,-1.8642968E-2,1.4769034E-2,3.1317335E-2,-2.1059915E-2,1.045751E-1,5.897377E-2,-3.7720636E-2,-5.7041693E-2,-6.60811E-2,-3.0630564E-2,1.009339E-1,4.6841293E-3,-2.9564742E-2,5.858237E-3,-6.652511E-2,-2.3910398E-2,5.2444585E-2,2.2294456E-3,9.536499E-2,2.430928E-2],"split_indices":[9,5,4,8,3,5,8,9,0,1,0,3,8,5,7,0,4,0,1,0,3,1,7,8,7,7,1,5,0,0,1,7,7,3,9,0,8,7,3,8,4,7,7,9,7,3,0,4,7,0,1,0,0,0,0,0,0,0,0,0,0,0,0,0,0,0,0,0,0,0,0,0,0,0,0,0,0,0,0,0,0,0,0,0,0,0,0,0,0,0,0,0,0,0,0],"split_type":[0,0,0,0,0,0,0,0,0,0,0,0,0,0,0,0,0,0,0,0,0,0,0,0,0,0,0,0,0,0,0,0,0,0,0,0,0,0,0,0,0,0,0,0,0,0,0,0,0,0,0,0,0,0,0,0,0,0,0,0,0,0,0,0,0,0,0,0,0,0,0,0,0,0,0,0,0,0,0,0,0,0,0,0,0,0,0,0,0,0,0,0,0,0,0],"sum_hessian":[2.8333596E4,1.4528544E4,1.3805051E4,9.69297E3,4.835574E3,9.78845E3,4.016601E3,3.8448833E3,5.848087E3,3.319615E3,1.5159591E3,9.256459E3,5.319912E2,1.708637E3,2.307964E3,9.029453E2,2.941938E3,1.3050507E2,5.7175815E3,7.9796924E2,2.5216458E3,8.85185E3,4.046085E2,4.5122406E2,8.0767166E1,1.2675193E3,4.4111765E2,1.3289114E3,9.790526E2,2.9744936E1,8.732004E2,9.4309796E2,1.9988401E3,1.2752025E3,4.4423794E3,4.5859613E2,2.0630496E3,2.8420297E2,8.567647E3,3.9638434E2,8.224166E0,1.6375357E2,2.874705E2,5.5339035E1,2.5428133E1,5.5577625E2,7.1174304E2,8.038727E1,3.6073038E2,9.6660156E2,3.6230984E2,4.2498394E1,9.3655426E2,1.99444E2,6.737564E2,6.353541E2,3.0774384E2,9.6348834E2,1.0353517E3,8.923536E2,3.8284897E2,2.540426E3,1.9019531E3,4.356026E2,1.627447E3,2.3852487E2,4.5678104E1,1.3788226E2,8.429765E3,1.4509123E2,2.5129309E2,2.143974E0,6.080192E0,1.5903897E2,4.7145953E0,2.0666867E2,8.080182E1,3.666084E1,1.8678198E1,1.453303E1,1.0895104E1,3.626659E1,5.1950964E2,7.154292E1,6.4020013E2,2.074655E1,5.964072E1,2.452579E2,1.1547247E2,9.2226875E1,8.743747E2,6.959513E1,2.9271472E2,4.2157497E1,8.943967E2],"tree_param":{"num_deleted":"0","num_feature":"10","num_nodes":"95","size_leaf_vector":"1"}},{"base_weights":[-1.2664336E-2,4.3770167E-1,-6.4344144E-1,-6.508238E-2,7.045789E-1,-1.0745573E-1,-6.5057695E-1,-6.714081E-2,7.6184165E-1,-6.030243E-1,2.5520363E-1,-4.879542E-1,-6.532304E-1,8.061922E-1,-6.899982E-2,-2.6277682E-1,-6.427948E-2,-6.302152E-2,4.294733E-1,-6.404875E-2,-2.4047695E-1,-6.458574E-2,-6.692237E-2,8.2900894E-1,-6.9404736E-2,-5.421111E-2,3.1917777E-2,5.661181E-1,-6.273826E-2,-2.2880232E-2,-5.5904746E-1,8.495269E-2,6.989714E-2,7.89605E-2,1.8273322E-2,-6.208097E-2,1.3923757E-2,-2.1235196E-2,-5.8336694E-2],"categories":[],"categories_nodes":[],"categories_segments":[],"categories_sizes":[],"default_left":[0,0,0,0,0,0,0,0,0,0,0,0,0,0,0,0,0,0,0,0,0,0,0,0,0,0,0,0,0,0,0,0,0,0,0,0,0,0,0],"id":15,"left_children":[1,3,5,-1,7,9,11,-1,13,15,17,19,21,23,-1,25,-1,-1,27,-1,29,-1,-1,31,-1,-1,-1,33,-1,35,37,-1,-1,-1,-1,-1,-1,-1,-1],"loss_changes":[7.6543164E3,4.567218E3,4.2856934E1,0E0,9.953032E2,2.6871288E1,4.4609375E0,0E0,7.810532E2,6.851578E-1,1.3624418E1,6.70784E0,8.5253906E-1,4.0321582E2,0E0,1.5217601E0,0E0,0E0,1.0883743E1,0E0,4.9031982E0,0E0,0E0,3.0320312E1,0E0,0E0,0E0,5.43223E0,0E0,4.2720113E0,1.1842537E-1,0E0,0E0,0E0,0E0,0E0,0E0,0E0,0E0],"parents":[2147483647,0,0,1,1,2,2,4,4,5,5,6,6,8,8,9,9,10,10,11,11,12,12,13,13,15,15,18,18,20,20,23,23,27,27,29,29,30,30],"right_children":[2,4,6,-1,8,10,12,-1,14,16,18,20,22,24,-1,26,-1,-1,28,-1,30,-1,-1,32,-1,-1,-1,34,-1,36,38,-1,-1,-1,-1,-1,-1,-1,-1],"split_conditions":[-5.656457E-1,6.6502243E-1,-5.484406E-1,-6.508238E-2,-5.5610436E-1,6.801349E-1,-5.140303E-1,-6.714081E-2,1.5014273E0,-1.0593523E0,-7.95488E-1,6.6502243E-1,5.97526E-1,1.6688758E0,-6.899982E-2,2.5837463E-1,-6.427948E-2,-6.302152E-2,1.5014273E0,-6.404875E-2,-2.6426405E-1,-6.458574E-2,-6.692237E-2,2.896901E-1,-6.9404736E-2,-5.421111E-2,3.1917777E-2,-4.404278E-1,-6.273826E-2,-7.95488E-1,6.801349E-1,8.495269E-2,6.989714E-2,7.89605E-2,1.8273322E-2,-6.208097E-2,1.3923757E-2,-2.1235196E-2,-5.8336694E-2],"split_indices":[4,9,4,0,1,9,4,0,5,7,1,9,9,6,0,9,0,0,5,0,7,0,0,7,0,0,0,7,0,1,9,0,0,0,0,0,0,0,0],"split_type":[0,0,0,0,0,0,0,0,0,0,0,0,0,0,0,0,0,0,0,0,0,0,0,0,0,0,0,0,0,0,0,0,0,0,0,0,0,0,0],"sum_hessian":[2.6942186E4,1.5719201E4,1.1222984E4,3.0948088E3,1.2624393E4,1.4765907E2,1.1075325E4,5.0395544E2,1.2120437E4,6.211587E1,8.55432E1,1.8077821E2,1.0894547E4,1.1761591E4,3.588461E2,7.296822E0,5.481905E1,1.363763E1,7.190556E1,1.1086079E2,6.991742E1,7.485192E3,3.4093547E3,1.1585832E4,1.7575812E2,4.9765677E0,2.3202543E0,6.408422E1,7.8213468E0,4.2179153E1,2.7738268E1,1.0002114E4,1.5837181E3,3.9815163E1,2.4269054E1,8.393294E0,3.3785862E1,2.4561E0,2.5282167E1],"tree_param":{"num_deleted":"0","num_feature":"10","num_nodes":"39","size_leaf_vector":"1"}},{"base_weights":[9.159904E-3,9.492182E-2,-2.4188416E-2,-1.9579928E-1,1.4272141E-1,-2.8331923E-1,3.0896032E-1,2.7368808E-1,-1.8414085E-1,2.8240344E-1,-3.4143427E-1,4.744141E-1,-1.9036022E-1,4.6818718E-1,1.23617806E-1,-4.4031098E-1,2.800479E-2,4.3354443E-1,-1.545854E-1,-4.016855E-1,3.4418288E-1,8.839354E-3,5.522223E-1,-6.2703073E-1,-5.732271E-2,1.6913429E-1,5.3488636E-1,3.326695E-1,-2.9160757E-2,-3.512865E-1,-6.503655E-1,-4.2673665E-1,1.4198616E-1,5.627212E-2,3.5022316E-3,-5.5181872E-2,-3.7792497E-3,5.85183E-2,-4.5674007E-2,6.260937E-2,1.187798E-2,6.685387E-2,-7.743963E-3,-3.580955E-3,6.6192746E-2,-2.2429017E-2,-6.5611884E-2,6.1439622E-2,-1.4258832E-2,3.140209E-2,-2.9328236E-2,-5.6578075E-3,5.5723883E-2,1.3199806E-3,4.099448E-2,-3.0044887E-2,5.024006E-3,-6.309588E-2,-2.6621295E-2,-3.9523266E-2,-6.6580854E-2,-3.246374E-2,-6.634474E-2,3.882565E-2,3.301054E-4],"categories":[],"categories_nodes":[],"categories_segments":[],"categories_sizes":[],"default_left":[0,0,0,0,0,0,0,0,0,0,0,0,0,0,0,0,0,0,0,0,0,0,0,0,0,0,0,0,0,0,0,0,0,0,0,0,0,0,0,0,0,0,0,0,0,0,0,0,0,0,0,0,0,0,0,0,0,0,0,0,0,0,0,0,0],"id":16,"left_children":[1,-1,3,5,7,9,11,13,15,17,19,21,23,25,27,29,31,33,35,37,39,41,43,45,47,49,51,53,55,57,59,61,63,-1,-1,-1,-1,-1,-1,-1,-1,-1,-1,-1,-1,-1,-1,-1,-1,-1,-1,-1,-1,-1,-1,-1,-1,-1,-1,-1,-1,-1,-1,-1,-1],"loss_changes":[8.837344E2,0E0,7.7983014E2,5.930945E2,5.908784E2,3.7622626E2,1.6400177E2,2.8756744E2,2.1460825E2,7.049386E1,4.287307E2,5.399051E1,2.8692417E1,8.550781E1,1.7770581E2,3.3222626E1,1.1206521E2,4.0780624E1,1.2726602E1,5.1845764E2,5.3216278E1,1.2257824E1,8.240857E1,1.2044945E0,2.1859943E1,5.262152E1,4.6414062E1,5.7991455E1,6.927638E1,2.9776016E1,1.8301392E0,1.0257393E1,5.903675E1,0E0,0E0,0E0,0E0,0E0,0E0,0E0,0E0,0E0,0E0,0E0,0E0,0E0,0E0,0E0,0E0,0E0,0E0,0E0,0E0,0E0,0E0,0E0,0E0,0E0,0E0,0E0,0E0,0E0,0E0,0E0,0E0],"parents":[2147483647,0,0,2,2,3,3,4,4,5,5,6,6,7,7,8,8,9,9,10,10,11,11,12,12,13,13,14,14,15,15,16,16,17,17,18,18,19,19,20,20,21,21,22,22,23,23,24,24,25,25,26,26,27,27,28,28,29,29,30,30,31,31,32,32],"right_children":[2,-1,4,6,8,10,12,14,16,18,20,22,24,26,28,30,32,34,36,38,40,42,44,46,48,50,52,54,56,58,60,62,64,-1,-1,-1,-1,-1,-1,-1,-1,-1,-1,-1,-1,-1,-1,-1,-1,-1,-1,-1,-1,-1,-1,-1,-1,-1,-1,-1,-1,-1,-1,-1,-1],"split_conditions":[-1.6783248E0,9.492182E-2,-5.828509E-1,5.4305106E-1,1.5014273E0,-1.1352555E0,1.5014273E0,-1.6135357E-1,3.4622666E-1,1.5014273E0,1.5014273E0,6.4190537E-1,-7.95488E-1,-7.95488E-1,-1.9705518E-1,6.4190537E-1,-7.95488E-1,-1.137472E0,-7.95488E-1,-5.5610436E-1,-1.6135357E-1,-7.95488E-1,-7.95488E-1,6.4190537E-1,6.4190537E-1,6.4190537E-1,-5.484406E-1,-7.95488E-1,-7.95488E-1,-7.95488E-1,-5.140303E-1,6.4190537E-1,-3.7626767E-1,5.627212E-2,3.5022316E-3,-5.5181872E-2,-3.7792497E-3,5.85183E-2,-4.5674007E-2,6.260937E-2,1.187798E-2,6.685387E-2,-7.743963E-3,-3.580955E-3,6.6192746E-2,-2.2429017E-2,-6.5611884E-2,6.1439622E-2,-1.4258832E-2,3.140209E-2,-2.9328236E-2,-5.6578075E-3,5.5723883E-2,1.3199806E-3,4.099448E-2,-3.0044887E-2,5.024006E-3,-6.309588E-2,-2.6621295E-2,-3.9523266E-2,-6.6580854E-2,-3.246374E-2,-6.634474E-2,3.882565E-2,3.301054E-4],"split_indices":[0,0,4,3,5,3,5,8,4,5,5,3,1,1,7,3,1,3,1,1,8,1,1,3,3,3,4,1,1,1,4,3,8,0,0,0,0,0,0,0,0,0,0,0,0,0,0,0,0,0,0,0,0,0,0,0,0,0,0,0,0,0,0,0,0],"split_type":[0,0,0,0,0,0,0,0,0,0,0,0,0,0,0,0,0,0,0,0,0,0,0,0,0,0,0,0,0,0,0,0,0,0,0,0,0,0,0,0,0,0,0,0,0,0,0,0,0,0,0,0,0,0,0,0,0,0,0,0,0,0,0,0,0],"sum_hessian":[2.8188135E4,9.647675E2,2.7223367E4,1.3422573E4,1.3800794E4,1.14395205E4,1.9830525E3,9.853051E3,3.9477427E3,1.0653153E3,1.0374205E4,1.4895337E3,4.9351883E2,4.2903755E3,5.562676E3,1.7878284E3,2.1599143E3,7.9155035E2,2.7376495E2,9.536558E3,8.3764764E2,2.1344908E2,1.2760846E3,1.1437879E2,3.7914005E2,7.8304504E2,3.5073303E3,2.348277E3,3.2143984E3,1.2575364E3,5.3029193E2,4.3233228E2,1.727582E3,5.974735E2,1.9407681E2,6.1356365E1,2.124086E2,5.0339667E2,9.033161E3,3.713829E2,4.6626474E2,2.3906742E1,1.8954234E2,2.0074457E2,1.0753401E3,8.291325E0,1.0608747E2,4.2006767E1,3.3713327E2,5.964754E2,1.8656961E2,1.27665634E2,3.3796648E3,4.576095E2,1.8906676E3,7.271539E2,2.4872446E3,2.9181198E2,9.657245E2,3.178407E1,4.9850787E2,3.037072E2,1.2862506E2,6.2173517E2,1.1058469E3],"tree_param":{"num_deleted":"0","num_feature":"10","num_nodes":"65","size_leaf_vector":"1"}},{"base_weights":[5.2962275E-3,-3.419911E-1,3.287124E-1,-4.6185955E-1,3.8912657E-1,1.9661477E-1,6.1443293E-1,-5.2713674E-1,1.8727565E-1,1.22894414E-1,5.553728E-1,-5.237353E-2,3.4382847E-1,8.1446266E-1,4.3728694E-1,-5.6708246E-1,-1.2102598E-1,-1.624557E-1,3.0621964E-1,-3.617809E-3,4.855445E-1,4.4608328E-1,7.8488E-1,-1.6952863E-1,2.5338626E-1,-6.6481665E-2,3.7481663E-1,7.5642246E-1,9.3418665E-2,5.2251375E-1,-7.665798E-2,-5.891645E-1,-2.3742315E-1,-3.601501E-1,6.024277E-2,-3.3224502E-1,8.876916E-2,-6.543454E-2,3.5104185E-1,5.362875E-1,-1.0495369E-1,6.597129E-1,2.746187E-1,7.979269E-1,3.5336283E-1,7.24336E-1,8.841753E-1,-3.396666E-1,-5.3155176E-2,-6.642215E-2,2.9640117E-1,2.6341137E-1,6.1488E-1,9.239006E-1,6.95324E-1,2.654169E-1,6.361554E-1,-2.3224952E-2,-6.0378995E-2,-3.522153E-2,1.8549036E-3,-5.0240465E-2,-2.3368672E-2,-2.0057142E-2,2.0398362E-2,-5.6447506E-2,-2.5662852E-2,-5.9481334E-2,1.3695108E-2,2.5117507E-2,5.8793075E-2,3.6305256E-2,8.257856E-2,-3.0507818E-2,9.691964E-3,-4.5439094E-2,6.862062E-2,1.1373446E-2,5.106407E-2,-1.3917121E-2,8.089119E-2,3.3919811E-3,4.7507834E-2,5.682358E-2,7.951516E-2,9.121261E-2,6.945755E-2,-3.9412607E-2,-1.6758636E-2,-6.5881066E-2,-1.6821241E-3,-4.7532967E-3,4.0794093E-2,5.6035416E-3,3.8625233E-2,3.1562667E-2,7.018357E-2,6.8992086E-2,9.3337625E-2,4.203385E-2,7.5156145E-2,1.3501677E-2,6.035442E-2,-6.397237E-2,6.470713E-2],"categories":[],"categories_nodes":[],"categories_segments":[],"categories_sizes":[],"default_left":[0,0,0,0,0,0,0,0,0,0,0,0,0,0,0,0,0,0,0,0,0,0,0,0,0,0,0,0,0,0,0,0,0,0,0,0,0,0,0,0,0,0,0,0,0,0,0,0,0,0,0,0,0,0,0,0,0,0,0,0,0,0,0,0,0,0,0,0,0,0,0,0,0,0,0,0,0,0,0,0,0,0,0,0,0,0,0,0,0,0,0,0,0,0,0,0,0,0,0,0,0,0,0,0,0],"id":17,"left_children":[1,3,5,7,9,11,13,15,17,19,21,23,25,27,29,31,33,35,37,39,41,43,45,47,49,-1,51,53,-1,55,-1,57,59,61,63,65,67,-1,69,71,73,75,77,79,81,83,85,87,89,-1,91,93,95,97,99,101,103,-1,-1,-1,-1,-1,-1,-1,-1,-1,-1,-1,-1,-1,-1,-1,-1,-1,-1,-1,-1,-1,-1,-1,-1,-1,-1,-1,-1,-1,-1,-1,-1,-1,-1,-1,-1,-1,-1,-1,-1,-1,-1,-1,-1,-1,-1,-1,-1],"loss_changes":[3.111946E3,1.1710399E3,5.413511E2,4.8649658E2,8.3248566E1,3.5967285E2,1.6034827E2,1.6913379E2,4.371038E1,3.325991E1,2.8709198E1,1.3067064E2,1.9298602E2,1.4086548E1,2.4740079E2,6.8985596E1,4.0564083E1,1.1419406E1,3.396525E1,2.9513718E1,6.70652E0,2.5396698E1,1.5983734E0,5.2194496E1,4.0085617E1,0E0,1.5985529E2,1.4083069E1,0E0,6.553424E1,0E0,4.6312744E1,1.7572567E1,7.1405716E0,2.0018412E1,2.656845E0,3.654246E0,0E0,1.7578049E1,3.975546E0,1.8377615E1,3.3218536E0,3.2268763E0,1.7943497E0,2.427523E1,2.166687E0,8.998871E-2,9.969955E0,3.447515E1,0E0,3.7078445E1,1.04129E2,4.9109314E1,2.0211792E-1,1.6052277E1,3.0387589E1,2.2123352E1,0E0,0E0,0E0,0E0,0E0,0E0,0E0,0E0,0E0,0E0,0E0,0E0,0E0,0E0,0E0,0E0,0E0,0E0,0E0,0E0,0E0,0E0,0E0,0E0,0E0,0E0,0E0,0E0,0E0,0E0,0E0,0E0,0E0,0E0,0E0,0E0,0E0,0E0,0E0,0E0,0E0,0E0,0E0,0E0,0E0,0E0,0E0,0E0],"parents":[2147483647,0,0,1,1,2,2,3,3,4,4,5,5,6,6,7,7,8,8,9,9,10,10,11,11,12,12,13,13,14,14,15,15,16,16,17,17,18,18,19,19,20,20,21,21,22,22,23,23,24,24,26,26,27,27,29,29,31,31,32,32,33,33,34,34,35,35,36,36,38,38,39,39,40,40,41,41,42,42,43,43,44,44,45,45,46,46,47,47,48,48,50,50,51,51,52,52,53,53,54,54,55,55,56,56],"right_children":[2,4,6,8,10,12,14,16,18,20,22,24,26,28,30,32,34,36,38,40,42,44,46,48,50,-1,52,54,-1,56,-1,58,60,62,64,66,68,-1,70,72,74,76,78,80,82,84,86,88,90,-1,92,94,96,98,100,102,104,-1,-1,-1,-1,-1,-1,-1,-1,-1,-1,-1,-1,-1,-1,-1,-1,-1,-1,-1,-1,-1,-1,-1,-1,-1,-1,-1,-1,-1,-1,-1,-1,-1,-1,-1,-1,-1,-1,-1,-1,-1,-1,-1,-1,-1,-1,-1,-1],"split_conditions":[-5.484406E-1,1.5014273E0,1.5014273E0,1.6688758E0,-1.6135357E-1,-2.6644132E-1,3.4622666E-1,6.4190537E-1,-5.836086E-1,6.4190537E-1,6.4190537E-1,1.6688758E0,-1.6783248E0,6.4190537E-1,1.6688758E0,8.895238E-1,-1.6135357E-1,2.0212361E-1,-1.6783248E0,-1.137472E0,1.12607166E-1,-1.137472E0,1.6688758E0,-2.781794E-1,-1.6783248E0,-6.6481665E-2,1.6688758E0,-1.1352555E0,9.3418665E-2,-3.7626767E-1,-7.665798E-2,-1.137472E0,2.0856589E-1,-2.0358011E-1,-4.5352417E-1,-1.0330235E0,-1.6783248E0,-6.543454E-2,8.895238E-1,1.6688758E0,-5.96101E-2,-2.1696377E0,3.9677328E-1,-2.1696377E0,-4.776948E-1,-2.781794E-1,1.2436577E0,7.407597E-1,-1.6783248E0,-6.642215E-2,-6.026763E-1,-2.781794E-1,-6.026763E-1,-4.9682516E-1,-6.8679225E-1,6.4190537E-1,-1.6783248E0,-2.3224952E-2,-6.0378995E-2,-3.522153E-2,1.8549036E-3,-5.0240465E-2,-2.3368672E-2,-2.0057142E-2,2.0398362E-2,-5.6447506E-2,-2.5662852E-2,-5.9481334E-2,1.3695108E-2,2.5117507E-2,5.8793075E-2,3.6305256E-2,8.257856E-2,-3.0507818E-2,9.691964E-3,-4.5439094E-2,6.862062E-2,1.1373446E-2,5.106407E-2,-1.3917121E-2,8.089119E-2,3.3919811E-3,4.7507834E-2,5.682358E-2,7.951516E-2,9.121261E-2,6.945755E-2,-3.9412607E-2,-1.6758636E-2,-6.5881066E-2,-1.6821241E-3,-4.7532967E-3,4.0794093E-2,5.6035416E-3,3.8625233E-2,3.1562667E-2,7.018357E-2,6.8992086E-2,9.3337625E-2,4.203385E-2,7.5156145E-2,1.3501677E-2,6.035442E-2,-6.397237E-2,6.470713E-2],"split_indices":[4,5,5,6,8,8,4,3,8,3,3,6,0,3,6,8,8,7,0,3,0,3,6,7,0,0,6,3,0,8,0,3,7,7,7,7,0,0,8,6,7,7,7,7,7,7,7,3,0,0,7,7,7,4,8,3,0,0,0,0,0,0,0,0,0,0,0,0,0,0,0,0,0,0,0,0,0,0,0,0,0,0,0,0,0,0,0,0,0,0,0,0,0,0,0,0,0,0,0,0,0,0,0,0,0],"split_type":[0,0,0,0,0,0,0,0,0,0,0,0,0,0,0,0,0,0,0,0,0,0,0,0,0,0,0,0,0,0,0,0,0,0,0,0,0,0,0,0,0,0,0,0,0,0,0,0,0,0,0,0,0,0,0,0,0,0,0,0,0,0,0,0,0,0,0,0,0,0,0,0,0,0,0,0,0,0,0,0,0,0,0,0,0,0,0,0,0,0,0,0,0,0,0,0,0,0,0,0,0,0,0,0,0],"sum_hessian":[2.7704482E4,1.3359196E4,1.4345287E4,1.1477759E4,1.8814371E3,9.811027E3,4.53426E3,1.0429185E4,1.0485737E3,7.238996E2,1.1575376E3,3.6456465E3,6.165381E3,2.1278904E3,2.4063696E3,9.494859E3,9.3432587E2,2.660222E2,7.825515E2,5.374112E2,1.8648843E2,7.8613165E2,3.714059E2,2.6360583E3,1.00958813E3,1.8316081E2,5.98222E3,1.4380603E3,6.8983E2,2.247804E3,1.5856555E2,8.898041E3,5.968178E2,4.0244543E2,5.3188043E2,1.5854659E2,1.07475586E2,3.4281487E1,7.4827E2,8.4249245E1,4.5316193E2,1.0097902E2,8.5509415E1,1.6237315E2,6.2375854E2,2.3587749E2,1.3552841E2,1.0699187E3,1.5661396E3,4.456083E1,9.6502734E2,4.087464E3,1.8947561E3,3.8061826E2,1.057442E3,6.900368E2,1.5577672E3,3.5092905E2,8.547112E3,4.117778E2,1.8504002E2,1.8799893E2,2.1444652E2,1.8883983E2,3.430406E2,3.735588E1,1.21190704E2,6.329562E0,1.0114603E2,5.278157E2,2.2045435E2,5.4118774E1,3.0130468E1,2.2730995E2,2.2585199E2,1.9703472E0,9.900867E1,5.1729748E1,3.377967E1,1.7461408E0,1.6062701E2,1.724476E2,4.513109E2,7.6428604E1,1.5944888E2,1.14794624E2,2.0733786E1,8.1173334E2,2.5818533E2,8.76674E1,1.4784723E3,2.3646341E2,7.285639E2,1.5210817E3,2.5663823E3,4.2764987E2,1.4671063E3,1.768703E1,3.629312E2,1.8097887E2,8.764632E2,4.9899625E2,1.9104057E2,1.2725873E1,1.5450414E3],"tree_param":{"num_deleted":"0","num_feature":"10","num_nodes":"105","size_leaf_vector":"1"}},{"base_weights":[-1.5620307E-2,4.0538687E-1,-6.37419E-1,5.0376457E-1,-6.412931E-2,-5.0088644E-1,-6.396056E-2,-6.4642735E-2,5.805621E-1,-3.639451E-1,-6.235707E-1,6.3659006E-1,-6.490878E-2,-4.0496197E-1,2.8055173E-1,-1.5701835E-1,-6.337836E-2,6.6736543E-1,9.7781956E-2,-4.3212244E-1,2.3092757E-1,8.2133405E-2,-2.2948508E-1,1.1115808E-2,-3.527904E-2,7.1800426E-2,4.6041E-2,2.4425356E-2,-3.5293132E-2,-2.6740411E-2,-5.5498786E-2,4.1172907E-2,-2.7082916E-3,8.9663705E-3,-4.093569E-2],"categories":[],"categories_nodes":[],"categories_segments":[],"categories_sizes":[],"default_left":[0,0,0,0,0,0,0,0,0,0,0,0,0,0,0,0,0,0,0,0,0,0,0,0,0,0,0,0,0,0,0,0,0,0,0],"id":18,"left_children":[1,3,5,7,-1,9,-1,-1,11,13,15,17,-1,19,21,23,-1,25,27,29,31,-1,33,-1,-1,-1,-1,-1,-1,-1,-1,-1,-1,-1,-1],"loss_changes":[6.8415854E3,1.6049539E3,2.8291016E0,1.2586794E3,0E0,2.6446571E0,0E0,0E0,9.204409E2,2.3122416E0,3.233757E-1,2.1173096E2,0E0,1.4573507E0,1.7240057E0,2.0882297E-1,0E0,1.2629199E2,4.572319E1,1.384265E0,1.9175291E-1,0E0,2.4604219E-1,0E0,0E0,0E0,0E0,0E0,0E0,0E0,0E0,0E0,0E0,0E0,0E0],"parents":[2147483647,0,0,1,1,2,2,3,3,5,5,8,8,9,9,10,10,11,11,13,13,14,14,15,15,17,17,18,18,19,19,20,20,22,22],"right_children":[2,4,6,8,-1,10,-1,-1,12,14,16,18,-1,20,22,24,-1,26,28,30,32,-1,34,-1,-1,-1,-1,-1,-1,-1,-1,-1,-1,-1,-1],"split_conditions":[-5.484406E-1,1.5014273E0,-5.140303E-1,-5.5610436E-1,-6.412931E-2,-2.6426405E-1,-6.396056E-2,-6.4642735E-2,1.6688758E0,-3.2544878E-1,-2.2353654E0,8.895238E-1,-6.490878E-2,1.5569489E0,-2.9469272E-1,-7.479807E-1,-6.337836E-2,1.2744167E-1,2.896901E-1,-2.4321955E-1,-3.831481E-2,8.2133405E-2,-5.914831E-1,1.1115808E-2,-3.527904E-2,7.1800426E-2,4.6041E-2,2.4425356E-2,-3.5293132E-2,-2.6740411E-2,-5.5498786E-2,4.1172907E-2,-2.7082916E-3,8.9663705E-3,-4.093569E-2],"split_indices":[4,5,4,1,0,7,0,0,6,7,8,8,0,2,7,0,0,7,7,8,8,0,2,0,0,0,0,0,0,0,0,0,0,0,0],"split_type":[0,0,0,0,0,0,0,0,0,0,0,0,0,0,0,0,0,0,0,0,0,0,0,0,0,0,0,0,0,0,0,0,0,0,0],"sum_hessian":[2.6132707E4,1.5582479E4,1.0550229E4,1.4244183E4,1.338296E3,1.6992314E2,1.0380306E4,8.9108215E2,1.3353101E4,8.217034E1,8.775279E1,1.2771653E4,5.814473E2,7.76032E1,4.567138E0,2.2305295E0,8.552226E1,1.2081358E4,6.9029456E2,7.473167E1,2.8715372E0,1.9205128E0,2.6466255E0,1.1235931E0,1.1069365E0,9.704378E3,2.376981E3,5.2133167E2,1.6896289E2,3.328493E1,4.1446735E1,1.338086E0,1.5334512E0,1.1347456E0,1.5118799E0],"tree_param":{"num_deleted":"0","num_feature":"10","num_nodes":"35","size_leaf_vector":"1"}},{"base_weights":[1.1635233E-2,-9.875213E-2,2.633028E-1,8.774924E-2,-1.24454916E-1,-2.8181983E-2,5.168567E-1,-5.922822E-4,-2.7571547E-1,9.211879E-2,-5.7575453E-2,3.7702462E-1,6.741878E-1,-2.967189E-1,6.24777E-2,-4.1089845E-1,6.081287E-1,-3.7420315E-1,2.830823E-2,4.3064833E-1,-4.223002E-2,7.200147E-1,4.2294234E-1,-4.3491292E-1,4.210281E-1,-2.1857753E-1,1.1559978E-1,-4.739527E-1,7.536303E-1,1.8614574E-1,6.82855E-1,-2.4184239E-1,-6.9006905E-2,2.4503024E-1,-9.973889E-2,5.995747E-1,3.4000644E-1,1.8042411E-1,-2.9163462E-1,7.4371123E-1,3.1839937E-1,4.8059818E-1,-2.0211143E-2,-2.0897727E-2,-6.726347E-2,6.2008645E-2,-7.895707E-3,-2.9651786E-3,-4.0478732E-2,2.1492483E-2,-1.1562321E-2,6.7384146E-2,-5.0961148E-2,8.5015774E-2,4.312734E-2,3.553558E-2,-6.725868E-2,7.447018E-2,4.7514006E-2,-6.851059E-2,-1.118008E-2,-1.5371776E-2,3.2037843E-2,-2.1388868E-2,9.075184E-3,6.153908E-2,-2.8571997E-2,4.256424E-2,1.3305888E-2,2.3327425E-2,-1.8490842E-2,1.9188378E-3,-3.5692763E-2,8.256591E-2,6.966304E-2,3.79469E-2,-2.7766023E-2,8.433581E-2,4.339437E-2,2.4517227E-2,-2.3093192E-2],"categories":[],"categories_nodes":[],"categories_segments":[],"categories_sizes":[],"default_left":[0,0,0,0,0,0,0,0,0,0,0,0,0,0,0,0,0,0,0,0,0,0,0,0,0,0,0,0,0,0,0,0,0,0,0,0,0,0,0,0,0,0,0,0,0,0,0,0,0,0,0,0,0,0,0,0,0,0,0,0,0,0,0,0,0,0,0,0,0,0,0,0,0,0,0,0,0,0,0,0,0],"id":19,"left_children":[1,3,5,-1,7,9,11,13,15,-1,17,19,21,23,25,27,29,31,33,35,37,39,41,43,45,47,49,51,53,55,57,59,-1,61,63,65,67,69,71,73,75,77,79,-1,-1,-1,-1,-1,-1,-1,-1,-1,-1,-1,-1,-1,-1,-1,-1,-1,-1,-1,-1,-1,-1,-1,-1,-1,-1,-1,-1,-1,-1,-1,-1,-1,-1,-1,-1,-1,-1],"loss_changes":[7.7052344E2,4.83872E2,6.249995E2,0E0,3.5196014E2,1.09856834E2,9.924011E1,1.9293465E2,1.0107549E3,0E0,1.03824486E2,5.3900024E1,2.4183289E1,1.8009554E2,1.2717706E2,5.3903687E2,3.526465E1,3.3891785E1,8.338755E1,3.2333405E1,1.5195324E1,1.686792E1,8.454376E0,8.157825E1,2.924583E1,4.7626534E1,1.6453772E2,2.8520532E2,1.1370483E1,2.4973898E1,1.1890625E1,3.3103554E1,0E0,3.3578682E1,4.1095406E1,1.0547577E1,2.4492813E1,2.8367677E0,2.6248598E0,5.9699097E0,3.8141575E0,4.584427E0,2.2381124E0,0E0,0E0,0E0,0E0,0E0,0E0,0E0,0E0,0E0,0E0,0E0,0E0,0E0,0E0,0E0,0E0,0E0,0E0,0E0,0E0,0E0,0E0,0E0,0E0,0E0,0E0,0E0,0E0,0E0,0E0,0E0,0E0,0E0,0E0,0E0,0E0,0E0,0E0],"parents":[2147483647,0,0,1,1,2,2,4,4,5,5,6,6,7,7,8,8,10,10,11,11,12,12,13,13,14,14,15,15,16,16,17,17,18,18,19,19,20,20,21,21,22,22,23,23,24,24,25,25,26,26,27,27,28,28,29,29,30,30,31,31,33,33,34,34,35,35,36,36,37,37,38,38,39,39,40,40,41,41,42,42],"right_children":[2,4,6,-1,8,10,12,14,16,-1,18,20,22,24,26,28,30,32,34,36,38,40,42,44,46,48,50,52,54,56,58,60,-1,62,64,66,68,70,72,74,76,78,80,-1,-1,-1,-1,-1,-1,-1,-1,-1,-1,-1,-1,-1,-1,-1,-1,-1,-1,-1,-1,-1,-1,-1,-1,-1,-1,-1,-1,-1,-1,-1,-1,-1,-1,-1,-1,-1,-1],"split_conditions":[3.4622666E-1,-1.6783248E0,-2.74924E-2,8.774924E-2,9.119301E-1,-1.6783248E0,7.48383E-1,-7.95488E-1,-5.484406E-1,9.211879E-2,-7.95488E-1,1.191165E0,9.9461156E-1,5.97526E-1,-1.0062199E0,6.4190537E-1,-7.95488E-1,6.4190537E-1,-2.6644132E-1,-4.404278E-1,2.0212361E-1,1.4254291E0,1.0491455E0,-5.140303E-1,-3.9359432E-1,-5.140303E-1,6.801349E-1,-5.5610436E-1,1.6688758E0,6.4190537E-1,1.6688758E0,-1.24044E0,-6.9006905E-2,-1.3682166E0,-5.277394E-1,1.9635098E0,6.4190537E-1,1.8353134E0,1.3098748E0,-5.21552E-1,2.480044E0,-1.6783248E0,7.631498E-1,-2.0897727E-2,-6.726347E-2,6.2008645E-2,-7.895707E-3,-2.9651786E-3,-4.0478732E-2,2.1492483E-2,-1.1562321E-2,6.7384146E-2,-5.0961148E-2,8.5015774E-2,4.312734E-2,3.553558E-2,-6.725868E-2,7.447018E-2,4.7514006E-2,-6.851059E-2,-1.118008E-2,-1.5371776E-2,3.2037843E-2,-2.1388868E-2,9.075184E-3,6.153908E-2,-2.8571997E-2,4.256424E-2,1.3305888E-2,2.3327425E-2,-1.8490842E-2,1.9188378E-3,-3.5692763E-2,8.256591E-2,6.966304E-2,3.79469E-2,-2.7766023E-2,8.433581E-2,4.339437E-2,2.4517227E-2,-2.3093192E-2],"split_indices":[4,0,9,0,9,0,9,1,4,0,1,8,8,9,9,3,1,3,8,7,7,7,7,4,4,4,9,1,6,3,6,0,0,9,9,4,3,8,8,7,7,0,4,0,0,0,0,0,0,0,0,0,0,0,0,0,0,0,0,0,0,0,0,0,0,0,0,0,0,0,0,0,0,0,0,0,0,0,0,0,0],"split_type":[0,0,0,0,0,0,0,0,0,0,0,0,0,0,0,0,0,0,0,0,0,0,0,0,0,0,0,0,0,0,0,0,0,0,0,0,0,0,0,0,0,0,0,0,0,0,0,0,0,0,0,0,0,0,0,0,0,0,0,0,0,0,0,0,0,0,0,0,0,0,0,0,0,0,0,0,0,0,0,0,0],"sum_hessian":[2.773377E4,1.927841E4,8.45536E3,4.9369556E2,1.8784715E4,3.9338762E3,4.521484E3,1.0328239E4,8.456475E3,1.1722799E2,3.8166482E3,2.3956682E3,2.1258157E3,1.8128463E3,8.515394E3,7.3351123E3,1.1213623E3,8.1364026E2,3.0030078E3,2.123979E3,2.716894E2,1.7963054E3,3.2951016E2,1.5204877E3,2.9235858E2,1.3531438E3,7.1622495E3,6.95891E3,3.7620227E2,1.6922601E2,9.521362E2,5.746176E2,2.3902269E2,1.1149766E3,1.8880312E3,7.397382E2,1.3842407E3,1.4368883E2,1.2800056E2,1.6954187E3,1.0088679E2,2.9150043E2,3.8009735E1,7.8053253E2,7.399552E2,2.0893529E2,8.34233E1,6.7224896E2,6.808949E2,5.010143E3,2.1521062E3,2.0914062E2,6.7497695E3,2.8825043E2,8.795184E1,1.4185933E2,2.7366673E1,7.316912E2,2.20445E2,1.2937112E2,4.452465E2,1.7703809E2,9.3793854E2,1.180503E3,7.075282E2,7.27054E2,1.2684202E1,9.7834143E2,4.058993E2,1.25845146E2,1.7843676E1,2.2343233E1,1.0565733E2,6.12601E2,1.0828176E3,9.184058E1,9.0462055E0,3.127176E1,2.6022867E2,1.6750513E1,2.125922E1],"tree_param":{"num_deleted":"0","num_feature":"10","num_nodes":"81","size_leaf_vector":"1"}},{"base_weights":[3.177835E-3,-3.2848755E-1,3.0083242E-1,-4.4648784E-1,3.60668E-1,1.790701E-1,5.6253743E-1,-5.0854903E-1,-1.06632695E-1,9.1639265E-2,4.840171E-1,-2.8588893E-2,3.215412E-1,7.5454456E-1,3.9890105E-1,-5.448136E-1,-1.3954431E-1,-2.6486158E-1,2.144146E-1,-1.395717E-1,3.213434E-1,1.8983869E-1,5.701421E-1,-6.4971656E-2,8.635954E-3,-6.458797E-2,3.4955165E-1,6.986271E-1,8.709251E-2,6.9422257E-1,3.099349E-1,-9.49247E-2,-5.6761223E-1,-3.3938384E-1,-2.5868146E-2,-3.4873435E-1,2.4732016E-2,-6.141451E-2,2.3940846E-1,-2.5769123E-1,2.719817E-1,1.8936239E-1,6.025222E-1,9.125657E-2,4.6633303E-1,4.8578462E-1,7.5285345E-1,3.6321804E-1,-7.869967E-2,1.6672827E-1,4.6589682E-1,8.9329265E-2,6.4256966E-1,-6.410334E-2,7.557233E-1,2.1196729E-1,5.5957913E-1,-2.2670183E-2,1.6607767E-2,-2.927318E-2,-5.848257E-2,-3.7647184E-2,-8.1381993E-4,-2.1222854E-2,1.6251292E-2,5.2115223E-3,-4.1204233E-2,-1.1791235E-2,2.0212106E-2,5.7427134E-2,1.4051504E-2,2.770091E-2,-3.4021523E-2,8.3855614E-2,1.4281968E-2,3.4035496E-2,-7.8049074E-3,-4.6677183E-2,6.274846E-2,3.758841E-2,6.6462683E-4,8.365237E-2,3.5956766E-2,-6.383032E-2,5.023665E-2,8.661563E-2,7.0330575E-2,7.435578E-2,2.0153502E-2,-3.1254955E-2,1.2514454E-3,4.776146E-2,8.621307E-3,6.738368E-2,4.0103804E-2,8.628812E-2,5.7177085E-2,9.094811E-2,7.0179105E-2,6.0597565E-2,1.2345452E-2,3.9926108E-2,6.3772865E-2],"categories":[],"categories_nodes":[],"categories_segments":[],"categories_sizes":[],"default_left":[0,0,0,0,0,0,0,0,0,0,0,0,0,0,0,0,0,0,0,0,0,0,0,0,0,0,0,0,0,0,0,0,0,0,0,0,0,0,0,0,0,0,0,0,0,0,0,0,0,0,0,0,0,0,0,0,0,0,0,0,0,0,0,0,0,0,0,0,0,0,0,0,0,0,0,0,0,0,0,0,0,0,0,0,0,0,0,0,0,0,0,0,0,0,0,0,0,0,0,0,0,0,0],"id":20,"left_children":[1,3,5,7,9,11,13,15,17,19,21,23,25,27,29,31,33,35,37,39,41,43,45,-1,47,-1,49,51,-1,53,55,57,59,61,63,65,67,-1,69,71,73,75,77,79,81,83,85,87,89,91,93,-1,95,-1,97,99,101,-1,-1,-1,-1,-1,-1,-1,-1,-1,-1,-1,-1,-1,-1,-1,-1,-1,-1,-1,-1,-1,-1,-1,-1,-1,-1,-1,-1,-1,-1,-1,-1,-1,-1,-1,-1,-1,-1,-1,-1,-1,-1,-1,-1,-1,-1],"loss_changes":[2.6938533E3,1.0497106E3,4.581621E2,2.3237695E2,6.258676E1,2.904221E2,1.431576E2,1.2461621E2,8.6561966E1,3.1621517E1,3.2671967E1,9.237952E1,1.5798749E2,1.305603E1,6.460733E1,8.6964355E1,1.8963284E1,2.7725914E1,1.180093E1,1.4508039E1,1.0965181E1,7.9847784E0,1.5052155E1,0E0,1.1678474E2,0E0,1.2028711E2,1.4958191E1,0E0,4.732312E1,4.6296783E1,1.4152883E1,3.8034668E1,3.7160492E0,1.8761091E1,2.2478401E1,6.5321865E0,0E0,1.803325E1,1.0299687E1,4.762734E0,8.289291E0,2.8262787E0,5.255659E0,2.748888E0,1.312912E1,1.1543732E0,4.568138E1,6.454914E1,5.508259E1,4.6360535E1,0E0,1.6799377E1,0E0,3.8871155E0,4.751446E1,6.43898E0,0E0,0E0,0E0,0E0,0E0,0E0,0E0,0E0,0E0,0E0,0E0,0E0,0E0,0E0,0E0,0E0,0E0,0E0,0E0,0E0,0E0,0E0,0E0,0E0,0E0,0E0,0E0,0E0,0E0,0E0,0E0,0E0,0E0,0E0,0E0,0E0,0E0,0E0,0E0,0E0,0E0,0E0,0E0,0E0,0E0,0E0],"parents":[2147483647,0,0,1,1,2,2,3,3,4,4,5,5,6,6,7,7,8,8,9,9,10,10,11,11,12,12,13,13,14,14,15,15,16,16,17,17,18,18,19,19,20,20,21,21,22,22,24,24,26,26,27,27,29,29,30,30,31,31,32,32,33,33,34,34,35,35,36,36,38,38,39,39,40,40,41,41,42,42,43,43,44,44,45,45,46,46,47,47,48,48,49,49,50,50,52,52,54,54,55,55,56,56],"right_children":[2,4,6,8,10,12,14,16,18,20,22,24,26,28,30,32,34,36,38,40,42,44,46,-1,48,-1,50,52,-1,54,56,58,60,62,64,66,68,-1,70,72,74,76,78,80,82,84,86,88,90,92,94,-1,96,-1,98,100,102,-1,-1,-1,-1,-1,-1,-1,-1,-1,-1,-1,-1,-1,-1,-1,-1,-1,-1,-1,-1,-1,-1,-1,-1,-1,-1,-1,-1,-1,-1,-1,-1,-1,-1,-1,-1,-1,-1,-1,-1,-1,-1,-1,-1,-1,-1],"split_conditions":[-5.484406E-1,1.5014273E0,1.5014273E0,5.742606E-1,-3.593036E-1,-1.6135357E-1,3.4622666E-1,6.4190537E-1,2.0856589E-1,4.882191E-2,-5.836086E-1,-1.6783248E0,-1.6783248E0,6.4190537E-1,-7.95488E-1,-1.137472E0,-6.8679225E-1,5.4305106E-1,-1.6783248E0,6.4190537E-1,6.4190537E-1,6.4190537E-1,6.4190537E-1,-6.4971656E-2,-7.95488E-1,-6.458797E-2,-1.9705518E-1,-1.137472E0,8.709251E-2,-1.6783248E0,6.4190537E-1,3.7081432E-1,-7.95488E-1,1.1009322E0,-1.17504776E-1,-1.1352555E0,1.0996993E0,-6.141451E-2,-7.95488E-1,-1.137472E0,-7.95488E-1,-2.4478073E-1,-2.128551E0,-1.1352555E0,-7.95488E-1,-1.6783248E0,-7.95488E-1,3.4622666E-1,-6.026763E-1,-7.95488E-1,-7.95488E-1,8.9329265E-2,-7.95488E-1,-6.410334E-2,-1.24044E0,-1.137472E0,-2.9469272E-1,-2.2670183E-2,1.6607767E-2,-2.927318E-2,-5.848257E-2,-3.7647184E-2,-8.1381993E-4,-2.1222854E-2,1.6251292E-2,5.2115223E-3,-4.1204233E-2,-1.1791235E-2,2.0212106E-2,5.7427134E-2,1.4051504E-2,2.770091E-2,-3.4021523E-2,8.3855614E-2,1.4281968E-2,3.4035496E-2,-7.8049074E-3,-4.6677183E-2,6.274846E-2,3.758841E-2,6.6462683E-4,8.365237E-2,3.5956766E-2,-6.383032E-2,5.023665E-2,8.661563E-2,7.0330575E-2,7.435578E-2,2.0153502E-2,-3.1254955E-2,1.2514454E-3,4.776146E-2,8.621307E-3,6.738368E-2,4.0103804E-2,8.628812E-2,5.7177085E-2,9.094811E-2,7.0179105E-2,6.0597565E-2,1.2345452E-2,3.9926108E-2,6.3772865E-2],"split_indices":[4,5,5,8,7,8,4,3,7,8,8,0,0,3,1,3,8,3,0,3,3,3,3,0,1,0,7,3,0,0,3,7,1,7,7,3,