{"learner":{"attributes":{"scikit_learn":"{\"_estimator_type\": \"classifier\"}"},"feature_names":[],"feature_types":[],"gradient_booster":{"model":{"gbtree_model_param":{"num_parallel_tree":"1","num_trees":"450"},"iteration_indptr":[0,3,6,9,12,15,18,21,24,27,30,33,36,39,42,45,48,51,54,57,60,63,66,69,72,75,78,81,84,87,90,93,96,99,102,105,108,111,114,117,120,123,126,129,132,135,138,141,144,147,150,153,156,159,162,165,168,171,174,177,180,183,186,189,192,195,198,201,204,207,210,213,216,219,222,225,228,231,234,237,240,243,246,249,252,255,258,261,264,267,270,273,276,279,282,285,288,291,294,297,300,303,306,309,312,315,318,321,324,327,330,333,336,339,342,345,348,351,354,357,360,363,366,369,372,375,378,381,384,387,390,393,396,399,402,405,408,411,414,417,420,423,426,429,432,435,438,441,444,447,450],"tree_info":[0,1,2,0,1,2,0,1,2,0,1,2,0,1,2,0,1,2,0,1,2,0,1,2,0,1,2,0,1,2,0,1,2,0,1,2,0,1,2,0,1,2,0,1,2,0,1,2,0,1,2,0,1,2,0,1,2,0,1,2,0,1,2,0,1,2,0,1,2,0,1,2,0,1,2,0,1,2,0,1,2,0,1,2,0,1,2,0,1,2,0,1,2,0,1,2,0,1,2,0,1,2,0,1,2,0,1,2,0,1,2,0,1,2,0,1,2,0,1,2,0,1,2,0,1,2,0,1,2,0,1,2,0,1,2,0,1,2,0,1,2,0,1,2,0,1,2,0,1,2,0,1,2,0,1,2,0,1,2,0,1,2,0,1,2,0,1,2,0,1,2,0,1,2,0,1,2,0,1,2,0,1,2,0,1,2,0,1,2,0,1,2,0,1,2,0,1,2,0,1,2,0,1,2,0,1,2,0,1,2,0,1,2,0,1,2,0,1,2,0,1,2,0,1,2,0,1,2,0,1,2,0,1,2,0,1,2,0,1,2,0,1,2,0,1,2,0,1,2,0,1,2,0,1,2,0,1,2,0,1,2,0,1,2,0,1,2,0,1,2,0,1,2,0,1,2,0,1,2,0,1,2,0,1,2,0,1,2,0,1,2,0,1,2,0,1,2,0,1,2,0,1,2,0,1,2,0,1,2,0,1,2,0,1,2,0,1,2,0,1,2,0,1,2,0,1,2,0,1,2,0,1,2,0,1,2,0,1,2,0,1,2,0,1,2,0,1,2,0,1,2,0,1,2,0,1,2,0,1,2,0,1,2,0,1,2,0,1,2,0,1,2,0,1,2,0,1,2,0,1,2,0,1,2,0,1,2,0,1,2,0,1,2,0,1,2,0,1,2,0,1,2,0,1,2,0,1,2,0,1,2,0,1,2,0,1,2,0,1,2,0,1,2,0,1,2,0,1,2,0,1,2,0,1,2,0,1,2,0,1,2,0,1,2,0,1,2,0,1,2],"trees":[{"base_weights":[6.06812E-3,9.0178424E-1,-7.4981086E-2,1.2635992E0,-7.48754E-2,-7.4561976E-2,1.396813E0,1.4989822E-1,-7.436382E-2],"categories":[],"categories_nodes":[],"categories_segments":[],"categories_sizes":[],"default_left":[0,0,0,0,0,0,0,0,0],"id":0,"left_children":[1,3,-1,5,-1,-1,7,-1,-1],"loss_changes":[4.947149E3,1.9980132E3,0E0,7.3528174E2,0E0,0E0,5.6379834E2,0E0,0E0],"parents":[2147483647,0,0,1,1,3,3,6,6],"right_children":[2,4,-1,6,-1,-1,8,-1,-1],"split_conditions":[-1.2234706E0,-6.9930726E-1,-7.4981086E-2,-1.6366929E-1,-7.48754E-2,-7.4561976E-2,-1.18905544E-1,1.4989822E-1,-7.436382E-2],"split_indices":[4,2,0,9,0,0,9,0,0],"split_type":[0,0,0,0,0,0,0,0,0],"sum_hessian":[7.3048887E3,3.3431108E3,3.9617776E3,2.7422222E3,6.0088885E2,1.7022221E2,2.5719998E3,2.455111E3,1.16888885E2],"tree_param":{"num_deleted":"0","num_feature":"10","num_nodes":"9","size_leaf_vector":"1"}},{"base_weights":[-3.3151626E-3,1.840595E-1,-7.494911E-2,-2.77705E-1,8.548739E-1,9.344848E-1,-5.101497E-1,1.1362371E0,-7.479044E-2,1.170034E0,-6.9734794E-1,-7.460368E-1,7.5709087E-1,1.1472104E0,3.9501777E-1,5.9999996E-1,1.2010075E0,1.6216213E-1,-7.389887E-2,1.0909092E-1,-7.4847415E-2,1.0759232E0,-6.9292396E-1,1.1604403E0,6.8571424E-1,1.7098442E-1,8.041237E-1,-5.1724143E-2,7.2E-2,8.353141E-2,1.2580107E-1,-2.5544848E-9,2.3999998E-2,1.0933492E-1,-5.853659E-2,6E-2,-7.28513E-2,7.532468E-2,1.1765684E-1,-4.087176E-9,8.391608E-2,5.8064517E-2,-1.926606E-2,9.176471E-2,-2.5544848E-9],"categories":[],"categories_nodes":[],"categories_segments":[],"categories_sizes":[],"default_left":[0,0,0,0,0,0,0,0,0,0,0,0,0,0,0,0,0,0,0,0,0,0,0,0,0,0,0,0,0,0,0,0,0,0,0,0,0,0,0,0,0,0,0,0,0],"id":1,"left_children":[1,3,-1,5,7,9,11,13,-1,15,17,19,21,23,25,27,29,31,-1,-1,-1,33,35,37,39,41,43,-1,-1,-1,-1,-1,-1,-1,-1,-1,-1,-1,-1,-1,-1,-1,-1,-1,-1],"loss_changes":[1.0263915E3,1.8177957E3,0E0,9.7993036E2,1.0798037E3,2.1593884E2,8.7266394E2,1.610376E1,0E0,7.9210205E0,2.6689262E0,1.1830688E1,2.1263834E2,1.144873E1,2.7241297E0,4.022069E0,8.605286E0,5.1891886E-2,0E0,0E0,0E0,1.152829E1,4.266487E0,1.1907471E1,6.1378593E0,3.3064692E0,9.838686E-1,0E0,0E0,0E0,0E0,0E0,0E0,0E0,0E0,0E0,0E0,0E0,0E0,0E0,0E0,0E0,0E0,0E0,0E0],"parents":[2147483647,0,0,1,1,3,3,4,4,5,5,6,6,7,7,9,9,10,10,11,11,12,12,13,13,14,14,15,15,16,16,17,17,21,21,22,22,23,23,24,24,25,25,26,26],"right_children":[2,4,-1,6,8,10,12,14,-1,16,18,20,22,24,26,28,30,32,-1,-1,-1,34,36,38,40,42,44,-1,-1,-1,-1,-1,-1,-1,-1,-1,-1,-1,-1,-1,-1,-1,-1,-1,-1],"split_conditions":[1.0143893E0,-6.9930726E-1,-7.494911E-2,-1.5769836E-1,6.226505E-1,4.8080903E-1,-1.18905544E-1,4.8586312E-1,-7.479044E-2,-1.6501321E0,6.226505E-1,-6.0282886E-1,4.8080903E-1,1.6911957E0,1.1000825E0,-1.4683836E0,-1.4982386E0,-1.3472446E0,-7.389887E-2,1.0909092E-1,-7.4847415E-2,1.49093E0,1.4081885E-1,-1.1866345E0,-1.2577634E0,1.0260535E0,1.2975001E0,-5.1724143E-2,7.2E-2,8.353141E-2,1.2580107E-1,-2.5544848E-9,2.3999998E-2,1.0933492E-1,-5.853659E-2,6E-2,-7.28513E-2,7.532468E-2,1.1765684E-1,-4.087176E-9,8.391608E-2,5.8064517E-2,-1.926606E-2,9.176471E-2,-2.5544848E-9],"split_indices":[6,2,0,9,7,8,9,8,0,9,7,3,8,2,2,7,2,2,0,0,0,3,7,3,8,5,3,0,0,0,0,0,0,0,0,0,0,0,0,0,0,0,0,0,0],"split_type":[0,0,0,0,0,0,0,0,0,0,0,0,0,0,0,0,0,0,0,0,0,0,0,0,0,0,0,0,0,0,0,0,0,0,0,0,0,0,0,0,0,0,0,0,0],"sum_hessian":[7.339111E3,5.8666665E3,1.4724443E3,3.4751108E3,2.3915554E3,5.586666E2,2.9164443E3,2.0346665E3,3.5688885E2,4.8844443E2,7.022222E1,2.459111E3,4.573333E2,2.0044443E3,3.0222221E1,2.6222221E1,4.622222E2,3.111111E0,6.711111E1,2.6666665E0,2.4564443E3,3.7511108E2,8.222221E1,1.947111E3,5.733333E1,2.0444443E1,9.777777E0,2.222222E0,2.3999998E1,6.444444E1,3.9777774E2,1.3333333E0,1.7777777E0,3.7155554E2,3.5555553E0,1.7777777E0,8.044444E1,7.599999E1,1.871111E3,1.0666666E1,4.6666664E1,9.333333E0,1.1111111E1,8.444444E0,1.3333333E0],"tree_param":{"num_deleted":"0","num_feature":"10","num_nodes":"45","size_leaf_vector":"1"}},{"base_weights":[-1.9175903E-3,-3.7761843E-1,1.498974E-1,-5.547899E-1,1.4970271E-1,-6.554052E-1,-3.7925923E-1,-3.1425807E-1,-6.936537E-1,-3.8940057E-1,2.943396E-1,1.6620455E-2,-3.5680413E-1,-7.195791E-1,-3.73372E-1,2.2514028E-2,-4.0230578E-1,8.219178E-1,8.95522E-2,-9.230774E-3,8E-2,-6.474825E-3,-4.0762972E-2,-4.1567136E-2,-7.4661806E-2,-4.129E-2,3.4513272E-2,4.0092163E-2,-2.3076927E-2,-2.7907023E-3,-4.170755E-2,-2.0689659E-2,1.24528304E-1,-7.1005966E-3,7.317073E-2],"categories":[],"categories_nodes":[],"categories_segments":[],"categories_sizes":[],"default_left":[0,0,0,0,0,0,0,0,0,0,0,0,0,0,0,0,0,0,0,0,0,0,0,0,0,0,0,0,0,0,0,0,0,0,0],"id":2,"left_children":[1,3,-1,5,-1,7,9,11,13,15,17,19,21,23,25,27,29,31,33,-1,-1,-1,-1,-1,-1,-1,-1,-1,-1,-1,-1,-1,-1,-1,-1],"loss_changes":[4.117499E3,1.9405276E3,0E0,9.4000854E1,0E0,4.4026123E1,1.3413452E1,4.8439293E0,2.5041016E1,1.02066345E1,3.1076133E0,3.4966118E0,4.494404E0,2.2852295E1,6.6842155E0,5.768634E0,1.0274292E1,3.7905545E0,2.3545945E0,0E0,0E0,0E0,0E0,0E0,0E0,0E0,0E0,0E0,0E0,0E0,0E0,0E0,0E0,0E0,0E0],"parents":[2147483647,0,0,1,1,3,3,5,5,6,6,7,7,8,8,9,9,10,10,11,11,12,12,13,13,14,14,15,15,16,16,17,17,18,18],"right_children":[2,4,-1,6,-1,8,10,12,14,16,18,20,22,24,26,28,30,32,34,-1,-1,-1,-1,-1,-1,-1,-1,-1,-1,-1,-1,-1,-1,-1,-1],"split_conditions":[1.0143893E0,6.226505E-1,1.498974E-1,-5.915402E-1,1.4970271E-1,-8.31025E-1,4.8586312E-1,-1.6798544E0,5.4536146E-1,-1.6501321E0,2.9411523E-2,-1.6819404E0,-1.4982386E0,-7.164952E-1,5.245828E-1,1.0260535E0,-1.1866345E0,3.5024446E-1,9.549405E-1,-9.230774E-3,8E-2,-6.474825E-3,-4.0762972E-2,-4.1567136E-2,-7.4661806E-2,-4.129E-2,3.4513272E-2,4.0092163E-2,-2.3076927E-2,-2.7907023E-3,-4.170755E-2,-2.0689659E-2,1.24528304E-1,-7.1005966E-3,7.317073E-2],"split_indices":[6,7,0,2,0,8,8,7,3,9,2,7,2,3,7,5,3,7,9,0,0,0,0,0,0,0,0,0,0,0,0,0,0,0,0],"split_type":[0,0,0,0,0,0,0,0,0,0,0,0,0,0,0,0,0,0,0,0,0,0,0,0,0,0,0,0,0,0,0,0,0,0,0],"sum_hessian":[7.2999995E3,5.839111E3,1.4608888E3,5.335555E3,5.035555E2,3.3897776E3,1.9457777E3,3.4266666E2,3.0471108E3,1.9173333E3,2.8444443E1,3.9111107E1,3.0355554E2,2.8177776E3,2.2933331E2,5.8222218E1,1.859111E3,7.1111107E0,2.1333332E1,3.511111E1,3.9999998E0,4.5333332E1,2.582222E2,2.3155554E2,2.5862222E3,2.1777777E2,1.1555555E1,2.311111E1,3.511111E1,7.0666664E1,1.7884443E3,2.222222E0,4.8888884E0,1.7777777E1,3.5555553E0],"tree_param":{"num_deleted":"0","num_feature":"10","num_nodes":"35","size_leaf_vector":"1"}},{"base_weights":[-1.2213655E-3,7.958027E-1,-7.22326E-2,1.1016846E0,-7.212404E-2,-7.187207E-2,1.2135038E0,1.2982944E-1,-7.16674E-2],"categories":[],"categories_nodes":[],"categories_segments":[],"categories_sizes":[],"default_left":[0,0,0,0,0,0,0,0,0],"id":3,"left_children":[1,3,-1,5,-1,-1,7,-1,-1],"loss_changes":[4.188952E3,1.607281E3,0E0,5.874138E2,0E0,0E0,4.452837E2,0E0,0E0],"parents":[2147483647,0,0,1,1,3,3,6,6],"right_children":[2,4,-1,6,-1,-1,8,-1,-1],"split_conditions":[-1.2234706E0,-6.9930726E-1,-7.22326E-2,-1.6366929E-1,-7.212404E-2,-7.187207E-2,-1.18905544E-1,1.2982944E-1,-7.16674E-2],"split_indices":[4,2,0,9,0,0,9,0,0],"split_type":[0,0,0,0,0,0,0,0,0],"sum_hessian":[7.286458E3,3.460987E3,3.825471E3,2.8804707E3,5.8051636E2,1.6638094E2,2.7140898E3,2.6001938E3,1.1389602E2],"tree_param":{"num_deleted":"0","num_feature":"10","num_nodes":"9","size_leaf_vector":"1"}},{"base_weights":[6.158186E-3,1.8106745E-1,-7.214983E-2,-2.4844141E-1,7.7434933E-1,-5.61312E-1,6.992838E-1,1.1583058E0,-7.1253824E-1,1.3245119E-1,-6.227754E-1,1.1577408E0,-7.240493E-1,1.3412532E-1,-7.179302E-2,-9.333246E-2,-7.698541E-2,1.088048E0,-6.7088497E-1,1.3408847E-1,-7.098797E-2,-2.8024092E-1,-7.675307E-2,2.1559645E-1,-6.754333E-2,1.3179156E-1,-6.390129E-2,-6.98574E-2,9.480911E-2,-2.2890903E-3,-6.395837E-2,-7.411444E-3,4.361314E-2],"categories":[],"categories_nodes":[],"categories_segments":[],"categories_sizes":[],"default_left":[0,0,0,0,0,0,0,0,0,0,0,0,0,0,0,0,0,0,0,0,0,0,0,0,0,0,0,0,0,0,0,0,0],"id":4,"left_children":[1,3,-1,5,7,9,11,13,15,-1,17,19,21,-1,-1,23,-1,25,27,-1,-1,29,-1,31,-1,-1,-1,-1,-1,-1,-1,-1,-1],"loss_changes":[9.245041E2,1.4924656E3,0E0,1.00786536E3,1.4049427E3,2.9697003E2,5.514044E2,6.7205493E2,1.7864319E1,0E0,2.0444092E2,2.1936682E2,3.7634888E0,0E0,0E0,8.049898E0,0E0,2.7868393E1,1.08605225E2,0E0,0E0,1.8323115E0,0E0,1.9154072E0,0E0,0E0,0E0,0E0,0E0,0E0,0E0,0E0,0E0],"parents":[2147483647,0,0,1,1,3,3,4,4,5,5,6,6,7,7,8,8,10,10,11,11,12,12,15,15,17,17,18,18,21,21,23,23],"right_children":[2,4,-1,6,8,10,12,14,16,-1,18,20,22,-1,-1,24,-1,26,28,-1,-1,30,-1,32,-1,-1,-1,-1,-1,-1,-1,-1,-1],"split_conditions":[1.0143893E0,-6.9930726E-1,-7.214983E-2,-1.2234706E0,1.6758648E-1,-7.4330217E-1,1.6758648E-1,6.226505E-1,3.2795194E-1,1.3245119E-1,-3.3266643E-1,6.226505E-1,3.2795194E-1,1.3412532E-1,-7.179302E-2,4.6011755E-1,-7.698541E-2,6.226505E-1,4.7782084E-1,1.3408847E-1,-7.098797E-2,4.3125942E-1,-7.675307E-2,2.0565522E-1,-6.754333E-2,1.3179156E-1,-6.390129E-2,-6.98574E-2,9.480911E-2,-2.2890903E-3,-6.395837E-2,-7.411444E-3,4.361314E-2],"split_indices":[6,2,0,4,4,8,4,7,4,0,3,7,4,0,0,7,0,7,3,0,0,8,0,2,0,0,0,0,0,0,0,0,0],"split_type":[0,0,0,0,0,0,0,0,0,0,0,0,0,0,0,0,0,0,0,0,0,0,0,0,0,0,0,0,0,0,0,0,0],"sum_hessian":[7.26187E3,5.8551895E3,1.4066807E3,3.3967092E3,2.4584802E3,2.5539775E3,8.427317E2,1.9540979E3,5.0438242E2,7.996407E1,2.4740134E3,6.3755963E2,2.0517201E2,1.7807466E3,1.7335124E2,4.2954704E1,4.614277E2,6.707697E1,2.4069365E3,5.8087915E2,5.668052E1,1.8972046E1,1.8619997E2,2.8473206E1,1.4481499E1,5.940696E1,7.6700144E0,2.3670222E3,3.991423E1,1.1674696E1,7.2973504E0,1.2593453E1,1.5879752E1],"tree_param":{"num_deleted":"0","num_feature":"10","num_nodes":"33","size_leaf_vector":"1"}},{"base_weights":[6.730927E-4,-3.3380488E-1,1.354566E0,-5.0745237E-1,1.2965558E-1,1.1102836E0,1.3807628E0,-6.1026555E-1,-3.3522454E-1,9.64671E-1,1.2307264E-1,1.4215107E-1,1.2958406E-1,-6.7289925E-1,-3.5525167E-1,-3.7518418E-1,-9.6907586E-2,6.720526E-1,1.1265614E0,-2.9137978E-1,-7.018273E-1,1.8093766E-1,-3.8716227E-1,-3.4446484E-1,-7.283848E-2,-1.3618831E-1,6.561023E-1,8.8874674E-1,3.6423677E-1,1.1785859E-1,1.0225791E-2,-2.0242749E-2,-6.1778087E-2,-7.2180785E-2,-2.8475393E-2,-2.7455956E-2,3.8119756E-2,-3.9855823E-2,9.094234E-2,-3.934489E-2,-8.515161E-3,1.0182204E-2,-2.5987E-2,8.6993255E-2,-8.800604E-3,-1.7757043E-3,9.768652E-2,8.288904E-2,-3.117848E-3],"categories":[],"categories_nodes":[],"categories_segments":[],"categories_sizes":[],"default_left":[0,0,0,0,0,0,0,0,0,0,0,0,0,0,0,0,0,0,0,0,0,0,0,0,0,0,0,0,0,0,0,0,0,0,0,0,0,0,0,0,0,0,0,0,0,0,0,0,0],"id":5,"left_children":[1,3,5,7,-1,9,11,13,15,17,-1,-1,-1,19,21,23,25,27,29,31,33,35,37,39,-1,41,43,45,47,-1,-1,-1,-1,-1,-1,-1,-1,-1,-1,-1,-1,-1,-1,-1,-1,-1,-1,-1,-1],"loss_changes":[3.315744E3,1.6629141E3,7.7495117E0,9.376807E1,0E0,1.3661957E0,2.677002E0,5.2821167E1,1.887677E1,2.5843277E0,0E0,0E0,0E0,2.9217163E1,1.1313881E1,1.819963E1,8.564751E0,1.5174379E0,2.220646E0,5.379692E0,2.043811E1,3.5338874E0,9.531601E0,1.9862305E1,0E0,8.067566E0,2.3642817E0,1.255847E0,2.4323738E0,0E0,0E0,0E0,0E0,0E0,0E0,0E0,0E0,0E0,0E0,0E0,0E0,0E0,0E0,0E0,0E0,0E0,0E0,0E0,0E0],"parents":[2147483647,0,0,1,1,2,2,3,3,5,5,6,6,7,7,8,8,9,9,13,13,14,14,15,15,16,16,17,17,18,18,19,19,20,20,21,21,22,22,23,23,25,25,26,26,27,27,28,28],"right_children":[2,4,6,8,-1,10,12,14,16,18,-1,-1,-1,20,22,24,26,28,30,32,34,36,38,40,-1,42,44,46,48,-1,-1,-1,-1,-1,-1,-1,-1,-1,-1,-1,-1,-1,-1,-1,-1,-1,-1,-1,-1],"split_conditions":[1.6758648E-1,6.226505E-1,3.2795194E-1,-5.915402E-1,1.2965558E-1,-7.003758E-3,6.226505E-1,-1.1153371E0,1.4017911E0,-1.1797497E-1,1.2307264E-1,1.4215107E-1,1.2958406E-1,-1.6366929E-1,-1.0878983E0,7.073095E-1,1.3558487E0,6.292091E-1,1.4147077E0,-1.2750944E0,2.7982664E-1,-7.955967E-1,1.49093E0,6.98417E-1,-7.283848E-2,-1.1953923E0,3.5024446E-1,-1.6119336E0,-1.6366929E-1,1.1785859E-1,1.0225791E-2,-2.0242749E-2,-6.1778087E-2,-7.2180785E-2,-2.8475393E-2,-2.7455956E-2,3.8119756E-2,-3.9855823E-2,9.094234E-2,-3.934489E-2,-8.515161E-3,1.0182204E-2,-2.5987E-2,8.6993255E-2,-8.800604E-3,-1.7757043E-3,9.768652E-2,8.288904E-2,-3.117848E-3],"split_indices":[4,7,4,2,0,7,7,4,0,0,0,0,0,9,4,0,3,3,2,4,9,0,3,0,0,1,7,2,9,0,0,0,0,0,0,0,0,0,0,0,0,0,0,0,0,0,0,0,0],"split_type":[0,0,0,0,0,0,0,0,0,0,0,0,0,0,0,0,0,0,0,0,0,0,0,0,0,0,0,0,0,0,0,0,0,0,0,0,0,0,0,0,0,0,0,0,0,0,0,0,0],"sum_hessian":[7.319992E3,5.870455E3,1.4495369E3,5.3060083E3,5.6444696E2,1.4459427E2,1.3049426E3,3.3209749E3,1.9850332E3,6.953605E1,7.505821E1,8.711867E2,4.3375595E2,2.6648298E3,6.5614496E2,1.6994968E3,2.8553638E2,2.6602694E1,4.2933357E1,1.885958E2,2.4762341E3,3.659382E1,6.1955115E2,1.5653289E3,1.3416795E2,2.721584E2,1.337799E1,1.4504585E1,1.2098108E1,4.071482E1,2.2185361E0,1.4947922E2,3.911657E1,2.3623323E3,1.1390195E2,1.1061982E1,2.5531836E1,6.1483984E2,4.7113376E0,1.3161854E3,2.4914342E2,9.312582E1,1.7903258E2,1.0260418E1,3.117572E0,1.3557742E0,1.3148811E1,5.058085E0,7.040024E0],"tree_param":{"num_deleted":"0","num_feature":"10","num_nodes":"49","size_leaf_vector":"1"}},{"base_weights":[-4.685523E-3,7.1946055E-1,-6.9850855E-2,9.880757E-1,-6.9822095E-2,-6.993481E-2,1.0826714E0,1.1526658E-1,-6.938631E-2],"categories":[],"categories_nodes":[],"categories_segments":[],"categories_sizes":[],"default_left":[0,0,0,0,0,0,0,0,0],"id":6,"left_children":[1,3,-1,5,-1,-1,7,-1,-1],"loss_changes":[3.581859E3,1.3290778E3,0E0,4.6894263E2,0E0,0E0,3.4620703E2,0E0,0E0],"parents":[2147483647,0,0,1,1,3,3,6,6],"right_children":[2,4,-1,6,-1,-1,8,-1,-1],"split_conditions":[-1.2234706E0,-6.9930726E-1,-6.9850855E-2,-1.6366929E-1,-6.9822095E-2,-6.993481E-2,-1.18905544E-1,1.1526658E-1,-6.938631E-2],"split_indices":[4,2,0,9,0,0,9,0,0],"split_type":[0,0,0,0,0,0,0,0,0],"sum_hessian":[7.127081E3,3.4873167E3,3.6397642E3,2.9320667E3,5.5525006E2,1.5530478E2,2.7767617E3,2.671844E3,1.0491786E2],"tree_param":{"num_deleted":"0","num_feature":"10","num_nodes":"9","size_leaf_vector":"1"}},{"base_weights":[4.3738275E-3,-2.8758538E-1,3.1960905E-1,3.474071E-1,-4.677633E-1,5.5243295E-1,-6.5097535E-1,5.55195E-1,-6.6156745E-1,-6.9464856E-1,2.6796144E-1,5.921345E-1,3.254101E-1,-6.912292E-2,-6.962441E-2,5.8025503E-1,-4.1751876E-1,-2.678511E-1,-6.933639E-2,9.1364495E-2,-6.971529E-2,5.2273124E-1,-6.564442E-1,5.484314E-1,1.1761314E-1,1.1311867E-1,4.3219796E-1,8.707746E-2,-2.60137E-1,6.349284E-1,1.7807615E-1,7.375195E-2,-5.432294E-1,3.578559E-2,-4.494836E-1,1.1646842E-1,4.758197E-1,-1.5315653E-2,-6.939279E-2,6.0780805E-1,2.6030445E-1,1.0272785E-1,6.254791E-2,5.608028E-1,3.5352625E-2,-2.4369326E-1,3.7160456E-1,1.3730824E-1,-3.6293113E-1,2.7436132E-2,7.1748644E-2,-2.156355E-2,3.6912847E-2,3.7112053E-2,-3.9215237E-2,-1.1123972E-2,-5.9402794E-2,-5.983041E-2,-1.7102428E-2,8.695974E-3,5.7638507E-2,-2.8461281E-2,3.869432E-2,5.6245185E-2,1.1860734E-1,-1.1350772E-2,3.0313078E-2,-6.1350446E-3,3.6142178E-2,5.943964E-2,-3.8276434E-2,-1.6104491E-2,2.664103E-2,-5.099327E-2,1.3685361E-2,6.75074E-2,-2.5865704E-2,5.4222357E-2,-2.307487E-2,-1.5482485E-2,-5.3866018E-2],"categories":[],"categories_nodes":[],"categories_segments":[],"categories_sizes":[],"default_left":[0,0,0,0,0,0,0,0,0,0,0,0,0,0,0,0,0,0,0,0,0,0,0,0,0,0,0,0,0,0,0,0,0,0,0,0,0,0,0,0,0,0,0,0,0,0,0,0,0,0,0,0,0,0,0,0,0,0,0,0,0,0,0,0,0,0,0,0,0,0,0,0,0,0,0,0,0,0,0,0,0],"id":7,"left_children":[1,3,5,7,9,11,13,15,17,19,21,23,25,27,-1,29,31,33,-1,-1,-1,35,37,39,-1,41,43,45,47,49,51,53,55,-1,57,-1,59,61,-1,63,65,-1,67,69,71,73,75,77,79,-1,-1,-1,-1,-1,-1,-1,-1,-1,-1,-1,-1,-1,-1,-1,-1,-1,-1,-1,-1,-1,-1,-1,-1,-1,-1,-1,-1,-1,-1,-1,-1],"loss_changes":[6.6240405E2,4.2767038E2,7.823845E2,1.7363965E2,4.861225E2,2.4968994E1,1.7599365E1,1.6961441E1,1.5868607E0,9.599731E0,1.621067E2,5.996869E1,9.421688E0,1.4987777E0,0E0,1.459877E1,1.1398544E0,1.5485114E0,0E0,0E0,0E0,1.5678329E1,3.5663986E0,3.7674988E1,0E0,6.461859E0,1.4147266E1,2.7225666E0,9.693762E-1,1.7324753E1,6.206996E0,7.702196E-1,2.4770832E-1,0E0,3.0819964E-1,0E0,1.9659279E1,1.1115232E0,0E0,4.7404114E1,6.1115685E0,0E0,5.0149937E0,6.870781E0,3.1744137E0,1.4412296E0,3.1258705E0,9.2252284E-1,5.8060503E-1,0E0,0E0,0E0,0E0,0E0,0E0,0E0,0E0,0E0,0E0,0E0,0E0,0E0,0E0,0E0,0E0,0E0,0E0,0E0,0E0,0E0,0E0,0E0,0E0,0E0,0E0,0E0,0E0,0E0,0E0,0E0,0E0],"parents":[2147483647,0,0,1,1,2,2,3,3,4,4,5,5,6,6,7,7,8,8,9,9,10,10,11,11,12,12,13,13,15,15,16,16,17,17,21,21,22,22,23,23,25,25,26,26,27,27,28,28,29,29,30,30,31,31,32,32,34,34,36,36,37,37,39,39,40,40,42,42,43,43,44,44,45,45,46,46,47,47,48,48],"right_children":[2,4,6,8,10,12,14,16,18,20,22,24,26,28,-1,30,32,34,-1,-1,-1,36,38,40,-1,42,44,46,48,50,52,54,56,-1,58,-1,60,62,-1,64,66,-1,68,70,72,74,76,78,80,-1,-1,-1,-1,-1,-1,-1,-1,-1,-1,-1,-1,-1,-1,-1,-1,-1,-1,-1,-1,-1,-1,-1,-1,-1,-1,-1,-1,-1,-1,-1,-1],"split_conditions":[-6.9930726E-1,-1.5769836E-1,4.8586312E-1,4.8080903E-1,-1.18905544E-1,1.4017911E0,6.226505E-1,1.4233893E0,6.226505E-1,-6.0282886E-1,4.8080903E-1,7.073095E-1,-1.1953923E0,4.2193606E-1,-6.962441E-2,-7.4748284E-1,-1.5355937E0,-1.0076956E0,-6.933639E-2,9.1364495E-2,-6.971529E-2,2.7982664E-1,5.065578E-1,6.98417E-1,1.1761314E-1,-5.915402E-1,1.2382925E0,-1.6366929E-1,-9.313153E-1,-1.4982386E0,-1.0265304E0,-1.0784405E0,-1.4714789E0,3.578559E-2,-1.1936213E0,1.1646842E-1,3.3469138E-1,8.9936054E-1,-6.939279E-2,-2.913199E-4,-1.5818684E0,1.0272785E-1,8.074656E-1,1.3558487E0,-2.1005273E-1,9.762822E-1,1.152476E0,-1.1953923E0,-1.6366929E-1,2.7436132E-2,7.1748644E-2,-2.156355E-2,3.6912847E-2,3.7112053E-2,-3.9215237E-2,-1.1123972E-2,-5.9402794E-2,-5.983041E-2,-1.7102428E-2,8.695974E-3,5.7638507E-2,-2.8461281E-2,3.869432E-2,5.6245185E-2,1.1860734E-1,-1.1350772E-2,3.0313078E-2,-6.1350446E-3,3.6142178E-2,5.943964E-2,-3.8276434E-2,-1.6104491E-2,2.664103E-2,-5.099327E-2,1.3685361E-2,6.75074E-2,-2.5865704E-2,5.4222357E-2,-2.307487E-2,-1.5482485E-2,-5.3866018E-2],"split_indices":[2,9,8,8,9,0,7,3,7,3,8,0,1,0,0,2,9,3,0,0,0,9,7,0,0,2,1,9,3,2,8,2,8,0,2,0,9,3,0,0,7,0,9,3,7,2,9,1,9,0,0,0,0,0,0,0,0,0,0,0,0,0,0,0,0,0,0,0,0,0,0,0,0,0,0,0,0,0,0,0,0],"split_type":[0,0,0,0,0,0,0,0,0,0,0,0,0,0,0,0,0,0,0,0,0,0,0,0,0,0,0,0,0,0,0,0,0,0,0,0,0,0,0,0,0,0,0,0,0,0,0,0,0,0,0,0,0,0,0,0,0,0,0,0,0,0,0,0,0,0,0,0,0,0,0,0,0,0,0,0,0,0,0,0,0],"sum_hessian":[7.195243E3,3.7355771E3,3.4596658E3,8.254732E2,2.910104E3,2.7906702E3,6.6899554E2,6.8487915E2,1.4059404E2,2.224241E3,6.85863E2,2.3739146E3,4.167558E2,4.847386E1,6.2052167E2,6.680711E2,1.6808071E1,1.121009E1,1.2938396E2,2.8924737E0,2.2213484E3,5.380177E2,1.4784526E2,2.2104368E3,1.6347758E2,1.4016693E2,2.765889E2,2.6966408E1,2.1507454E1,5.876109E2,8.046021E1,3.508878E0,1.3299192E1,2.3037312E0,8.906359E0,3.5016277E1,5.0300143E2,8.244167E0,1.396011E2,1.831828E3,3.786089E2,6.335075E0,1.3383185E2,2.0858122E2,6.800766E1,1.2536219E1,1.443019E1,4.350569E0,1.7156885E1,1.1028247E2,4.773284E2,2.624568E1,5.421453E1,2.2660117E0,1.2428664E0,1.7349589E0,1.1564234E1,5.0557356E0,3.8506231E0,1.0373809E2,3.9926337E2,5.1134014E0,3.1307664E0,1.7004279E3,1.3140016E2,3.8747616E1,3.3986127E2,9.517268E1,3.865917E1,2.0176779E2,6.8134303E0,3.6924816E1,3.1082846E1,7.1758366E0,5.360382E0,9.69228E0,4.7379103E0,1.8462377E0,2.504331E0,8.7160225E0,8.440864E0],"tree_param":{"num_deleted":"0","num_feature":"10","num_nodes":"81","size_leaf_vector":"1"}},{"base_weights":[-1.8481519E-3,-3.436156E-1,1.1896626E0,-5.966758E-1,1.2290992E0,1.2241592E0,1.1472458E-1,-7.0678055E-2,1.1509456E-1,7.631481E-1,1.2762598E0,1.2593637E-1,1.14869334E-1,5.303162E-1,1.0966845E-1,1.3429926E-1,1.1467768E-1,6.3578844E-1,-2.841524E-1,7.710188E-2,8.703305E-3,-5.869006E-2,4.301354E-2],"categories":[],"categories_nodes":[],"categories_segments":[],"categories_sizes":[],"default_left":[0,0,0,0,0,0,0,0,0,0,0,0,0,0,0,0,0,0,0,0,0,0,0],"id":8,"left_children":[1,3,5,7,9,11,-1,-1,-1,13,15,-1,-1,17,-1,-1,-1,19,21,-1,-1,-1,-1],"loss_changes":[2.9288481E3,2.2251633E3,9.4140625E-1,9.2734827E2,1.6056519E1,8.626709E-1,0E0,0E0,0E0,5.143257E0,4.5281982E0,0E0,0E0,4.0763693E0,0E0,0E0,0E0,2.9353008E0,1.5262643E0,0E0,0E0,0E0,0E0],"parents":[2147483647,0,0,1,1,2,2,3,3,4,4,5,5,9,9,10,10,13,13,17,17,18,18],"right_children":[2,4,6,8,10,12,-1,-1,-1,14,16,-1,-1,18,-1,-1,-1,20,22,-1,-1,-1,-1],"split_conditions":[1.0143893E0,1.6758648E-1,1.6758648E-1,5.443948E-1,3.2795194E-1,5.443948E-1,1.1472458E-1,-7.0678055E-2,1.1509456E-1,4.3125942E-1,5.443948E-1,1.2593637E-1,1.14869334E-1,1.2672645E0,1.0966845E-1,1.3429926E-1,1.1467768E-1,8.074656E-1,1.4227036E-1,7.710188E-2,8.703305E-3,-5.869006E-2,4.301354E-2],"split_indices":[6,4,4,8,4,8,0,0,0,8,8,0,0,2,0,0,0,9,8,0,0,0,0],"split_type":[0,0,0,0,0,0,0,0,0,0,0,0,0,0,0,0,0,0,0,0,0,0,0],"sum_hessian":[7.1903037E3,5.588139E3,1.6021644E3,4.814134E3,7.740054E2,8.682084E2,7.3395605E2,4.529367E3,2.8476648E2,7.271882E1,7.0128656E2,5.8133246E2,2.8687592E2,4.4349625E1,2.8369194E1,4.5659494E2,2.4469162E2,3.9459118E1,4.8905053E0,3.133273E1,8.1263895E0,3.559968E0,1.3305374E0],"tree_param":{"num_deleted":"0","num_feature":"10","num_nodes":"23","size_leaf_vector":"1"}},{"base_weights":[-2.0321452E-3,4.8454356E-1,-6.7778595E-2,-6.7821585E-2,7.3408264E-1,1.0395911E0,-6.776433E-2,-5.007602E-2,1.0411291E0,-3.9178338E-2,1.04191996E-1],"categories":[],"categories_nodes":[],"categories_segments":[],"categories_sizes":[],"default_left":[0,0,0,0,0,0,0,0,0,0,0],"id":9,"left_children":[1,3,-1,-1,5,7,-1,-1,9,-1,-1],"loss_changes":[2.292085E3,1.1764232E3,0E0,0E0,1.4400027E3,7.0217285E0,0E0,0E0,3.5151367E0,0E0,0E0],"parents":[2147483647,0,0,1,1,4,4,5,5,8,8],"right_children":[2,4,-1,-1,6,8,-1,-1,10,-1,-1],"split_conditions":[-6.9930726E-1,-1.5769836E-1,-6.7778595E-2,-6.7821585E-2,-1.18905544E-1,-6.0282886E-1,-6.776433E-2,-5.007602E-2,-1.1179291E0,-3.9178338E-2,1.04191996E-1],"split_indices":[2,9,0,0,9,3,0,0,0,0,0],"split_type":[0,0,0,0,0,0,0,0,0,0,0],"sum_hessian":[6.9689487E3,4.051764E3,2.9171848E3,7.1560284E2,3.3361611E3,2.7428506E3,5.9331055E2,2.4122183E0,2.7404385E3,1.2389821E0,2.7391995E3],"tree_param":{"num_deleted":"0","num_feature":"10","num_nodes":"11","size_leaf_vector":"1"}},{"base_weights":[1.8585529E-3,1.5559709E-1,-6.813958E-1,-2.9968435E-1,6.614431E-1,-4.107823E-1,-7.120177E-1,-5.2857935E-1,5.8623016E-1,8.4639364E-1,-6.740014E-2,-2.1646665E-1,-6.104221E-1,-7.289496E-2,-6.755079E-2,5.7734066E-1,-6.154013E-1,7.8242785E-1,-6.679543E-2,1.0852078E-1,8.2888275E-1,-5.1150686E-1,-9.685712E-2,-3.9904618E-1,-6.701096E-2,7.5418866E-1,-5.825864E-1,-6.7596816E-2,4.6561125E-1,5.0851405E-1,8.441659E-1,5.2769065E-1,8.502413E-1,-5.8797836E-1,-1.594406E-2,3.1162894E-1,-2.4043575E-1,-6.542917E-2,-3.4746107E-2,8.1536435E-2,2.9853428E-2,-3.4033135E-2,-6.444195E-2,7.432996E-2,-5.8931965E-2,8.9503944E-2,3.4779724E-2,9.44042E-2,6.306856E-2,-4.209287E-3,5.613732E-2,1.095837E-1,8.306103E-2,-9.6565755E-3,-6.362476E-2,3.8658958E-2,-4.2316806E-2,-1.6203858E-2,8.411531E-2,-3.215572E-2,1.6406382E-2,-4.923459E-2,2.1187568E-2],"categories":[],"categories_nodes":[],"categories_segments":[],"categories_sizes":[],"default_left":[0,0,0,0,0,0,0,0,0,0,0,0,0,0,0,0,0,0,0,0,0,0,0,0,0,0,0,0,0,0,0,0,0,0,0,0,0,0,0,0,0,0,0,0,0,0,0,0,0,0,0,0,0,0,0,0,0,0,0,0,0,0,0],"id":10,"left_children":[1,3,5,7,9,11,13,15,17,19,-1,21,23,-1,-1,25,27,29,-1,-1,31,33,35,37,-1,39,41,-1,43,45,47,49,51,53,55,57,59,-1,61,-1,-1,-1,-1,-1,-1,-1,-1,-1,-1,-1,-1,-1,-1,-1,-1,-1,-1,-1,-1,-1,-1,-1,-1],"loss_changes":[7.389143E2,1.3226721E3,1.0414612E1,6.1329956E2,6.724928E2,5.0548706E0,2.2436523E-1,2.3106451E2,1.5336641E2,9.094727E0,0E0,2.3962984E0,5.5773354E-1,0E0,0E0,3.6422997E1,1.4621252E2,8.661682E0,0E0,0E0,1.3902832E1,7.3941565E-1,3.039609E0,1.5462613E0,0E0,4.011612E0,1.3675976E-1,0E0,3.5244743E1,5.987463E0,8.726105E0,2.9093246E0,9.12561E0,3.4392643E-1,7.650696E-1,3.5429256E0,1.2985818E0,0E0,1.0080235E0,0E0,0E0,0E0,0E0,0E0,0E0,0E0,0E0,0E0,0E0,0E0,0E0,0E0,0E0,0E0,0E0,0E0,0E0,0E0,0E0,0E0,0E0,0E0,0E0],"parents":[2147483647,0,0,1,1,2,2,3,3,4,4,5,5,6,6,7,7,8,8,9,9,11,11,12,12,15,15,16,16,17,17,20,20,21,21,22,22,23,23,25,25,26,26,28,28,29,29,30,30,31,31,32,32,33,33,34,34,35,35,36,36,38,38],"right_children":[2,4,6,8,10,12,14,16,18,20,-1,22,24,-1,-1,26,28,30,-1,-1,32,34,36,38,-1,40,42,-1,44,46,48,50,52,54,56,58,60,-1,62,-1,-1,-1,-1,-1,-1,-1,-1,-1,-1,-1,-1,-1,-1,-1,-1,-1,-1,-1,-1,-1,-1,-1,-1],"split_conditions":[1.6758648E-1,-1.2234706E0,3.2795194E-1,-6.9930726E-1,6.226505E-1,-7.003758E-3,4.3125942E-1,-1.6366929E-1,6.226505E-1,-1.1153371E0,-6.740014E-2,-1.3471352E0,3.2072464E-1,-7.289496E-2,-6.755079E-2,3.5417342E-1,-1.18905544E-1,-1.5959754E0,-6.679543E-2,1.0852078E-1,-1.0878983E0,1.1000825E0,-1.0944922E0,-1.6366929E-1,-6.701096E-2,-7.437226E-1,6.226505E-1,-6.7596816E-2,4.2465612E-1,-1.5964335E0,-1.2757026E0,-1.4982386E0,-9.549717E-1,-1.4982386E0,-1.6798544E0,-5.2913946E-1,1.2672645E0,-6.542917E-2,-9.313153E-1,8.1536435E-2,2.9853428E-2,-3.4033135E-2,-6.444195E-2,7.432996E-2,-5.8931965E-2,8.9503944E-2,3.4779724E-2,9.44042E-2,6.306856E-2,-4.209287E-3,5.613732E-2,1.095837E-1,8.306103E-2,-9.6565755E-3,-6.362476E-2,3.8658958E-2,-4.2316806E-2,-1.6203858E-2,8.411531E-2,-3.215572E-2,1.6406382E-2,-4.923459E-2,2.1187568E-2],"split_indices":[4,4,4,2,7,7,8,9,7,4,0,7,8,0,0,8,9,4,0,0,4,2,8,9,0,2,7,0,8,4,4,2,4,2,7,2,2,0,3,0,0,0,0,0,0,0,0,0,0,0,0,0,0,0,0,0,0,0,0,0,0,0,0],"split_type":[0,0,0,0,0,0,0,0,0,0,0,0,0,0,0,0,0,0,0,0,0,0,0,0,0,0,0,0,0,0,0,0,0,0,0,0,0,0,0,0,0,0,0,0,0,0,0,0,0,0,0,0,0,0,0,0,0,0,0,0,0,0,0],"sum_hessian":[7.0324214E3,5.7413394E3,1.291082E3,3.0219092E3,2.7194302E3,1.3270941E2,1.1583726E3,2.4017651E3,6.201441E2,2.388943E3,3.3048715E2,6.830768E1,6.440173E1,7.784099E2,3.7996265E2,1.7441792E2,2.2273472E3,5.3658057E2,8.3563576E1,1.5903552E2,2.2299075E3,1.875885E1,4.9548832E1,1.5873459E1,4.852828E1,1.5164691E2,2.2771011E1,2.1095293E3,1.1781773E2,1.0039474E2,4.3618582E2,1.4936137E2,2.0805461E3,1.6089546E1,2.6693037E0,1.2582045E1,3.6966785E1,8.865707E0,7.0077515E0,1.3300092E2,1.8645996E1,5.9527664E0,1.6818245E1,9.350098E1,2.4316755E1,2.814257E1,7.225217E1,2.9482892E2,1.4135689E2,8.322687E0,1.410387E2,1.4993605E2,1.9306101E3,1.7074237E0,1.4382123E1,1.3678648E0,1.3014388E0,7.0076165E0,5.5744286E0,3.09624E1,6.0043855E0,2.1052182E0,4.9025335E0],"tree_param":{"num_deleted":"0","num_feature":"10","num_nodes":"63","size_leaf_vector":"1"}},{"base_weights":[8.55005E-3,-3.2569867E-1,1.0940872E0,-5.773292E-1,1.1332989E0,1.1186084E0,1.0409659E-1,-6.877791E-2,1.0412494E-1,7.799012E-1,1.16659E0,1.16057396E-1,1.067279E-1,5.7638085E-1,1.0251571E-1,1.2321796E-1,1.0375794E-1,6.1534053E-1,-1.6074164E-2,2.8892005E-2,6.806943E-2],"categories":[],"categories_nodes":[],"categories_segments":[],"categories_sizes":[],"default_left":[0,0,0,0,0,0,0,0,0,0,0,0,0,0,0,0,0,0,0,0,0],"id":11,"left_children":[1,3,5,7,9,11,-1,-1,-1,13,15,-1,-1,17,-1,-1,-1,19,-1,-1,-1],"loss_changes":[2.543423E3,1.9682935E3,9.851074E-1,8.180298E2,8.369446E0,1.1645508E0,0E0,0E0,0E0,2.9490395E0,4.803772E0,0E0,0E0,1.2775526E0,0E0,0E0,0E0,6.3933754E-1,0E0,0E0,0E0],"parents":[2147483647,0,0,1,1,2,2,3,3,4,4,5,5,9,9,10,10,13,13,17,17],"right_children":[2,4,6,8,10,12,-1,-1,-1,14,16,-1,-1,18,-1,-1,-1,20,-1,-1,-1],"split_conditions":[1.0143893E0,1.6758648E-1,6.226505E-1,6.226505E-1,3.2795194E-1,1.6758648E-1,1.0409659E-1,-6.877791E-2,1.0412494E-1,4.6011755E-1,6.226505E-1,1.16057396E-1,1.067279E-1,3.5024446E-1,1.0251571E-1,1.2321796E-1,1.0375794E-1,-1.356649E0,-1.6074164E-2,2.8892005E-2,6.806943E-2],"split_indices":[6,4,7,7,4,4,0,0,0,7,7,0,0,7,0,0,0,0,0,0,0],"split_type":[0,0,0,0,0,0,0,0,0,0,0,0,0,0,0,0,0,0,0,0,0],"sum_hessian":[7.0077944E3,5.358541E3,1.6492533E3,4.570824E3,7.87717E2,1.1146602E3,5.345931E2,4.2793794E3,2.914448E2,6.991958E1,7.1779736E2,6.013782E2,5.1328204E2,4.0041836E1,2.987774E1,4.7019608E2,2.476013E2,3.8188637E1,1.853199E0,7.274711E0,3.0913925E1],"tree_param":{"num_deleted":"0","num_feature":"10","num_nodes":"21","size_leaf_vector":"1"}},{"base_weights":[-8.22359E-3,6.089008E-1,-6.591026E-2,8.247462E-1,-6.604886E-2,-6.6136986E-2,8.992738E-1,9.565254E-2,-6.568623E-2],"categories":[],"categories_nodes":[],"categories_segments":[],"categories_sizes":[],"default_left":[0,0,0,0,0,0,0,0,0],"id":12,"left_children":[1,3,-1,5,-1,-1,7,-1,-1],"loss_changes":[2.7141877E3,9.508987E2,0E0,3.289796E2,0E0,0E0,2.5219995E2,0E0,0E0],"parents":[2147483647,0,0,1,1,3,3,6,6],"right_children":[2,4,-1,6,-1,-1,8,-1,-1],"split_conditions":[-1.2234706E0,-6.9930726E-1,-6.591026E-2,-1.6366929E-1,-6.604886E-2,-6.6136986E-2,-1.18905544E-1,9.565254E-2,-6.568623E-2],"split_indices":[4,2,0,9,0,0,9,0,0],"split_type":[0,0,0,0,0,0,0,0,0],"sum_hessian":[6.755204E3,3.4675479E3,3.2876562E3,2.9639172E3,5.0363065E2,1.4116411E2,2.822753E3,2.7229583E3,9.97947E1],"tree_param":{"num_deleted":"0","num_feature":"10","num_nodes":"9","size_leaf_vector":"1"}},{"base_weights":[2.2501919E-4,1.6019063E-1,-6.860528E-1,-2.1311943E-1,6.129749E-1,-6.988237E-1,-6.553724E-2,-4.9376547E-1,5.3559095E-1,9.061223E-1,-6.5718424E-1,-7.187395E-2,-6.7186765E-2,-5.7213E-1,9.314594E-1,8.9912057E-1,-6.6477954E-1,1.0252605E-1,-6.525227E-2,-1.7635888E-1,-7.042557E-1,1.0060604E-1,-6.1078453E-1,1.0414045E-1,-5.893571E-2,1.0239599E-1,-6.4388834E-2,-2.9671025E-1,-7.019821E-2,1.1242166E-1,-5.2208143E-1,-7.269326E-2,-6.543314E-2,7.6778375E-2,-6.311118E-2,-9.185823E-3,-5.807441E-2,3.87396E-2,-4.6141542E-2,-3.137453E-2,-6.0883332E-2],"categories":[],"categories_nodes":[],"categories_segments":[],"categories_sizes":[],"default_left":[0,0,0,0,0,0,0,0,0,0,0,0,0,0,0,0,0,0,0,0,0,0,0,0,0,0,0,0,0,0,0,0,0,0,0,0,0,0,0,0,0],"id":13,"left_children":[1,3,5,7,9,11,-1,13,15,17,19,-1,-1,21,23,25,27,-1,-1,29,31,-1,33,-1,-1,-1,-1,35,-1,37,39,-1,-1,-1,-1,-1,-1,-1,-1,-1,-1],"loss_changes":[7.572146E2,9.456229E2,5.291748E-2,6.446362E2,9.4189014E2,3.2043457E-3,0E0,2.4971466E2,3.656551E2,3.8215796E2,1.0618134E1,0E0,0E0,1.2966321E2,2.0120056E1,1.2443048E2,2.462387E0,0E0,0E0,4.4171925E0,1.3412476E-2,0E0,5.836371E1,0E0,0E0,0E0,0E0,1.0891666E0,0E0,4.0619073E0,1.7128658E-1,0E0,0E0,0E0,0E0,0E0,0E0,0E0,0E0,0E0,0E0],"parents":[2147483647,0,0,1,1,2,2,3,3,4,4,5,5,7,7,8,8,9,9,10,10,13,13,14,14,15,15,16,16,19,19,20,20,22,22,27,27,29,29,30,30],"right_children":[2,4,6,8,10,12,-1,14,16,18,20,-1,-1,22,24,26,28,-1,-1,30,32,-1,34,-1,-1,-1,-1,36,-1,38,40,-1,-1,-1,-1,-1,-1,-1,-1,-1,-1],"split_conditions":[1.0143893E0,-6.9930726E-1,6.226505E-1,-1.2234706E0,1.6758648E-1,1.6758648E-1,-6.553724E-2,1.0260535E0,1.6758648E-1,6.226505E-1,3.2795194E-1,-7.187395E-2,-6.7186765E-2,-7.4330217E-1,5.736167E-1,6.226505E-1,3.2795194E-1,1.0252605E-1,-6.525227E-2,-1.111457E-1,4.3125942E-1,1.0060604E-1,-4.5068365E-2,1.0414045E-1,-5.893571E-2,1.0239599E-1,-6.4388834E-2,3.7386042E-1,-7.019821E-2,-2.913199E-4,6.226505E-1,-7.269326E-2,-6.543314E-2,7.6778375E-2,-6.311118E-2,-9.185823E-3,-5.807441E-2,3.87396E-2,-4.6141542E-2,-3.137453E-2,-6.0883332E-2],"split_indices":[6,2,7,4,4,4,0,5,4,7,4,0,0,8,7,7,4,0,0,7,8,0,0,0,0,0,0,8,0,0,7,0,0,0,0,0,0,0,0,0,0],"split_type":[0,0,0,0,0,0,0,0,0,0,0,0,0,0,0,0,0,0,0,0,0,0,0,0,0,0,0,0,0,0,0,0,0,0,0,0,0,0,0,0,0],"sum_hessian":[6.8955103E3,5.592672E3,1.3028384E3,3.0656467E3,2.527025E3,9.045406E2,3.9829776E2,2.2300696E3,8.3557715E2,2.0533962E3,4.7362866E2,5.0544458E2,3.9909604E2,2.1144097E3,1.1566013E2,6.415393E2,1.9403783E2,1.907904E3,1.454922E2,4.265574E1,4.3097293E2,4.99516E1,2.064458E3,1.0815637E2,7.5037594E0,5.93831E2,4.7708363E1,1.8635893E1,1.7540193E2,2.360958E1,1.9046158E1,2.870343E2,1.4393863E2,2.9464102E1,2.0349939E3,1.1595991E1,7.039902E0,1.6180855E1,7.4287252E0,6.956525E0,1.2089632E1],"tree_param":{"num_deleted":"0","num_feature":"10","num_nodes":"41","size_leaf_vector":"1"}},{"base_weights":[5.3037396E-3,-2.8377545E-1,9.952602E-1,-4.4050902E-1,9.564175E-2,8.2477885E-1,1.0130701E0,-5.413147E-1,-2.914124E-1,7.108137E-1,9.187119E-2,1.0421743E-1,9.574053E-2,-2.4090277E-1,-6.001714E-1,4.579859E-2,-3.1897068E-1,8.7949865E-2,5.319103E-1,-1.2939624E-1,-6.273196E-2,-6.559915E-2,-2.678298E-1,2.973994E-1,-1.6959538E-3,-6.6330634E-2,-2.9349354E-1,7.014746E-1,1.6746297E-1,-2.1518808E-2,8.961122E-3,-1.6319057E-2,-6.7013174E-2,1.4250236E-2,6.870534E-2,-5.4771107E-2,2.1078612E-3,3.7036256E-3,-3.1934913E-2,5.0064158E-2,9.564168E-2,-1.2856959E-2,7.0854284E-2],"categories":[],"categories_nodes":[],"categories_segments":[],"categories_sizes":[],"default_left":[0,0,0,0,0,0,0,0,0,0,0,0,0,0,0,0,0,0,0,0,0,0,0,0,0,0,0,0,0,0,0,0,0,0,0,0,0,0,0,0,0,0,0],"id":14,"left_children":[1,3,5,7,-1,9,11,13,15,17,-1,-1,-1,19,21,23,25,-1,27,29,-1,-1,31,33,35,-1,37,39,41,-1,-1,-1,-1,-1,-1,-1,-1,-1,-1,-1,-1,-1,-1],"loss_changes":[1.9641256E3,1.0329978E3,3.8743896E0,7.073511E1,0E0,9.752655E-1,1.2703857E0,4.959253E1,1.7716187E1,1.7395325E0,0E0,0E0,0E0,1.9847172E1,4.3447388E1,1.7306354E0,1.5254532E1,0E0,2.2324848E0,6.7868876E0,0E0,0E0,1.4197077E1,1.2900844E0,1.5384483E0,0E0,1.4040375E1,8.3389664E-1,2.2355874E0,0E0,0E0,0E0,0E0,0E0,0E0,0E0,0E0,0E0,0E0,0E0,0E0,0E0,0E0],"parents":[2147483647,0,0,1,1,2,2,3,3,5,5,6,6,7,7,8,8,9,9,13,13,14,14,15,15,16,16,18,18,19,19,22,22,23,23,24,24,26,26,27,27,28,28],"right_children":[2,4,6,8,-1,10,12,14,16,18,-1,-1,-1,20,22,24,26,-1,28,30,-1,-1,32,34,36,-1,38,40,42,-1,-1,-1,-1,-1,-1,-1,-1,-1,-1,-1,-1,-1,-1],"split_conditions":[1.6758648E-1,6.226505E-1,3.2795194E-1,-1.1153371E0,9.564175E-2,-7.003758E-3,4.3125942E-1,-1.6366929E-1,-1.0878983E0,-1.0222878E0,9.187119E-2,1.0421743E-1,9.574053E-2,-1.2750944E0,2.7982664E-1,-1.1774584E0,-9.549717E-1,8.7949865E-2,6.896625E-1,-1.2757026E0,-6.273196E-2,-6.559915E-2,-1.2750944E0,2.5353676E-1,-7.8713375E-1,-6.6330634E-2,-9.3893516E-1,-7.9135996E-1,1.2402024E0,-2.1518808E-2,8.961122E-3,-1.6319057E-2,-6.7013174E-2,1.4250236E-2,6.870534E-2,-5.4771107E-2,2.1078612E-3,3.7036256E-3,-3.1934913E-2,5.0064158E-2,9.564168E-2,-1.2856959E-2,7.0854284E-2],"split_indices":[4,7,4,4,0,7,8,9,4,7,0,0,0,4,9,9,4,0,3,4,0,0,4,8,9,0,4,3,3,0,0,0,0,0,0,0,0,0,0,0,0,0,0],"split_type":[0,0,0,0,0,0,0,0,0,0,0,0,0,0,0,0,0,0,0,0,0,0,0,0,0,0,0,0,0,0,0,0,0,0,0,0,0,0,0,0,0,0,0],"sum_hessian":[6.861366E3,5.3111577E3,1.5502086E3,4.715824E3,5.9533344E2,1.51105E2,1.3991035E3,2.8119836E3,1.9038405E3,7.214343E1,7.896156E1,9.071039E2,4.919997E2,4.6150342E2,2.3504802E3,1.4378488E2,1.7600555E3,3.511657E1,3.7026863E1,3.591888E2,1.023146E2,2.0116322E3,3.38848E2,2.199664E1,1.21788246E2,1.1952906E2,1.6405265E3,2.4638632E1,1.2388232E1,2.581005E2,1.0108832E2,2.7002084E2,6.882712E1,1.6716955E1,5.2796845E0,3.953549E0,1.178347E2,1.1898798E2,1.5215385E3,1.5439652E1,9.198979E0,8.5000925E0,3.8881397E0],"tree_param":{"num_deleted":"0","num_feature":"10","num_nodes":"43","size_leaf_vector":"1"}},{"base_weights":[-7.655956E-3,5.69038E-1,-6.428078E-2,7.670469E-1,-6.440921E-2,-6.4690076E-2,8.387357E-1,8.886645E-2,-6.406155E-2],"categories":[],"categories_nodes":[],"categories_segments":[],"categories_sizes":[],"default_left":[0,0,0,0,0,0,0,0,0],"id":15,"left_children":[1,3,-1,5,-1,-1,7,-1,-1],"loss_changes":[2.3742668E3,8.165687E2,0E0,2.966355E2,0E0,0E0,2.0594714E2,0E0,0E0],"parents":[2147483647,0,0,1,1,3,3,6,6],"right_children":[2,4,-1,6,-1,-1,8,-1,-1],"split_conditions":[-1.2234706E0,-6.9930726E-1,-6.428078E-2,-1.6366929E-1,-6.440921E-2,-6.4690076E-2,-1.18905544E-1,8.886645E-2,-6.406155E-2],"split_indices":[4,2,0,9,0,0,9,0,0],"split_type":[0,0,0,0,0,0,0,0,0],"sum_hessian":[6.479966E3,3.39633E3,3.0836357E3,2.9200781E3,4.762519E2,1.4052E2,2.779558E3,2.6891958E3,9.0362305E1],"tree_param":{"num_deleted":"0","num_feature":"10","num_nodes":"9","size_leaf_vector":"1"}},{"base_weights":[4.052221E-3,1.4051004E-1,-6.3875234E-1,-2.650956E-1,5.5936116E-1,-4.0308213E-1,-6.6685244E-2,-4.825328E-1,4.8476142E-1,7.0797384E-1,-6.381003E-2,-2.971741E-1,-6.2840395E-2,-5.576882E-1,5.11758E-1,6.43097E-1,-6.320633E-2,7.1822715E-1,4.1343606E-1,-5.2202547E-1,-2.345623E-1,4.3854475E-1,-6.0342807E-1,7.0641106E-1,-5.604674E-1,4.0402362E-1,6.9461817E-1,9.046635E-2,7.042356E-1,5.9798616E-1,2.4967203E-1,-6.167582E-1,2.460412E-2,1.5254782E-1,-3.2254818E-1,8.561281E-2,2.549463E-2,4.4349294E-2,-6.2339794E-2,5.2680083E-2,8.213457E-2,-4.281555E-3,-6.2251896E-2,7.41319E-2,2.7263327E-2,7.7777006E-2,5.335311E-2,4.655734E-2,7.205485E-2,7.206591E-2,2.439875E-3,-4.8399637E-3,3.9939143E-2,-1.690778E-2,-6.693443E-2,-1.1579684E-2,4.2176407E-2,-3.6066603E-2,-2.2249639E-3],"categories":[],"categories_nodes":[],"categories_segments":[],"categories_sizes":[],"default_left":[0,0,0,0,0,0,0,0,0,0,0,0,0,0,0,0,0,0,0,0,0,0,0,0,0,0,0,0,0,0,0,0,0,0,0,0,0,0,0,0,0,0,0,0,0,0,0,0,0,0,0,0,0,0,0,0,0,0,0],"id":16,"left_children":[1,3,5,7,9,11,-1,13,15,17,-1,19,-1,21,23,25,-1,27,29,31,33,35,37,39,41,43,45,-1,47,49,51,53,-1,55,57,-1,-1,-1,-1,-1,-1,-1,-1,-1,-1,-1,-1,-1,-1,-1,-1,-1,-1,-1,-1,-1,-1,-1,-1],"loss_changes":[5.829321E2,9.314656E2,7.4378967E0,4.5443054E2,4.8044965E2,2.8320675E0,0E0,1.616936E2,1.1122598E2,6.9508057E0,0E0,1.1157794E0,0E0,9.179523E1,3.2185863E1,6.486145E0,0E0,5.4091797E0,2.3619347E0,1.4862447E0,2.454255E0,6.586361E0,4.043689E1,2.2376404E0,7.429819E-1,4.2203827E0,5.620392E0,0E0,8.076172E0,2.68083E0,2.0606494E0,2.7790833E-1,0E0,1.0426044E0,6.542363E-1,0E0,0E0,0E0,0E0,0E0,0E0,0E0,0E0,0E0,0E0,0E0,0E0,0E0,0E0,0E0,0E0,0E0,0E0,0E0,0E0,0E0,0E0,0E0,0E0],"parents":[2147483647,0,0,1,1,2,2,3,3,4,4,5,5,7,7,8,8,9,9,11,11,13,13,14,14,15,15,17,17,18,18,19,19,20,20,21,21,22,22,23,23,24,24,25,25,26,26,28,28,29,29,30,30,31,31,33,33,34,34],"right_children":[2,4,6,8,10,12,-1,14,16,18,-1,20,-1,22,24,26,-1,28,30,32,34,36,38,40,42,44,46,-1,48,50,52,54,-1,56,58,-1,-1,-1,-1,-1,-1,-1,-1,-1,-1,-1,-1,-1,-1,-1,-1,-1,-1,-1,-1,-1,-1,-1,-1],"split_conditions":[1.6758648E-1,-1.2234706E0,3.2795194E-1,-6.9930726E-1,6.226505E-1,4.3125942E-1,-6.6685244E-2,1.0260535E0,6.226505E-1,4.2733142E-1,-6.381003E-2,-1.3471352E0,-6.2840395E-2,-8.4082305E-1,3.6879975E-1,-1.5959754E0,-6.320633E-2,-1.1153371E0,-2.0561649E-1,1.1000825E0,-1.0944922E0,-7.2879606E-1,-3.3266643E-1,-6.453316E-1,3.7386042E-1,-1.5964335E0,-1.2757026E0,9.046635E-2,-1.0878983E0,-1.8414935E-1,4.3125942E-1,-1.4982386E0,2.460412E-2,-2.435915E-1,1.4147077E0,8.561281E-2,2.549463E-2,4.4349294E-2,-6.2339794E-2,5.2680083E-2,8.213457E-2,-4.281555E-3,-6.2251896E-2,7.41319E-2,2.7263327E-2,7.7777006E-2,5.335311E-2,4.655734E-2,7.205485E-2,7.206591E-2,2.439875E-3,-4.8399637E-3,3.9939143E-2,-1.690778E-2,-6.693443E-2,-1.1579684E-2,4.2176407E-2,-3.6066603E-2,-2.2249639E-3],"split_indices":[4,4,4,2,7,8,0,5,7,8,0,7,0,7,8,4,0,4,0,2,8,0,3,7,8,4,4,0,4,4,8,2,0,2,2,0,0,0,0,0,0,0,0,0,0,0,0,0,0,0,0,0,0,0,0,0,0,0,0],"split_type":[0,0,0,0,0,0,0,0,0,0,0,0,0,0,0,0,0,0,0,0,0,0,0,0,0,0,0,0,0,0,0,0,0,0,0,0,0,0,0,0,0,0,0,0,0,0,0,0,0,0,0,0,0,0,0,0,0,0,0],"sum_hessian":[6.643676E3,5.480936E3,1.1627395E3,2.7846821E3,2.696254E3,1.25503975E2,1.0372356E3,2.1589922E3,6.256899E2,2.398939E3,2.97315E2,8.695254E1,3.855144E1,2.0076774E3,1.5131497E2,5.4837E2,7.731987E1,2.3168477E3,8.209118E1,1.7340796E1,6.961174E1,8.77549E1,1.9199225E3,1.2835452E2,2.2960453E1,9.879137E1,4.4957864E2,1.5729117E2,2.1595566E3,3.7349506E1,4.4741676E1,1.5612198E1,1.7285979E0,1.2755923E1,5.6855816E1,2.5681307E1,6.207359E1,3.553973E1,1.8843827E3,5.2264057E1,7.609046E1,2.638587E0,2.0321865E1,2.6393608E1,7.239776E1,2.939934E2,1.5558522E2,1.4005457E2,2.019502E3,3.0557726E1,6.7917795E0,1.5185691E1,2.9555984E1,2.0841827E0,1.3528015E1,6.6737022E0,6.0822215E0,5.027342E1,6.5823946E0],"tree_param":{"num_deleted":"0","num_feature":"10","num_nodes":"59","size_leaf_vector":"1"}},{"base_weights":[4.758178E-3,-3.0639416E-1,9.590245E-1,-5.4678947E-1,9.3235683E-1,1.0094097E0,8.984146E-2,-6.538955E-2,8.882755E-2,5.717725E-1,9.678967E-1,1.0648548E-1,8.8591374E-2,3.507884E-1,8.495775E-1,1.0096262E-1,8.884119E-2,8.583338E-1,1.9844456E-1,2.2942998E-2,8.720007E-2,3.04865E-2,9.187665E-2,3.150389E-2,-5.0288327E-2],"categories":[],"categories_nodes":[],"categories_segments":[],"categories_sizes":[],"default_left":[0,0,0,0,0,0,0,0,0,0,0,0,0,0,0,0,0,0,0,0,0,0,0,0,0],"id":17,"left_children":[1,3,5,7,9,11,-1,-1,-1,13,15,-1,-1,17,19,-1,-1,21,23,-1,-1,-1,-1,-1,-1],"loss_changes":[1.963872E3,1.485819E3,4.0595703E0,6.4272253E2,9.839661E0,5.0820312E0,0E0,0E0,0E0,4.3188725E0,1.546875E0,0E0,0E0,3.200077E0,2.5348282E-1,0E0,0E0,4.643202E-2,3.006269E0,0E0,0E0,0E0,0E0,0E0,0E0],"parents":[2147483647,0,0,1,1,2,2,3,3,4,4,5,5,9,9,10,10,13,13,14,14,17,17,18,18],"right_children":[2,4,6,8,10,12,-1,-1,-1,14,16,-1,-1,18,20,-1,-1,22,24,-1,-1,-1,-1,-1,-1],"split_conditions":[1.0143893E0,1.6758648E-1,1.6758648E-1,6.226505E-1,3.2795194E-1,6.226505E-1,8.984146E-2,-6.538955E-2,8.882755E-2,4.3125942E-1,4.3125942E-1,1.0648548E-1,8.8591374E-2,-1.4342494E0,4.6011755E-1,1.0096262E-1,8.884119E-2,-1.0411257E0,7.073095E-1,2.2942998E-2,8.720007E-2,3.04865E-2,9.187665E-2,3.150389E-2,-5.0288327E-2],"split_indices":[6,4,4,7,4,7,0,0,0,8,8,0,0,8,7,0,0,2,0,0,0,0,0,0,0],"split_type":[0,0,0,0,0,0,0,0,0,0,0,0,0,0,0,0,0,0,0,0,0,0,0,0,0],"sum_hessian":[6.612107E3,4.9867754E3,1.6253313E3,4.1767773E3,8.099979E2,8.789783E2,7.463531E2,3.8872007E3,2.8957687E2,7.4205376E1,7.3579254E2,6.013654E2,2.7761285E2,4.258958E1,3.1615797E1,4.7481366E2,2.6097885E2,8.7624855E0,3.3827095E1,1.4952132E0,3.0120584E1,1.4576242E0,7.304861E0,2.9477343E1,4.349752E0],"tree_param":{"num_deleted":"0","num_feature":"10","num_nodes":"25","size_leaf_vector":"1"}},{"base_weights":[-1.43449735E-2,5.303731E-1,-6.283395E-2,7.141681E-1,-6.296143E-2,7.693997E-1,-6.2813126E-2,-6.229616E-2,7.9621464E-1,-6.1353404E-2,8.106904E-1,8.204726E-2,-5.7748843E-2],"categories":[],"categories_nodes":[],"categories_segments":[],"categories_sizes":[],"default_left":[0,0,0,0,0,0,0,0,0,0,0,0,0],"id":18,"left_children":[1,3,-1,5,-1,7,-1,-1,9,-1,11,-1,-1],"loss_changes":[2.0866465E3,7.0528876E2,0E0,2.120935E2,0E0,1.0286914E2,0E0,0E0,5.5404297E1,0E0,3.6644775E1,0E0,0E0],"parents":[2147483647,0,0,1,1,3,3,5,5,8,8,10,10],"right_children":[2,4,-1,6,-1,8,-1,-1,10,-1,12,-1,-1],"split_conditions":[-1.2234706E0,-6.9930726E-1,-6.283395E-2,1.0260535E0,-6.296143E-2,-4.9571125E-3,-6.2813126E-2,-6.229616E-2,-7.4330217E-1,-6.1353404E-2,1.8134587E-1,8.204726E-2,-5.7748843E-2],"split_indices":[4,2,0,5,0,0,0,0,8,0,7,0,0],"split_type":[0,0,0,0,0,0,0,0,0,0,0,0,0],"sum_hessian":[6.236969E3,3.305003E3,2.9319663E3,2.8532952E3,4.5170776E2,2.7409402E3,1.1235486E2,5.1369164E1,2.689571E3,2.691604E1,2.662655E3,2.6444292E3,1.8225796E1],"tree_param":{"num_deleted":"0","num_feature":"10","num_nodes":"13","size_leaf_vector":"1"}},{"base_weights":[5.649921E-3,1.6041313E-1,-6.6575456E-1,-2.1319708E-1,4.935958E-1,-6.886551E-1,-6.326741E-2,8.0926025E-1,-3.940358E-1,7.9691523E-1,-6.0797346E-1,-7.122966E-2,-6.225E-2,9.143614E-2,-6.0691305E-2,-6.2353295E-1,8.0350286E-1,8.940923E-2,-6.210015E-2,-1.22442454E-1,-6.615701E-2,5.3903658E-2,-6.248208E-1,9.046705E-2,-6.0648758E-2,1.0665622E-1,-6.0052074E-2,-6.253513E-2,-3.639205E-2,-2.829027E-2,2.2123003E-2],"categories":[],"categories_nodes":[],"categories_segments":[],"categories_sizes":[],"default_left":[0,0,0,0,0,0,0,0,0,0,0,0,0,0,0,0,0,0,0,0,0,0,0,0,0,0,0,0,0,0,0],"id":19,"left_children":[1,3,5,7,9,11,-1,13,15,17,19,-1,-1,-1,-1,21,23,-1,-1,25,-1,-1,27,-1,-1,29,-1,-1,-1,-1,-1],"loss_changes":[6.681958E2,6.506341E2,4.769287E-1,4.5595203E2,9.235901E2,6.522522E-1,0E0,5.5725204E1,5.7615E2,2.9910083E2,1.5455902E1,0E0,0E0,0E0,0E0,2.9694214E0,4.8660706E1,0E0,0E0,6.6994195E0,0E0,0E0,1.5563965E-2,0E0,0E0,1.9284748E0,0E0,0E0,0E0,0E0,0E0],"parents":[2147483647,0,0,1,1,2,2,3,3,4,4,5,5,7,7,8,8,9,9,10,10,15,15,16,16,19,19,22,22,25,25],"right_children":[2,4,6,8,10,12,-1,14,16,18,20,-1,-1,-1,-1,22,24,-1,-1,26,-1,-1,28,-1,-1,30,-1,-1,-1,-1,-1],"split_conditions":[1.0143893E0,-1.2234706E0,1.6758648E-1,-1.5769836E-1,1.6758648E-1,6.226505E-1,-6.326741E-2,6.226505E-1,-1.18905544E-1,6.226505E-1,3.2795194E-1,-7.122966E-2,-6.225E-2,9.143614E-2,-6.0691305E-2,-1.356649E0,6.226505E-1,8.940923E-2,-6.210015E-2,4.3125942E-1,-6.615701E-2,5.3903658E-2,1.7833525E-1,9.046705E-2,-6.0648758E-2,-1.4342494E0,-6.0052074E-2,-6.253513E-2,-3.639205E-2,-2.829027E-2,2.2123003E-2],"split_indices":[6,4,4,9,4,7,0,7,9,7,4,0,0,0,0,0,7,0,0,8,0,0,7,0,0,8,0,0,0,0,0],"split_type":[0,0,0,0,0,0,0,0,0,0,0,0,0,0,0,0,0,0,0,0,0,0,0,0,0,0,0,0,0,0,0],"sum_hessian":[6.428577E3,5.2249517E3,1.2036252E3,2.4632158E3,2.7617358E3,6.995387E2,5.0408652E2,3.6966492E2,2.0935508E3,2.1656863E3,5.960496E2,5.0816986E2,1.9136882E2,3.4445554E2,2.5209372E1,1.7572665E3,3.3628445E2,2.0271263E3,1.385599E2,5.9582E1,5.3646765E2,1.4825432E0,1.7557839E3,3.141056E2,2.217887E1,4.0804897E1,1.8777105E1,1.7508275E3,4.956362E0,8.9397955E0,3.18651E1],"tree_param":{"num_deleted":"0","num_feature":"10","num_nodes":"31","size_leaf_vector":"1"}},{"base_weights":[4.97869E-3,-2.6060116E-1,8.5794485E-1,-4.1145828E-1,7.9617447E-1,7.4363893E-1,8.7056047E-1,-5.112686E-1,-2.6914105E-1,2.5413662E-1,8.3377086E-2,6.5279335E-1,8.131158E-2,8.882889E-2,8.308792E-2,-5.746219E-1,-2.5118235E-1,2.1117736E-2,-2.9346725E-1,-2.4766321E-1,3.5606202E-1,7.013865E-1,2.7690592E-1,-2.4920876E-1,-5.9979004E-1,-1.4185946E-1,-6.2276596E-1,4.5901152E-1,-1.2884379E-2,-6.2029775E-2,-2.6987925E-1,1.1157949E-1,-5.2046567E-2,4.372082E-1,-3.2464805E-1,7.203573E-1,-7.621606E-3,-2.1105176E-1,5.469681E-1,3.2640506E-2,-3.0495495E-2,-6.124981E-2,-1.5503502E-2,-2.4346443E-2,1.5495314E-2,-4.051007E-2,-6.372152E-2,4.7449805E-3,5.6808706E-2,2.5597954E-2,-5.0881784E-3,5.305235E-3,-2.9504443E-2,-3.603368E-2,4.225855E-2,2.534287E-2,6.327181E-2,-4.488291E-2,-2.422597E-3,2.4026439E-2,7.4001364E-2,2.200335E-2,-5.0739527E-2,1.0918357E-2,8.386079E-2],"categories":[],"categories_nodes":[],"categories_segments":[],"categories_sizes":[],"default_left":[0,0,0,0,0,0,0,0,0,0,0,0,0,0,0,0,0,0,0,0,0,0,0,0,0,0,0,0,0,0,0,0,0,0,0,0,0,0,0,0,0,0,0,0,0,0,0,0,0,0,0,0,0,0,0,0,0,0,0,0,0,0,0,0,0],"id":20,"left_children":[1,3,5,7,9,11,13,15,17,19,-1,21,-1,-1,-1,23,25,27,29,31,33,35,37,39,41,43,45,47,49,-1,51,53,-1,55,57,59,-1,61,63,-1,-1,-1,-1,-1,-1,-1,-1,-1,-1,-1,-1,-1,-1,-1,-1,-1,-1,-1,-1,-1,-1,-1,-1,-1,-1],"loss_changes":[1.4397402E3,7.729815E2,1.5288086E0,6.011621E1,1.2133026E1,4.5920563E-1,2.1374512E-1,4.0919434E1,1.2367584E1,2.1713886E0,0E0,1.139986E0,0E0,0E0,0E0,1.6256836E1,1.9813484E1,2.0354688E0,1.228595E1,7.897771E-1,2.0345922E0,9.9946594E-1,1.43511E0,4.7690554E0,1.04104E1,1.1492895E1,9.12056E-2,4.1517806E-1,1.3151777E0,0E0,1.2273888E1,7.46101E-1,0E0,9.549699E-1,1.4668763E-1,4.1296005E-1,0E0,6.596114E-1,7.670405E-1,0E0,0E0,0E0,0E0,0E0,0E0,0E0,0E0,0E0,0E0,0E0,0E0,0E0,0E0,0E0,0E0,0E0,0E0,0E0,0E0,0E0,0E0,0E0,0E0,0E0,0E0],"parents":[2147483647,0,0,1,1,2,2,3,3,4,4,5,5,6,6,7,7,8,8,9,9,11,11,15,15,16,16,17,17,18,18,19,19,20,20,21,21,22,22,23,23,24,24,25,25,26,26,27,27,28,28,30,30,31,31,33,33,34,34,35,35,37,37,38,38],"right_children":[2,4,6,8,10,12,14,16,18,20,-1,22,-1,-1,-1,24,26,28,30,32,34,36,38,40,42,44,46,48,50,-1,52,54,-1,56,58,60,-1,62,64,-1,-1,-1,-1,-1,-1,-1,-1,-1,-1,-1,-1,-1,-1,-1,-1,-1,-1,-1,-1,-1,-1,-1,-1,-1,-1],"split_conditions":[1.6758648E-1,4.8586312E-1,3.2795194E-1,-1.1153371E0,6.226505E-1,-7.003758E-3,6.226505E-1,-5.915402E-1,-1.0878983E0,-9.313153E-1,8.3377086E-2,1.2672645E0,8.131158E-2,8.882889E-2,8.308792E-2,-8.4082305E-1,-1.2750944E0,-1.4982386E0,-9.549717E-1,-6.812459E-1,5.442998E-1,1.9831552E-1,-7.9135996E-1,-1.4982386E0,4.7782084E-1,-1.2757026E0,-4.3543154E-1,-8.5525674E-1,-1.6798544E0,-6.2029775E-2,-9.3893516E-1,1.4081885E-1,-5.2046567E-2,4.2193606E-1,1.0336492E0,-1.6119336E0,-7.621606E-3,-1.1953923E0,-3.4842037E-2,3.2640506E-2,-3.0495495E-2,-6.124981E-2,-1.5503502E-2,-2.4346443E-2,1.5495314E-2,-4.051007E-2,-6.372152E-2,4.7449805E-3,5.6808706E-2,2.5597954E-2,-5.0881784E-3,5.305235E-3,-2.9504443E-2,-3.603368E-2,4.225855E-2,2.534287E-2,6.327181E-2,-4.488291E-2,-2.422597E-3,2.4026439E-2,7.4001364E-2,2.200335E-2,-5.0739527E-2,1.0918357E-2,8.386079E-2],"split_indices":[4,8,4,4,7,7,7,2,4,3,0,2,0,0,0,7,4,2,4,0,7,8,3,2,3,4,2,3,7,0,4,7,0,0,3,2,0,1,8,0,0,0,0,0,0,0,0,0,0,0,0,0,0,0,0,0,0,0,0,0,0,0,0,0,0],"split_type":[0,0,0,0,0,0,0,0,0,0,0,0,0,0,0,0,0,0,0,0,0,0,0,0,0,0,0,0,0,0,0,0,0,0,0,0,0,0,0,0,0,0,0,0,0,0,0,0,0,0,0,0,0,0,0,0,0,0,0,0,0,0,0,0,0],"sum_hessian":[6.353622E3,4.8455913E3,1.5080306E3,4.240816E3,6.0477545E2,1.5585242E2,1.3521782E3,2.491134E3,1.7496819E3,3.9730423E1,5.65045E2,7.204485E1,8.380756E1,9.198368E2,4.3234143E2,2.002214E3,4.8892007E2,1.3530946E2,1.6143724E3,6.4661903E0,3.3264233E1,6.303057E1,9.014284E0,1.445209E2,1.8576931E3,3.7884314E2,1.1007692E2,8.848983E0,1.2646049E2,1.0696674E2,1.5074056E3,3.0460095E0,3.420181E0,3.0040838E1,3.2233937E0,6.160133E1,1.4292393E0,3.2893958E0,5.7248883E0,1.233184E1,1.3218906E2,1.8057208E3,5.197232E1,2.8236398E2,9.647917E1,8.659844E0,1.01417076E2,2.154538E0,6.694445E0,1.4948734E1,1.1151175E2,1.0889559E2,1.39851E3,1.1469803E0,1.8990293E0,1.6668592E1,1.3372246E1,1.9311485E0,1.2922451E0,2.943026E0,5.8658306E1,1.444954E0,1.8444419E0,2.8384423E0,2.886446E0],"tree_param":{"num_deleted":"0","num_feature":"10","num_nodes":"65","size_leaf_vector":"1"}},{"base_weights":[-9.316931E-3,3.8109982E-1,-6.1583716E-2,-6.1823256E-2,5.699243E-1,7.8757423E-1,-6.1613847E-2,7.883372E-2,-3.6993697E-2],"categories":[],"categories_nodes":[],"categories_segments":[],"categories_sizes":[],"default_left":[0,0,0,0,0,0,0,0,0],"id":21,"left_children":[1,3,-1,-1,5,7,-1,-1,-1],"loss_changes":[1.3931356E3,6.757621E2,0E0,0E0,7.7776337E2,2.5386963E0,0E0,0E0,0E0],"parents":[2147483647,0,0,1,1,4,4,5,5],"right_children":[2,4,-1,-1,6,8,-1,-1,-1],"split_conditions":[-6.9930726E-1,-1.5769836E-1,-6.1583716E-2,-6.1823256E-2,-1.18905544E-1,1.0260535E0,-6.1613847E-2,7.883372E-2,-3.6993697E-2],"split_indices":[2,9,0,0,9,5,0,0,0],"split_type":[0,0,0,0,0,0,0,0,0],"sum_hessian":[5.8812905E3,3.5783076E3,2.302983E3,5.6831104E2,3.0099966E3,2.5435713E3,4.6642523E2,2.5422146E3,1.3567407E0],"tree_param":{"num_deleted":"0","num_feature":"10","num_nodes":"9","size_leaf_vector":"1"}},{"base_weights":[2.5330689E-3,1.5365644E-1,-6.546725E-1,6.415987E-1,-8.7933745E-3,-6.715733E-2,-6.1027445E-2,4.2967328E-1,6.520319E-1,5.0090283E-1,-1.9098563E-1,4.9575457E-1,-1.493965E-1,4.3834913E-1,6.606161E-1,6.916698E-1,-6.089142E-2,-3.5659325E-1,4.4826898E-1,-2.0576945E-2,5.192402E-1,1.4577544E-1,-4.769623E-2,5.01613E-1,-4.877071E-2,7.0046735E-1,6.342244E-1,6.974994E-1,2.8237415E-2,4.6203455E-1,-4.84807E-1,6.5821034E-1,-6.05759E-2,-3.301844E-2,2.6164953E-2,5.941626E-2,3.508484E-2,5.1372584E-2,-2.0330146E-2,6.564482E-2,1.6076796E-2,6.825248E-2,8.22235E-2,4.7128256E-2,6.552687E-2,3.7395146E-2,7.078301E-2,-2.2806507E-2,2.9963544E-2,6.549171E-2,-5.9880383E-2,-6.1122626E-2,3.410646E-2,6.660466E-2,2.2550812E-2],"categories":[],"categories_nodes":[],"categories_segments":[],"categories_sizes":[],"default_left":[0,0,0,0,0,0,0,0,0,0,0,0,0,0,0,0,0,0,0,0,0,0,0,0,0,0,0,0,0,0,0,0,0,0,0,0,0,0,0,0,0,0,0,0,0,0,0,0,0,0,0,0,0,0,0],"id":22,"left_children":[1,3,5,7,9,-1,-1,11,13,15,17,19,21,23,25,27,-1,29,31,33,35,37,-1,39,-1,41,43,45,47,49,51,53,-1,-1,-1,-1,-1,-1,-1,-1,-1,-1,-1,-1,-1,-1,-1,-1,-1,-1,-1,-1,-1,-1,-1],"loss_changes":[6.0815234E2,3.946256E2,4.491577E-1,2.4692993E0,3.470247E2,0E0,0E0,2.4188833E0,1.8806763E0,2.0875969E2,2.915957E2,6.804533E-1,7.5069094E-1,3.0959606E0,7.5009155E-1,3.2297058E0,0E0,2.2977173E2,1.2583907E2,3.804118E-1,4.5853424E-1,6.78788E-1,0E0,2.3247347E0,0E0,4.0629578E-1,2.0698547E0,2.518921E0,6.498913E-1,6.1093967E1,1.9767737E2,1.4542999E0,0E0,0E0,0E0,0E0,0E0,0E0,0E0,0E0,0E0,0E0,0E0,0E0,0E0,0E0,0E0,0E0,0E0,0E0,0E0,0E0,0E0,0E0,0E0],"parents":[2147483647,0,0,1,1,2,2,3,3,4,4,7,7,8,8,9,9,10,10,11,11,12,12,13,13,14,14,15,15,17,17,18,18,19,19,20,20,21,21,23,23,25,25,26,26,27,27,28,28,29,29,30,30,31,31],"right_children":[2,4,6,8,10,-1,-1,12,14,16,18,20,22,24,26,28,-1,30,32,34,36,38,-1,40,-1,42,44,46,48,50,52,54,-1,-1,-1,-1,-1,-1,-1,-1,-1,-1,-1,-1,-1,-1,-1,-1,-1,-1,-1,-1,-1,-1,-1],"split_conditions":[1.0143893E0,-7.4330217E-1,6.226505E-1,-1.7752656E0,-4.9571125E-3,-6.715733E-2,-6.1027445E-2,1.2402024E0,-1.1866345E0,6.226505E-1,1.0260535E0,-1.6501321E0,-2.913199E-4,-5.2855474E-1,-8.054507E-1,1.49093E0,-6.089142E-2,-1.5769836E-1,6.226505E-1,1.0260535E0,-7.3791003E-1,-6.438373E-1,-4.769623E-2,6.7336833E-1,-4.877071E-2,-8.7019926E-1,-7.164952E-1,-1.6501321E0,1.0260535E0,6.226505E-1,-1.18905544E-1,4.8586312E-1,-6.05759E-2,-3.301844E-2,2.6164953E-2,5.941626E-2,3.508484E-2,5.1372584E-2,-2.0330146E-2,6.564482E-2,1.6076796E-2,6.825248E-2,8.22235E-2,4.7128256E-2,6.552687E-2,3.7395146E-2,7.078301E-2,-2.2806507E-2,2.9963544E-2,6.549171E-2,-5.9880383E-2,-6.1122626E-2,3.410646E-2,6.660466E-2,2.2550812E-2],"split_indices":[6,8,7,7,0,0,0,3,3,7,5,9,0,7,3,3,0,9,7,5,3,9,0,0,0,3,3,9,5,7,9,8,0,0,0,0,0,0,0,0,0,0,0,0,0,0,0,0,0,0,0,0,0,0,0],"split_type":[0,0,0,0,0,0,0,0,0,0,0,0,0,0,0,0,0,0,0,0,0,0,0,0,0,0,0,0,0,0,0,0,0,0,0,0,0,0,0,0,0,0,0,0,0,0,0,0,0,0,0,0,0,0,0],"sum_hessian":[6.121202E3,4.977419E3,1.1437833E3,1.2424839E3,3.734935E3,8.1819824E2,3.2558505E2,6.0277363E1,1.1822064E3,9.83045E2,2.75189E3,5.4232433E1,6.0449276E0,4.7669044E1,1.1345375E3,8.391755E2,1.438695E2,2.1860151E3,5.658749E2,2.3648567E0,5.1867577E1,3.471609E0,2.5733187E0,4.5049786E1,2.6192598E0,4.418326E2,6.9270483E2,8.31815E2,7.360482E0,2.9566025E2,1.8903549E3,4.7219797E2,9.367689E1,1.046691E0,1.3181658E0,3.4146397E1,1.7721178E1,1.4604877E0,2.0111213E0,3.0340912E1,1.4708872E1,3.9084637E2,5.0986233E1,8.190735E1,6.107975E2,2.6888424E1,8.049266E2,3.8676357E0,3.4928465E0,2.5049727E2,4.516299E1,1.6396305E3,2.5072441E2,4.6326892E2,8.929055E0],"tree_param":{"num_deleted":"0","num_feature":"10","num_nodes":"55","size_leaf_vector":"1"}},{"base_weights":[2.4342444E-3,-3.005251E-1,8.672536E-1,-5.242857E-1,8.102278E-1,9.2469037E-1,7.939703E-2,-6.270472E-2,7.873318E-2,4.9391884E-1,8.427193E-1,9.864219E-2,7.86277E-2,3.4776673E-1,7.648226E-2,8.681952E-2,7.8335024E-2,4.0381554E-1,-1.3259076E-1,4.6859015E-2,7.88774E-3,2.7682537E-2,-4.0887848E-2],"categories":[],"categories_nodes":[],"categories_segments":[],"categories_sizes":[],"default_left":[0,0,0,0,0,0,0,0,0,0,0,0,0,0,0,0,0,0,0,0,0,0,0],"id":23,"left_children":[1,3,5,7,9,11,-1,-1,-1,13,15,-1,-1,17,-1,-1,-1,19,21,-1,-1,-1,-1],"loss_changes":[1.6041532E3,1.1273696E3,5.95166E0,5.0924292E2,7.401245E0,6.781189E0,0E0,0E0,0E0,2.6351109E0,3.6105347E-1,0E0,0E0,1.3843408E0,0E0,0E0,0E0,8.9990187E-1,7.825694E-1,0E0,0E0,0E0,0E0],"parents":[2147483647,0,0,1,1,2,2,3,3,4,4,5,5,9,9,10,10,13,13,17,17,18,18],"right_children":[2,4,6,8,10,12,-1,-1,-1,14,16,-1,-1,18,-1,-1,-1,20,22,-1,-1,-1,-1],"split_conditions":[1.0143893E0,1.6758648E-1,1.6758648E-1,5.443948E-1,3.2795194E-1,5.443948E-1,7.939703E-2,-6.270472E-2,7.873318E-2,5.443948E-1,5.443948E-1,9.864219E-2,7.86277E-2,2.5353676E-1,7.648226E-2,8.681952E-2,7.8335024E-2,1.1000825E0,-1.1953923E0,4.6859015E-2,7.88774E-3,2.7682537E-2,-4.0887848E-2],"split_indices":[6,4,4,8,4,8,0,0,0,8,8,0,0,8,0,0,0,2,1,0,0,0,0],"split_type":[0,0,0,0,0,0,0,0,0,0,0,0,0,0,0,0,0,0,0,0,0,0,0],"sum_hessian":[6.120609E3,4.5332095E3,1.5873995E3,3.7735564E3,7.59653E2,8.834027E2,7.0399677E2,3.499873E3,2.7368323E2,7.227253E1,6.873805E2,6.0669415E2,2.767086E2,4.8428932E1,2.38436E1,4.7145233E2,2.1592816E2,4.351131E1,4.9176207E0,3.5910637E1,7.6006756E0,1.9806519E0,2.9369688E0],"tree_param":{"num_deleted":"0","num_feature":"10","num_nodes":"23","size_leaf_vector":"1"}},{"base_weights":[-1.6828591E-2,4.798257E-1,-6.0412534E-2,-6.0966995E-2,6.1173636E-1,7.4984807E-1,-6.065612E-2,-3.3719458E-2,7.505335E-2],"categories":[],"categories_nodes":[],"categories_segments":[],"categories_sizes":[],"default_left":[0,0,0,0,0,0,0,0,0],"id":24,"left_children":[1,3,-1,-1,5,7,-1,-1,-1],"loss_changes":[1.6253628E3,4.342777E2,0E0,0E0,4.536853E2,2.0557861E0,0E0,0E0,0E0],"parents":[2147483647,0,0,1,1,4,4,5,5],"right_children":[2,4,-1,-1,6,8,-1,-1,-1],"split_conditions":[-1.2234706E0,-1.5769836E-1,-6.0412534E-2,-6.0966995E-2,-1.18905544E-1,-1.356649E0,-6.065612E-2,-3.3719458E-2,7.505335E-2],"split_indices":[4,9,0,0,9,0,0,0,0],"split_type":[0,0,0,0,0,0,0,0,0],"sum_hessian":[5.570358E3,3.018181E3,2.5521768E3,3.255693E2,2.6926118E3,2.418791E3,2.7382062E2,1.2146862E0,2.4175764E3],"tree_param":{"num_deleted":"0","num_feature":"10","num_nodes":"9","size_leaf_vector":"1"}},{"base_weights":[3.7309877E-3,1.4601883E-1,-6.384425E-1,-1.9933394E-1,4.355945E-1,-6.605521E-1,-6.0519356E-2,7.331064E-1,-3.775505E-1,7.2005117E-1,-5.9676856E-1,-6.801708E-2,-5.969668E-2,8.234464E-2,-5.792163E-2,-5.9882194E-1,7.109309E-1,8.032838E-2,-5.9744705E-2,-1.9915503E-1,-6.4339444E-2,-6.0013455E-1,4.780056E-2,8.112549E-2,-5.8348473E-2,-7.044694E-2,-5.665174E-2,-6.0073536E-2,-3.2149956E-2,-1.2768182E-2,8.218513E-2],"categories":[],"categories_nodes":[],"categories_segments":[],"categories_sizes":[],"default_left":[0,0,0,0,0,0,0,0,0,0,0,0,0,0,0,0,0,0,0,0,0,0,0,0,0,0,0,0,0,0,0],"id":25,"left_children":[1,3,5,7,9,11,-1,13,15,17,19,-1,-1,-1,-1,21,23,-1,-1,25,-1,27,-1,-1,-1,29,-1,-1,-1,-1,-1],"loss_changes":[5.3685486E2,4.8108194E2,3.836975E-1,3.6491144E2,7.6877155E2,3.7878418E-1,0E0,4.225969E1,4.442712E2,2.2546399E2,1.0360138E1,0E0,0E0,0E0,0E0,2.4523315E0,4.0962357E1,0E0,0E0,2.8361108E0,0E0,6.311035E-2,0E0,0E0,0E0,2.4637122E0,0E0,0E0,0E0,0E0,0E0],"parents":[2147483647,0,0,1,1,2,2,3,3,4,4,5,5,7,7,8,8,9,9,10,10,15,15,16,16,19,19,21,21,25,25],"right_children":[2,4,6,8,10,12,-1,14,16,18,20,-1,-1,-1,-1,22,24,-1,-1,26,-1,28,-1,-1,-1,30,-1,-1,-1,-1,-1],"split_conditions":[1.0143893E0,-1.2234706E0,1.6758648E-1,-1.5769836E-1,1.6758648E-1,6.226505E-1,-6.0519356E-2,6.226505E-1,-1.18905544E-1,6.226505E-1,3.2795194E-1,-6.801708E-2,-5.969668E-2,8.234464E-2,-5.792163E-2,4.7782084E-1,6.226505E-1,8.032838E-2,-5.9744705E-2,6.226505E-1,-6.4339444E-2,1.7833525E-1,4.780056E-2,8.112549E-2,-5.8348473E-2,1.3249607E0,-5.665174E-2,-6.0073536E-2,-3.2149956E-2,-1.2768182E-2,8.218513E-2],"split_indices":[6,4,4,9,4,7,0,7,9,7,4,0,0,0,0,3,7,0,0,7,0,7,0,0,0,9,0,0,0,0,0],"split_type":[0,0,0,0,0,0,0,0,0,0,0,0,0,0,0,0,0,0,0,0,0,0,0,0,0,0,0,0,0,0,0],"sum_hessian":[5.8733706E3,4.8086743E3,1.0646963E3,2.1932637E3,2.615411E3,6.2813715E2,4.3655914E2,3.514326E2,1.8418309E3,2.0506724E3,5.6473846E2,4.7261798E2,1.5551915E2,3.2914673E2,2.2285849E1,1.5310435E3,3.1078754E2,1.9291868E3,1.214856E2,5.9826298E1,5.0491214E2,1.5296216E3,1.4218688E0,2.8877893E2,2.2008608E1,4.5186604E1,1.4639692E1,1.5251769E3,4.4447165E0,4.3268154E1,1.918452E0],"tree_param":{"num_deleted":"0","num_feature":"10","num_nodes":"31","size_leaf_vector":"1"}},{"base_weights":[1.197011E-2,-2.783578E-1,8.155767E-1,-5.11444E-1,7.8374213E-1,8.640725E-1,7.548371E-2,-6.1456513E-2,7.518217E-2,4.9351776E-1,8.127692E-1,9.132111E-2,7.484581E-2,3.5516313E-1,7.318281E-2,8.402759E-2,7.479183E-2,4.0510428E-1,-5.532172E-2,5.0243806E-2,1.0297419E-2],"categories":[],"categories_nodes":[],"categories_segments":[],"categories_sizes":[],"default_left":[0,0,0,0,0,0,0,0,0,0,0,0,0,0,0,0,0,0,0,0,0],"id":26,"left_children":[1,3,5,7,9,11,-1,-1,-1,13,15,-1,-1,17,-1,-1,-1,19,-1,-1,-1],"loss_changes":[1.362723E3,1.0626161E3,3.9139404E0,4.5890057E2,6.1073E0,4.174011E0,0E0,0E0,0E0,2.140049E0,6.2161255E-1,0E0,0E0,2.401465E0,0E0,0E0,0E0,1.3031173E0,0E0,0E0,0E0],"parents":[2147483647,0,0,1,1,2,2,3,3,4,4,5,5,9,9,10,10,13,13,17,17],"right_children":[2,4,6,8,10,12,-1,-1,-1,14,16,-1,-1,18,-1,-1,-1,20,-1,-1,-1],"split_conditions":[1.0143893E0,1.6758648E-1,1.6758648E-1,5.443948E-1,3.2795194E-1,5.443948E-1,7.548371E-2,-6.1456513E-2,7.518217E-2,5.443948E-1,5.443948E-1,9.132111E-2,7.484581E-2,1.3249607E0,7.318281E-2,8.402759E-2,7.479183E-2,5.1856613E-1,-5.532172E-2,5.0243806E-2,1.0297419E-2],"split_indices":[6,4,4,8,4,8,0,0,0,8,8,0,0,9,0,0,0,2,0,0,0],"split_type":[0,0,0,0,0,0,0,0,0,0,0,0,0,0,0,0,0,0,0,0,0],"sum_hessian":[5.8388677E3,4.2897246E3,1.5491431E3,3.5181562E3,7.7156854E2,8.5403577E2,6.9510736E2,3.2531157E3,2.650404E2,7.178952E1,6.9977905E2,5.944731E2,2.5956265E2,4.699576E1,2.4793755E1,4.829693E2,2.1680975E2,4.507183E1,1.9239327E0,3.358814E1,1.1483692E1],"tree_param":{"num_deleted":"0","num_feature":"10","num_nodes":"21","size_leaf_vector":"1"}},{"base_weights":[-1.2808239E-2,4.668635E-1,-5.9353042E-2,6.223442E-1,-5.947717E-2,-6.009276E-2,6.7913043E-1,7.189291E-2,-5.91832E-2],"categories":[],"categories_nodes":[],"categories_segments":[],"categories_sizes":[],"default_left":[0,0,0,0,0,0,0,0,0],"id":27,"left_children":[1,3,-1,5,-1,-1,7,-1,-1],"loss_changes":[1.4684669E3,4.7691846E2,0E0,1.7537207E2,0E0,0E0,1.22201416E2,0E0,0E0],"parents":[2147483647,0,0,1,1,3,3,6,6],"right_children":[2,4,-1,6,-1,-1,8,-1,-1],"split_conditions":[-1.2234706E0,-6.9930726E-1,-5.9353042E-2,-1.6366929E-1,-5.947717E-2,-6.009276E-2,-1.18905544E-1,7.189291E-2,-5.91832E-2],"split_indices":[4,2,0,9,0,0,9,0,0],"split_type":[0,0,0,0,0,0,0,0,0],"sum_hessian":[5.2697163E3,2.886055E3,2.3836614E3,2.517736E3,3.6831873E2,1.1126732E2,2.4064688E3,2.3338223E3,7.264645E1],"tree_param":{"num_deleted":"0","num_feature":"10","num_nodes":"9","size_leaf_vector":"1"}},{"base_weights":[6.2847165E-3,1.433895E-1,-6.23143E-1,-2.0199205E-1,4.2348495E-1,-6.417749E-1,-5.938634E-2,-4.215156E-1,6.6980153E-1,6.8797797E-1,-5.778961E-1,-6.590608E-2,-5.864798E-2,-4.9903128E-1,6.943526E-1,7.659103E-2,-5.7223875E-2,7.63403E-2,-5.8657862E-2,-1.7647469E-1,-6.2728114E-2,7.611307E-2,-5.397507E-1,7.675817E-2,-5.0830215E-2,-3.6436003E-2,-5.5777144E-2,6.6675924E-2,-5.6251556E-2,-2.9888628E-2,1.8665243E-2],"categories":[],"categories_nodes":[],"categories_segments":[],"categories_sizes":[],"default_left":[0,0,0,0,0,0,0,0,0,0,0,0,0,0,0,0,0,0,0,0,0,0,0,0,0,0,0,0,0,0,0],"id":28,"left_children":[1,3,5,7,9,11,-1,13,15,17,19,-1,-1,21,23,-1,-1,-1,-1,25,-1,-1,27,-1,-1,29,-1,-1,-1,-1,-1],"loss_changes":[4.789568E2,4.409599E2,1.6040039E-1,3.9098212E2,6.6699976E2,1.8147278E-1,0E0,1.414627E2,4.9504807E1,1.9188928E2,1.0324982E1,0E0,0E0,7.871777E1,9.759716E0,0E0,0E0,0E0,0E0,3.1332033E0,0E0,0E0,4.099411E1,0E0,0E0,2.647467E0,0E0,0E0,0E0,0E0,0E0],"parents":[2147483647,0,0,1,1,2,2,3,3,4,4,5,5,7,7,8,8,9,9,10,10,13,13,14,14,19,19,22,22,25,25],"right_children":[2,4,6,8,10,12,-1,14,16,18,20,-1,-1,22,24,-1,-1,-1,-1,26,-1,-1,28,-1,-1,30,-1,-1,-1,-1,-1],"split_conditions":[1.0143893E0,-1.2234706E0,1.6758648E-1,-6.9930726E-1,1.6758648E-1,5.443948E-1,-5.938634E-2,1.0260535E0,5.443948E-1,5.443948E-1,3.2795194E-1,-6.590608E-2,-5.864798E-2,-7.4330217E-1,3.7386042E-1,7.659103E-2,-5.7223875E-2,7.63403E-2,-5.8657862E-2,5.443948E-1,-6.2728114E-2,7.611307E-2,-3.3266643E-1,7.675817E-2,-5.0830215E-2,-2.435915E-1,-5.5777144E-2,6.6675924E-2,-5.6251556E-2,-2.9888628E-2,1.8665243E-2],"split_indices":[6,4,4,2,4,8,0,5,8,8,4,0,0,8,8,0,0,0,0,8,0,0,3,0,0,2,0,0,0,0,0],"split_type":[0,0,0,0,0,0,0,0,0,0,0,0,0,0,0,0,0,0,0,0,0,0,0,0,0,0,0,0,0,0,0],"sum_hessian":[5.548027E3,4.556321E3,9.9170605E2,2.0404952E3,2.5158257E3,5.932668E2,3.984393E2,1.6304526E3,4.1004257E2,1.9904141E3,5.2541156E2,4.436558E2,1.49611E2,1.5250643E3,1.05388374E2,3.8094824E2,2.9094328E1,1.8795859E3,1.10828125E2,5.80589E1,4.673527E2,4.718284E1,1.4778815E3,9.9680626E1,5.7077475E0,4.3264664E1,1.4794235E1,2.6844921E1,1.4510365E3,1.9722523E1,2.3542143E1],"tree_param":{"num_deleted":"0","num_feature":"10","num_nodes":"31","size_leaf_vector":"1"}},{"base_weights":[7.4931504E-3,-2.7769473E-1,7.742736E-1,-5.002636E-1,7.40077E-1,8.1430066E-1,7.222876E-2,-6.0248233E-2,7.196648E-2,4.4917026E-1,7.703771E-1,8.534755E-2,7.166854E-2,3.0106285E-1,7.0934154E-2,7.939001E-2,7.15723E-2,6.2911946E-1,1.8935025E-1,1.3990404E-2,8.259301E-2,-6.8923235E-3,3.8923223E-2],"categories":[],"categories_nodes":[],"categories_segments":[],"categories_sizes":[],"default_left":[0,0,0,0,0,0,0,0,0,0,0,0,0,0,0,0,0,0,0,0,0,0,0],"id":29,"left_children":[1,3,5,7,9,11,-1,-1,-1,13,15,-1,-1,17,-1,-1,-1,19,21,-1,-1,-1,-1],"loss_changes":[1.20914E3,9.1334705E2,2.5310059E0,4.1290845E2,6.0322876E0,2.5969238E0,0E0,0E0,0E0,2.5091639E0,2.725525E-1,0E0,0E0,1.5946875E0,0E0,0E0,0E0,9.867611E-1,1.9015787E0,0E0,0E0,0E0,0E0],"parents":[2147483647,0,0,1,1,2,2,3,3,4,4,5,5,9,9,10,10,13,13,17,17,18,18],"right_children":[2,4,6,8,10,12,-1,-1,-1,14,16,-1,-1,18,-1,-1,-1,20,22,-1,-1,-1,-1],"split_conditions":[1.0143893E0,1.6758648E-1,1.6758648E-1,6.226505E-1,3.2795194E-1,6.226505E-1,7.222876E-2,-6.0248233E-2,7.196648E-2,4.3125942E-1,6.226505E-1,8.534755E-2,7.166854E-2,-1.3471352E0,7.0934154E-2,7.939001E-2,7.15723E-2,-6.812459E-1,-5.5663717E-1,1.3990404E-2,8.259301E-2,-6.8923235E-3,3.8923223E-2],"split_indices":[6,4,4,7,4,7,0,0,0,8,7,0,0,7,0,0,0,0,8,0,0,0,0],"split_type":[0,0,0,0,0,0,0,0,0,0,0,0,0,0,0,0,0,0,0,0,0,0,0],"sum_hessian":[5.527372E3,4.02937E3,1.4980018E3,3.3067502E3,7.226199E2,8.3806335E2,6.599385E2,3.0515637E3,2.5518669E2,6.965893E1,6.5296094E2,5.9252783E2,2.4553552E2,4.576405E1,2.389488E1,4.4703305E2,2.0592787E2,1.0448695E1,3.5315353E1,3.4883938E0,6.960301E0,1.569306E1,1.9622293E1],"tree_param":{"num_deleted":"0","num_feature":"10","num_nodes":"23","size_leaf_vector":"1"}},{"base_weights":[-1.47028025E-2,4.4752645E-1,-5.8408733E-2,5.955713E-1,-5.8495622E-2,-5.9265185E-2,6.508457E-1,6.920935E-2,-5.8309276E-2],"categories":[],"categories_nodes":[],"categories_segments":[],"categories_sizes":[],"default_left":[0,0,0,0,0,0,0,0,0],"id":30,"left_children":[1,3,-1,5,-1,-1,7,-1,-1],"loss_changes":[1.2935419E3,4.150014E2,0E0,1.5624353E2,0E0,0E0,1.1584039E2,0E0,0E0],"parents":[2147483647,0,0,1,1,3,3,6,6],"right_children":[2,4,-1,6,-1,-1,8,-1,-1],"split_conditions":[-1.2234706E0,-6.9930726E-1,-5.8408733E-2,-1.6366929E-1,-5.8495622E-2,-5.9265185E-2,-1.18905544E-1,6.920935E-2,-5.8309276E-2],"split_indices":[4,2,0,9,0,0,9,0,0],"split_type":[0,0,0,0,0,0,0,0,0],"sum_hessian":[4.912938E3,2.7117441E3,2.2011938E3,2.3720461E3,3.3969794E2,1.0500716E2,2.267039E3,2.1941333E3,7.2905785E1],"tree_param":{"num_deleted":"0","num_feature":"10","num_nodes":"9","size_leaf_vector":"1"}},{"base_weights":[6.3703097E-3,1.4200361E-1,-6.0974754E-2,-1.5593803E-1,4.5907062E-1,4.8925588E-1,-3.384606E-1,5.6269073E-1,-5.786654E-2,5.723057E-1,-5.6670476E-2,-5.7742447E-1,4.3098208E-1,5.678103E-1,3.6103815E-1,5.7695925E-1,-2.3766491E-1,-5.797555E-1,5.4004353E-2,5.5620825E-1,-5.7256825E-2,5.7091093E-1,2.4214858E-1,-1.9003111E-1,4.4403264E-1,4.9185153E-2,6.188224E-2,-1.1055032E-3,-3.413872E-2,-2.6413992E-2,-5.8063436E-2,5.6251694E-2,-4.0036883E-2,4.0768392E-2,5.7679143E-2,3.092168E-2,-2.191268E-2,2.851715E-3,-4.596659E-2,4.869316E-2,1.17359064E-4],"categories":[],"categories_nodes":[],"categories_segments":[],"categories_sizes":[],"default_left":[0,0,0,0,0,0,0,0,0,0,0,0,0,0,0,0,0,0,0,0,0,0,0,0,0,0,0,0,0,0,0,0,0,0,0,0,0,0,0,0,0],"id":31,"left_children":[1,3,-1,5,7,9,11,13,-1,15,-1,17,19,21,23,25,27,29,-1,31,-1,33,35,37,39,-1,-1,-1,-1,-1,-1,-1,-1,-1,-1,-1,-1,-1,-1,-1,-1],"loss_changes":[4.3849548E2,4.0633072E2,0E0,2.6134787E2,2.2438058E2,4.325039E1,3.182309E2,1.7513428E0,0E0,1.8494263E0,0E0,3.7514343E0,5.1892517E1,1.7260132E0,2.3558269E0,1.3059998E0,7.3870465E-2,2.1218872E-1,0E0,2.4301224E0,0E0,1.5197144E0,6.601908E-1,4.3745306E-1,8.251581E-1,0E0,0E0,0E0,0E0,0E0,0E0,0E0,0E0,0E0,0E0,0E0,0E0,0E0,0E0,0E0,0E0],"parents":[2147483647,0,0,1,1,3,3,4,4,5,5,6,6,7,7,9,9,11,11,12,12,13,13,14,14,15,15,16,16,17,17,19,19,21,21,22,22,23,23,24,24],"right_children":[2,4,-1,6,8,10,12,14,-1,16,-1,18,20,22,24,26,28,30,-1,32,-1,34,36,38,40,-1,-1,-1,-1,-1,-1,-1,-1,-1,-1,-1,-1,-1,-1,-1,-1],"split_conditions":[1.0143893E0,-6.9930726E-1,-6.0974754E-2,-1.5769836E-1,6.226505E-1,6.226505E-1,-1.18905544E-1,1.6911957E0,-5.786654E-2,1.49093E0,-5.6670476E-2,1.0260535E0,6.226505E-1,1.49093E0,-1.3349197E0,-7.164952E-1,-1.1774584E0,-2.6335275E-1,5.4004353E-2,1.49093E0,-5.7256825E-2,-1.1866345E0,1.1000825E0,-1.6106668E0,9.350674E-1,4.9185153E-2,6.188224E-2,-1.1055032E-3,-3.413872E-2,-2.6413992E-2,-5.8063436E-2,5.6251694E-2,-4.0036883E-2,4.0768392E-2,5.7679143E-2,3.092168E-2,-2.191268E-2,2.851715E-3,-4.596659E-2,4.869316E-2,1.17359064E-4],"split_indices":[6,2,0,9,7,7,9,2,0,3,0,5,7,3,7,3,9,3,0,3,0,3,2,7,0,0,0,0,0,0,0,0,0,0,0,0,0,0,0,0,0],"split_type":[0,0,0,0,0,0,0,0,0,0,0,0,0,0,0,0,0,0,0,0,0,0,0,0,0,0,0,0,0,0,0,0,0,0,0,0,0,0,0,0,0],"sum_hessian":[5.2452534E3,4.299519E3,9.457344E2,2.2168743E3,2.0826448E3,4.8847983E2,1.7283944E3,1.8939843E3,1.8866052E2,4.5328745E2,3.519237E1,1.3190042E3,4.0939026E2,1.8453197E3,4.866461E1,4.5098407E2,2.3033907E0,1.3167386E3,2.265504E0,3.6436893E2,4.5021336E1,1.8271699E3,1.8149712E1,6.201045E0,4.2463566E1,1.52896E2,2.9808807E2,1.0707109E0,1.23268E0,4.4939137E0,1.3122448E3,3.6239087E2,1.9780461E0,6.598264E1,1.7611873E3,1.6133581E1,2.0161319E0,3.9188886E0,2.2821562E0,3.862273E1,3.8408337E0],"tree_param":{"num_deleted":"0","num_feature":"10","num_nodes":"41","size_leaf_vector":"1"}},{"base_weights":[4.48519E-3,-2.661215E-1,7.387443E-1,-4.921821E-1,7.0696396E-1,7.7240765E-1,6.9476336E-2,-5.9195574E-2,6.9231875E-2,4.4367754E-1,7.3580015E-1,8.0446795E-2,6.895789E-2,3.193353E-1,6.728782E-2,7.550123E-2,6.88557E-2,3.9030135E-1,-3.8998005E-1,6.8013944E-2,2.9012788E-2,8.4010017E-4,-6.6028684E-2],"categories":[],"categories_nodes":[],"categories_segments":[],"categories_sizes":[],"default_left":[0,0,0,0,0,0,0,0,0,0,0,0,0,0,0,0,0,0,0,0,0,0,0],"id":32,"left_children":[1,3,5,7,9,11,-1,-1,-1,13,15,-1,-1,17,-1,-1,-1,19,21,-1,-1,-1,-1],"loss_changes":[1.0276534E3,8.3168555E2,1.5255127E0,3.629156E2,5.0856934E0,1.51651E0,0E0,0E0,0E0,1.862359E0,6.188965E-2,0E0,0E0,2.6265774E0,0E0,0E0,0E0,1.1145735E0,5.408374E-1,0E0,0E0,0E0,0E0],"parents":[2147483647,0,0,1,1,2,2,3,3,4,4,5,5,9,9,10,10,13,13,17,17,18,18],"right_children":[2,4,6,8,10,12,-1,-1,-1,14,16,-1,-1,18,-1,-1,-1,20,22,-1,-1,-1,-1],"split_conditions":[1.0143893E0,1.6758648E-1,1.6758648E-1,6.226505E-1,3.2795194E-1,6.226505E-1,6.9476336E-2,-5.9195574E-2,6.9231875E-2,6.226505E-1,6.226505E-1,8.0446795E-2,6.895789E-2,2.931258E-1,6.728782E-2,7.550123E-2,6.88557E-2,-1.3471352E0,1.9831552E-1,6.8013944E-2,2.9012788E-2,8.4010017E-4,-6.6028684E-2],"split_indices":[6,4,4,7,4,7,0,0,0,7,7,0,0,7,0,0,0,7,8,0,0,0,0],"split_type":[0,0,0,0,0,0,0,0,0,0,0,0,0,0,0,0,0,0,0,0,0,0,0],"sum_hessian":[5.170014E3,3.778214E3,1.3918E3,3.0663538E3,7.118603E2,7.7899176E2,6.128082E2,2.8285942E3,2.3775969E2,7.188715E1,6.3997314E2,5.5532983E2,2.2366196E2,4.8155735E1,2.3731422E1,4.443069E2,1.9566626E2,4.418485E1,3.9708855E0,9.861718E0,3.432313E1,1.9968407E0,1.9740448E0],"tree_param":{"num_deleted":"0","num_feature":"10","num_nodes":"23","size_leaf_vector":"1"}},{"base_weights":[-1.8186485E-2,4.3155763E-1,-5.759738E-2,5.728203E-1,-5.767381E-2,-5.8437753E-2,6.291604E-1,6.689254E-2,-5.7398092E-2],"categories":[],"categories_nodes":[],"categories_segments":[],"categories_sizes":[],"default_left":[0,0,0,0,0,0,0,0,0],"id":33,"left_children":[1,3,-1,5,-1,-1,7,-1,-1],"loss_changes":[1.1502842E3,3.619069E2,0E0,1.4556726E2,0E0,0E0,1.0201111E2,0E0,0E0],"parents":[2147483647,0,0,1,1,3,3,6,6],"right_children":[2,4,-1,6,-1,-1,8,-1,-1],"split_conditions":[-1.2234706E0,-6.9930726E-1,-5.759738E-2,-1.6366929E-1,-5.767381E-2,-5.8437753E-2,-1.18905544E-1,6.689254E-2,-5.7398092E-2],"split_indices":[4,2,0,9,0,0,9,0,0],"split_type":[0,0,0,0,0,0,0,0,0],"sum_hessian":[4.5833438E3,2.537546E3,2.0457979E3,2.2261003E3,3.1144568E2,1.0291459E2,2.1231855E3,2.0556873E3,6.749848E1],"tree_param":{"num_deleted":"0","num_feature":"10","num_nodes":"9","size_leaf_vector":"1"}},{"base_weights":[5.070155E-3,1.3417469E-1,-5.9793618E-2,-1.442365E-1,4.261368E-1,-4.0516007E-1,3.8741022E-1,6.330304E-1,-5.520771E-1,6.4522207E-1,-4.6962723E-1,6.3195807E-1,-5.2958393E-1,7.057161E-2,-5.679245E-2,-1.155091E-1,-6.1049778E-2,7.1672976E-2,-4.832848E-2,6.301623E-1,-5.103373E-1,7.042863E-2,-5.5613477E-2,-2.2000547E-2,-6.082633E-2,6.384832E-3,-5.183163E-2,7.1578406E-2,-4.414792E-2,-5.461305E-2,6.61852E-2,1.49975885E-2,-4.8851166E-2,-3.4684055E-2,1.2597683E-2],"categories":[],"categories_nodes":[],"categories_segments":[],"categories_sizes":[],"default_left":[0,0,0,0,0,0,0,0,0,0,0,0,0,0,0,0,0,0,0,0,0,0,0,0,0,0,0,0,0,0,0,0,0,0,0],"id":34,"left_children":[1,3,-1,5,7,9,11,13,15,17,19,21,23,-1,-1,25,-1,-1,-1,27,29,-1,-1,31,-1,33,-1,-1,-1,-1,-1,-1,-1,-1,-1],"loss_changes":[3.8365894E2,3.3000278E2,0E0,2.8848267E2,4.0138916E2,9.474617E1,1.5389436E2,1.4321844E2,8.76606E0,6.8886223E0,5.9181335E1,4.6886368E1,5.7659836E0,0E0,0E0,2.0716476E0,0E0,0E0,0E0,4.662798E0,5.3573364E1,0E0,0E0,1.7146605E0,0E0,1.45152E0,0E0,0E0,0E0,0E0,0E0,0E0,0E0,0E0,0E0],"parents":[2147483647,0,0,1,1,3,3,4,4,5,5,6,6,7,7,8,8,9,9,10,10,11,11,12,12,15,15,19,19,20,20,23,23,25,25],"right_children":[2,4,-1,6,8,10,12,14,16,18,20,22,24,-1,-1,26,-1,-1,-1,28,30,-1,-1,32,-1,34,-1,-1,-1,-1,-1,-1,-1,-1,-1],"split_conditions":[1.0143893E0,-6.9930726E-1,-5.9793618E-2,-1.2234706E0,1.6758648E-1,-4.9571125E-3,1.6758648E-1,6.226505E-1,3.2795194E-1,6.226505E-1,-3.3266643E-1,6.226505E-1,3.2795194E-1,7.057161E-2,-5.679245E-2,6.226505E-1,-6.1049778E-2,7.1672976E-2,-4.832848E-2,5.736167E-1,4.7782084E-1,7.042863E-2,-5.5613477E-2,4.3125942E-1,-6.082633E-2,-2.435915E-1,-5.183163E-2,7.1578406E-2,-4.414792E-2,-5.461305E-2,6.61852E-2,1.49975885E-2,-4.8851166E-2,-3.4684055E-2,1.2597683E-2],"split_indices":[6,2,0,4,4,0,4,7,4,7,3,7,4,0,0,7,0,0,0,7,3,0,0,8,0,2,0,0,0,0,0,0,0,0,0],"split_type":[0,0,0,0,0,0,0,0,0,0,0,0,0,0,0,0,0,0,0,0,0,0,0,0,0,0,0,0,0,0,0,0,0,0,0],"sum_hessian":[4.926097E3,4.058042E3,8.680552E2,2.0774854E3,1.9805566E3,1.3937122E3,6.837733E2,1.6350864E3,3.4547018E2,8.007173E1,1.3136404E3,5.4005896E2,1.4371434E2,1.5421621E3,9.2924255E1,4.1125237E1,3.0434497E2,7.564348E1,4.428249E0,4.6373466E1,1.267267E3,5.0945193E2,3.060703E1,1.9458904E1,1.2425543E2,3.2326904E1,8.798331E0,4.3249958E1,3.1235094E0,1.2302354E3,3.703154E1,1.4713412E1,4.7454925E0,7.695975E0,2.463093E1],"tree_param":{"num_deleted":"0","num_feature":"10","num_nodes":"35","size_leaf_vector":"1"}},{"base_weights":[6.1309235E-3,-2.6164234E-1,7.094812E-1,-4.8627067E-1,6.869071E-1,7.378504E-1,6.71065E-2,-5.8316823E-2,6.690214E-2,3.9180845E-1,7.17516E-1,7.647767E-2,6.663666E-2,4.760757E-1,2.4296721E-2,7.3881276E-2,6.657162E-2,1.8155256E-1,6.7600265E-2,-2.2091208E-1,5.4480314E-2,-2.1380385E-2,5.1440984E-2,5.1955193E-2,-6.1626017E-2],"categories":[],"categories_nodes":[],"categories_segments":[],"categories_sizes":[],"default_left":[0,0,0,0,0,0,0,0,0,0,0,0,0,0,0,0,0,0,0,0,0,0,0,0,0],"id":35,"left_children":[1,3,5,7,9,11,-1,-1,-1,13,15,-1,-1,17,19,-1,-1,21,-1,23,-1,-1,-1,-1,-1],"loss_changes":[9.243468E2,7.577244E2,9.797363E-1,3.2218896E2,5.870331E0,9.6936035E-1,0E0,0E0,0E0,2.0386887E0,1.8746948E-1,0E0,0E0,3.0452309E0,1.8309112E0,0E0,0E0,3.15266E0,0E0,3.1954322E0,0E0,0E0,0E0,0E0,0E0],"parents":[2147483647,0,0,1,1,2,2,3,3,4,4,5,5,9,9,10,10,13,13,14,14,17,17,19,19],"right_children":[2,4,6,8,10,12,-1,-1,-1,14,16,-1,-1,18,20,-1,-1,22,-1,24,-1,-1,-1,-1,-1],"split_conditions":[1.0143893E0,1.6758648E-1,1.6758648E-1,6.226505E-1,3.2795194E-1,6.226505E-1,6.71065E-2,-5.8316823E-2,6.690214E-2,8.074656E-1,6.226505E-1,7.647767E-2,6.663666E-2,-5.5663717E-1,4.3125942E-1,7.3881276E-2,6.657162E-2,-1.1797497E-1,6.7600265E-2,-8.4082305E-1,5.4480314E-2,-2.1380385E-2,5.1440984E-2,5.1955193E-2,-6.1626017E-2],"split_indices":[6,4,4,7,4,7,0,0,0,9,7,0,0,8,8,0,0,0,0,7,0,0,0,0,0],"split_type":[0,0,0,0,0,0,0,0,0,0,0,0,0,0,0,0,0,0,0,0,0,0,0,0,0],"sum_hessian":[4.905919E3,3.5536375E3,1.3522814E3,2.8736167E3,6.800209E2,7.673839E2,5.848974E2,2.651706E3,2.2191069E2,6.520304E1,6.148178E2,5.503731E2,2.1701082E2,5.280086E1,1.2402182E1,4.262914E2,1.8852643E2,2.2121128E1,3.0679735E1,8.821831E0,3.5803516E0,1.0274775E1,1.1846353E1,2.9613085E0,5.860522E0],"tree_param":{"num_deleted":"0","num_feature":"10","num_nodes":"25","size_leaf_vector":"1"}},{"base_weights":[-1.3026144E-2,4.2357042E-1,-5.683297E-2,5.6181604E-1,-5.688099E-2,6.009865E-1,-5.651821E-2,-5.6889396E-2,6.18278E-1,6.3408864E-1,-5.6162804E-2,-5.2687135E-2,6.407611E-2],"categories":[],"categories_nodes":[],"categories_segments":[],"categories_sizes":[],"default_left":[0,0,0,0,0,0,0,0,0,0,0,0,0],"id":36,"left_children":[1,3,-1,5,-1,7,-1,-1,9,11,-1,-1,-1],"loss_changes":[1.039735E3,3.2970706E2,0E0,9.339099E1,0E0,4.156903E1,0E0,0E0,3.7821716E1,1.5693115E1,0E0,0E0,0E0],"parents":[2147483647,0,0,1,1,3,3,5,5,8,8,9,9],"right_children":[2,4,-1,6,-1,8,-1,-1,10,12,-1,-1,-1],"split_conditions":[-1.2234706E0,-6.9930726E-1,-5.683297E-2,1.0260535E0,-5.688099E-2,-3.3266643E-1,-5.651821E-2,-5.6889396E-2,4.7782084E-1,-7.4330217E-1,-5.6162804E-2,-5.2687135E-2,6.407611E-2],"split_indices":[4,2,0,5,0,3,0,0,3,8,0,0,0],"split_type":[0,0,0,0,0,0,0,0,0,0,0,0,0],"sum_hessian":[4.2865713E3,2.3999192E3,1.8866523E3,2.1068533E3,2.9306577E2,2.0365372E3,7.031608E1,2.919813E1,2.0073391E3,1.9812532E3,2.6085945E1,1.0876409E1,1.9703767E3],"tree_param":{"num_deleted":"0","num_feature":"10","num_nodes":"13","size_leaf_vector":"1"}},{"base_weights":[8.366955E-3,1.3286662E-1,-5.8794852E-2,-1.4499298E-1,4.2024767E-1,-3.9624065E-1,3.6547983E-1,6.1267424E-1,-5.2934563E-1,6.761131E-1,-4.9414256E-1,6.11851E-1,-5.2888703E-1,6.806779E-2,-5.6002665E-2,-7.005117E-2,-5.9909757E-2,7.1923085E-2,-4.5361392E-2,-5.646751E-1,6.0485023E-1,6.793558E-2,-5.4697752E-2,-8.47681E-2,-5.956554E-2,3.906673E-2,-5.0475437E-2,-5.6548536E-2,-2.4788054E-2,6.882527E-2,-4.8608445E-2,-2.9127622E-2,6.255715E-2,-1.6848968E-2,2.6322661E-2],"categories":[],"categories_nodes":[],"categories_segments":[],"categories_sizes":[],"default_left":[0,0,0,0,0,0,0,0,0,0,0,0,0,0,0,0,0,0,0,0,0,0,0,0,0,0,0,0,0,0,0,0,0,0,0],"id":37,"left_children":[1,3,-1,5,7,9,11,13,15,17,19,21,23,-1,-1,25,-1,-1,-1,27,29,-1,-1,31,-1,33,-1,-1,-1,-1,-1,-1,-1,-1,-1],"loss_changes":[3.4517038E2,3.0718848E2,0E0,2.510443E2,3.458567E2,1.3802022E2,1.4261777E2,1.2581012E2,1.0182854E1,5.691227E0,9.354062E1,4.0014175E1,4.1011734E0,0E0,0E0,2.0694275E0,0E0,0E0,0E0,1.4993286E-1,6.976057E0,0E0,0E0,3.037361E0,0E0,1.6946019E0,0E0,0E0,0E0,0E0,0E0,0E0,0E0,0E0,0E0],"parents":[2147483647,0,0,1,1,3,3,4,4,5,5,6,6,7,7,8,8,9,9,10,10,11,11,12,12,15,15,19,19,20,20,23,23,25,25],"right_children":[2,4,-1,6,8,10,12,14,16,18,20,22,24,-1,-1,26,-1,-1,-1,28,30,-1,-1,32,-1,34,-1,-1,-1,-1,-1,-1,-1,-1,-1],"split_conditions":[1.0143893E0,-6.9930726E-1,-5.8794852E-2,-1.2234706E0,1.6758648E-1,-1.6366929E-1,1.6758648E-1,6.226505E-1,3.2795194E-1,6.226505E-1,-1.18905544E-1,6.226505E-1,3.2795194E-1,6.806779E-2,-5.6002665E-2,6.226505E-1,-5.9909757E-2,7.1923085E-2,-4.5361392E-2,1.7833525E-1,5.736167E-1,6.793558E-2,-5.4697752E-2,8.074656E-1,-5.956554E-2,5.1856613E-1,-5.0475437E-2,-5.6548536E-2,-2.4788054E-2,6.882527E-2,-4.8608445E-2,-2.9127622E-2,6.255715E-2,-1.6848968E-2,2.6322661E-2],"split_indices":[6,2,0,4,4,9,4,7,4,7,9,7,4,0,0,7,0,0,0,7,7,0,0,9,0,2,0,0,0,0,0,0,0,0,0],"split_type":[0,0,0,0,0,0,0,0,0,0,0,0,0,0,0,0,0,0,0,0,0,0,0,0,0,0,0,0,0,0,0,0,0,0,0],"sum_hessian":[4.6472656E3,3.8452297E3,8.020358E2,1.9552532E3,1.8899767E3,1.3104778E3,6.447754E2,1.5718169E3,3.1815976E2,1.0913859E2,1.2013392E3,5.0576752E2,1.3900784E2,1.4860614E3,8.5755516E1,4.2211895E1,2.7594785E2,1.05476295E2,3.662296E0,1.1293448E3,7.199434E1,4.7831802E2,2.7449492E1,1.8463694E1,1.2054415E2,3.4469574E1,7.7423196E0,1.1256807E3,3.66422E0,6.7224144E1,4.7702003E0,1.4762055E1,3.7016394E0,1.8026575E1,1.6443E1],"tree_param":{"num_deleted":"0","num_feature":"10","num_nodes":"35","size_leaf_vector":"1"}},{"base_weights":[6.7684343E-3,-2.5488985E-1,6.8470514E-1,-4.772479E-1,6.5380317E-1,7.084945E-1,6.5055154E-2,-5.746844E-2,6.491945E-2,3.3320236E-1,6.907716E-1,7.309036E-2,6.462136E-2,1.4390486E-1,5.502608E-1,7.0862286E-2,6.4542584E-2,2.511389E-1,-5.070127E-1,7.13049E-2,4.0226594E-1,4.776562E-2,-1.5789995E-2,-1.2836087E-2,-6.082019E-2,-1.7506506E-2,5.672861E-2],"categories":[],"categories_nodes":[],"categories_segments":[],"categories_sizes":[],"default_left":[0,0,0,0,0,0,0,0,0,0,0,0,0,0,0,0,0,0,0,0,0,0,0,0,0,0,0],"id":38,"left_children":[1,3,5,7,9,11,-1,-1,-1,13,15,-1,-1,17,19,-1,-1,21,23,-1,25,-1,-1,-1,-1,-1,-1],"loss_changes":[8.099913E2,6.660107E2,5.722046E-1,2.9095465E2,7.451538E0,5.5807495E-1,0E0,0E0,0E0,2.7534885E0,1.2298584E-2,0E0,0E0,2.7922664E0,4.783497E-1,0E0,0E0,3.1745195E0,1.4153123E-1,0E0,1.902884E0,0E0,0E0,0E0,0E0,0E0,0E0],"parents":[2147483647,0,0,1,1,2,2,3,3,4,4,5,5,9,9,10,10,13,13,14,14,17,17,18,18,20,20],"right_children":[2,4,6,8,10,12,-1,-1,-1,14,16,-1,-1,18,20,-1,-1,22,24,-1,26,-1,-1,-1,-1,-1,-1],"split_conditions":[1.0143893E0,1.6758648E-1,1.6758648E-1,6.226505E-1,3.2795194E-1,6.226505E-1,6.5055154E-2,-5.746844E-2,6.491945E-2,-7.003758E-3,6.226505E-1,7.309036E-2,6.462136E-2,1.1000825E0,-6.812459E-1,7.0862286E-2,6.4542584E-2,6.896625E-1,1.2672645E0,7.13049E-2,3.2072464E-1,4.776562E-2,-1.5789995E-2,-1.2836087E-2,-6.082019E-2,-1.7506506E-2,5.672861E-2],"split_indices":[6,4,4,7,4,7,0,0,0,7,7,0,0,2,0,0,0,3,2,0,8,0,0,0,0,0,0],"split_type":[0,0,0,0,0,0,0,0,0,0,0,0,0,0,0,0,0,0,0,0,0,0,0,0,0,0,0],"sum_hessian":[4.564235E3,3.2936375E3,1.2705972E3,2.646509E3,6.471285E2,7.3729626E2,5.3330096E2,2.4362637E3,2.1024533E2,6.794058E1,5.7918787E2,5.3431177E2,2.029845E2,3.717932E1,3.076126E1,4.050891E2,1.7409877E2,3.2447933E1,4.731388E0,1.2830341E1,1.7930918E1,2.0775265E1,1.16726675E1,1.4761455E0,3.2552428E0,3.972403E0,1.3958515E1],"tree_param":{"num_deleted":"0","num_feature":"10","num_nodes":"27","size_leaf_vector":"1"}},{"base_weights":[-1.705419E-2,4.0805477E-1,-5.6149997E-2,5.431959E-1,-5.6162756E-2,-5.7064917E-2,5.9638727E-1,6.320602E-2,-5.574292E-2],"categories":[],"categories_nodes":[],"categories_segments":[],"categories_sizes":[],"default_left":[0,0,0,0,0,0,0,0,0],"id":39,"left_children":[1,3,-1,5,-1,-1,7,-1,-1],"loss_changes":[9.1501355E2,2.9122696E2,0E0,1.1581195E2,0E0,0E0,7.6936584E1,0E0,0E0],"parents":[2147483647,0,0,1,1,3,3,6,6],"right_children":[2,4,-1,6,-1,-1,8,-1,-1],"split_conditions":[-1.2234706E0,-6.9930726E-1,-5.6149997E-2,-1.6366929E-1,-5.6162756E-2,-5.7064917E-2,-1.18905544E-1,6.320602E-2,-5.574292E-2],"split_indices":[4,2,0,9,0,0,9,0,0],"split_type":[0,0,0,0,0,0,0,0,0],"sum_hessian":[3.9514268E3,2.219033E3,1.7323937E3,1.9479888E3,2.710443E2,8.8342354E1,1.8596464E3,1.804314E3,5.533238E1],"tree_param":{"num_deleted":"0","num_feature":"10","num_nodes":"9","size_leaf_vector":"1"}},{"base_weights":[6.981849E-3,1.292582E-1,-5.786848E-2,-1.3700616E-1,4.0285265E-1,-3.8673675E-1,3.6435467E-1,5.943339E-1,-5.293289E-1,6.4246976E-1,-4.8658857E-1,5.872475E-1,-5.114378E-1,6.594932E-2,-5.5272277E-2,-1.16599865E-1,-5.876522E-2,6.930189E-2,-4.63538E-2,-5.588385E-2,5.8205986E-1,6.580293E-2,-5.409615E-2,-1.13162175E-1,-5.847695E-2,5.0698142E-2,-4.500981E-1,6.6399984E-2,-4.7639005E-2,-3.4176305E-2,5.406301E-2,-5.329573E-3,4.6000224E-2,-5.8725495E-2,6.821471E-3],"categories":[],"categories_nodes":[],"categories_segments":[],"categories_sizes":[],"default_left":[0,0,0,0,0,0,0,0,0,0,0,0,0,0,0,0,0,0,0,0,0,0,0,0,0,0,0,0,0,0,0,0,0,0,0],"id":40,"left_children":[1,3,-1,5,7,9,11,13,15,17,19,21,23,-1,-1,25,-1,-1,-1,-1,27,-1,-1,29,-1,31,33,-1,-1,-1,-1,-1,-1,-1,-1],"loss_changes":[3.0995416E2,2.608935E2,0E0,2.2743015E2,3.1557764E2,1.24892136E2,1.1822463E2,1.0991437E2,7.189308E0,6.3390884E0,8.5688385E1,3.8847458E1,3.5287895E0,0E0,0E0,2.175265E0,0E0,0E0,0E0,0E0,6.4311275E0,0E0,0E0,3.230624E0,0E0,1.156311E0,9.634495E-1,0E0,0E0,0E0,0E0,0E0,0E0,0E0,0E0],"parents":[2147483647,0,0,1,1,3,3,4,4,5,5,6,6,7,7,8,8,9,9,10,10,11,11,12,12,15,15,20,20,23,23,25,25,26,26],"right_children":[2,4,-1,6,8,10,12,14,16,18,20,22,24,-1,-1,26,-1,-1,-1,-1,28,-1,-1,30,-1,32,34,-1,-1,-1,-1,-1,-1,-1,-1],"split_conditions":[1.0143893E0,-6.9930726E-1,-5.786848E-2,-1.2234706E0,1.6758648E-1,-1.6366929E-1,1.6758648E-1,6.226505E-1,3.2795194E-1,6.226505E-1,-1.18905544E-1,6.226505E-1,3.2795194E-1,6.594932E-2,-5.5272277E-2,-1.111457E-1,-5.876522E-2,6.930189E-2,-4.63538E-2,-5.588385E-2,5.736167E-1,6.580293E-2,-5.409615E-2,8.074656E-1,-5.847695E-2,1.2672645E0,8.074656E-1,6.6399984E-2,-4.7639005E-2,-3.4176305E-2,5.406301E-2,-5.329573E-3,4.6000224E-2,-5.8725495E-2,6.821471E-3],"split_indices":[6,2,0,4,4,9,4,7,4,7,9,7,4,0,0,7,0,0,0,0,7,0,0,9,0,2,9,0,0,0,0,0,0,0,0],"split_type":[0,0,0,0,0,0,0,0,0,0,0,0,0,0,0,0,0,0,0,0,0,0,0,0,0,0,0,0,0,0,0,0,0,0,0],"sum_hessian":[4.3261274E3,3.5795608E3,7.4656665E2,1.8143346E3,1.7652261E3,1.2112386E3,6.03096E2,1.4647179E3,3.0050815E2,1.0663909E2,1.1045995E3,4.8100717E2,1.2208885E2,1.3863883E3,7.8329666E1,3.7578728E1,2.629294E2,1.0233536E2,4.303738E0,1.0350951E3,6.950438E1,4.530033E2,2.8003876E1,1.937942E1,1.0270943E2,2.558973E1,1.1989001E1,6.485619E1,4.6481805E0,1.4712426E1,4.666993E0,2.1098835E1,4.490894E0,9.375126E0,2.613875E0],"tree_param":{"num_deleted":"0","num_feature":"10","num_nodes":"35","size_leaf_vector":"1"}},{"base_weights":[3.995955E-3,-2.556438E-1,6.625909E-1,-4.6963766E-1,6.2695944E-1,6.8358076E-1,6.3309096E-2,-5.6697E-2,6.31896E-2,2.800074E-1,6.6829406E-2,7.0248194E-2,6.288801E-2,1.3617332E-1,6.1415132E-2,4.9076807E-1,1.8046446E-2,1.0220734E-2,7.532434E-2,-2.9912738E-2,1.3877685E-2],"categories":[],"categories_nodes":[],"categories_segments":[],"categories_sizes":[],"default_left":[0,0,0,0,0,0,0,0,0,0,0,0,0,0,0,0,0,0,0,0,0],"id":41,"left_children":[1,3,5,7,9,11,-1,-1,-1,13,-1,-1,-1,15,-1,17,19,-1,-1,-1,-1],"loss_changes":[7.2793414E2,5.7697534E2,3.1256104E-1,2.6389618E2,8.363892E0,2.723999E-1,0E0,0E0,0E0,3.0497327E0,0E0,0E0,0E0,1.954035E0,0E0,1.1133983E0,1.4273007E0,0E0,0E0,0E0,0E0],"parents":[2147483647,0,0,1,1,2,2,3,3,4,4,5,5,9,9,13,13,15,15,16,16],"right_children":[2,4,6,8,10,12,-1,-1,-1,14,-1,-1,-1,16,-1,18,20,-1,-1,-1,-1],"split_conditions":[1.0143893E0,1.6758648E-1,1.6758648E-1,6.226505E-1,3.2795194E-1,6.226505E-1,6.3309096E-2,-5.6697E-2,6.31896E-2,5.065578E-1,6.6829406E-2,7.0248194E-2,6.288801E-2,-1.3471352E0,6.1415132E-2,-1.6798544E0,-8.7019926E-1,1.0220734E-2,7.532434E-2,-2.9912738E-2,1.3877685E-2],"split_indices":[6,4,4,7,4,7,0,0,0,7,0,0,0,7,0,7,3,0,0,0,0],"split_type":[0,0,0,0,0,0,0,0,0,0,0,0,0,0,0,0,0,0,0,0,0],"sum_hessian":[4.254998E3,3.052295E3,1.202703E3,2.457036E3,5.952591E2,6.8975586E2,5.129472E2,2.2580024E3,1.9903345E2,6.419517E1,5.3106396E2,5.0382358E2,1.8593227E2,4.5861404E1,1.8333763E1,1.0671868E1,3.5189533E1,4.862687E0,5.8091817E0,9.294384E0,2.5895151E1],"tree_param":{"num_deleted":"0","num_feature":"10","num_nodes":"21","size_leaf_vector":"1"}},{"base_weights":[-1.9173834E-2,3.9964962E-1,-5.5535544E-2,5.322612E-1,-5.5514343E-2,-5.625088E-2,5.820578E-1,6.1755776E-2,-5.5030763E-2],"categories":[],"categories_nodes":[],"categories_segments":[],"categories_sizes":[],"default_left":[0,0,0,0,0,0,0,0,0],"id":42,"left_children":[1,3,-1,5,-1,-1,7,-1,-1],"loss_changes":[8.2105817E2,2.6021176E2,0E0,9.861682E1,0E0,0E0,6.9683105E1,0E0,0E0],"parents":[2147483647,0,0,1,1,3,3,6,6],"right_children":[2,4,-1,6,-1,-1,8,-1,-1],"split_conditions":[-1.2234706E0,-6.9930726E-1,-5.5535544E-2,-1.6366929E-1,-5.5514343E-2,-5.625088E-2,-1.18905544E-1,6.1755776E-2,-5.5030763E-2],"split_indices":[4,2,0,9,0,0,9,0,0],"split_type":[0,0,0,0,0,0,0,0,0],"sum_hessian":[3.654221E3,2.0517825E3,1.6024386E3,1.8019513E3,2.4983113E2,7.7949425E1,1.7240018E3,1.6720376E3,5.1964256E1],"tree_param":{"num_deleted":"0","num_feature":"10","num_nodes":"9","size_leaf_vector":"1"}},{"base_weights":[8.829969E-3,1.2830026E-1,-5.7037264E-2,4.8316E-1,-5.4327524E-3,3.148227E-1,4.9165753E-1,3.788886E-1,-1.57021E-1,3.5418537E-1,-1.5331952E-1,3.12816E-1,4.9824485E-1,5.083517E-1,-5.46646E-2,-3.0320644E-1,3.4632632E-1,4.1486487E-1,2.0604908E-1,-4.1534074E-2,2.4741594E-2,3.7322095E-1,-1.6061419E-1,4.993708E-1,7.957381E-3,5.1313263E-1,1.6151717E-2,3.534165E-1,-4.2508566E-1,4.9100804E-1,-5.428059E-2,5.0754767E-2,2.8184732E-2,-2.0203637E-3,3.4106802E-2,4.812965E-2,3.591689E-3,-4.0562294E-2,1.7402476E-2,3.5364732E-2,5.0352074E-2,2.4181074E-2,5.2292567E-2,-2.2940345E-2,2.7253276E-2,4.8691414E-2,-5.3315204E-2,-5.5045273E-2,2.5681257E-2,4.979522E-2,6.4010173E-3],"categories":[],"categories_nodes":[],"categories_segments":[],"categories_sizes":[],"default_left":[0,0,0,0,0,0,0,0,0,0,0,0,0,0,0,0,0,0,0,0,0,0,0,0,0,0,0,0,0,0,0,0,0,0,0,0,0,0,0,0,0,0,0,0,0,0,0,0,0,0,0],"id":43,"left_children":[1,3,-1,5,7,9,11,13,15,17,19,21,23,25,-1,27,29,31,33,-1,-1,35,37,39,-1,41,43,45,47,49,-1,-1,-1,-1,-1,-1,-1,-1,-1,-1,-1,-1,-1,-1,-1,-1,-1,-1,-1,-1,-1],"loss_changes":[2.7767273E2,1.5786797E2,0E0,1.1476746E0,1.4087126E2,9.117985E-1,8.6317444E-1,8.223325E1,1.27699165E2,3.030753E-1,5.550142E-1,1.0155442E0,3.527527E-1,1.404953E0,0E0,1.0773326E2,5.0531006E1,2.2284222E-1,4.5130754E-1,0E0,0E0,1.0739841E0,4.3791646E-1,3.239441E-1,0E0,1.4538269E0,4.9124327E-1,2.5233076E1,9.710991E1,9.6611786E-1,0E0,0E0,0E0,0E0,0E0,0E0,0E0,0E0,0E0,0E0,0E0,0E0,0E0,0E0,0E0,0E0,0E0,0E0,0E0,0E0,0E0],"parents":[2147483647,0,0,1,1,3,3,4,4,5,5,6,6,7,7,8,8,9,9,10,10,11,11,12,12,13,13,15,15,16,16,17,17,18,18,21,21,22,22,23,23,25,25,26,26,27,27,28,28,29,29],"right_children":[2,4,-1,6,8,10,12,14,16,18,20,22,24,26,-1,28,30,32,34,-1,-1,36,38,40,-1,42,44,46,48,50,-1,-1,-1,-1,-1,-1,-1,-1,-1,-1,-1,-1,-1,-1,-1,-1,-1,-1,-1,-1,-1],"split_conditions":[1.0143893E0,-7.4330217E-1,-5.7037264E-2,-1.7752656E0,-4.9571125E-3,1.2402024E0,-1.1866345E0,6.226505E-1,1.0260535E0,-7.3791003E-1,-1.7968724E0,-8.4082305E-1,-3.580265E-1,1.49093E0,-5.46646E-2,-1.5769836E-1,6.226505E-1,1.0260535E0,6.896625E-1,-4.1534074E-2,2.4741594E-2,6.7336833E-1,-1.6366929E-1,-1.6501321E0,7.957381E-3,-1.6501321E0,8.074656E-1,6.226505E-1,-1.18905544E-1,4.8586312E-1,-5.428059E-2,5.0754767E-2,2.8184732E-2,-2.0203637E-3,3.4106802E-2,4.812965E-2,3.591689E-3,-4.0562294E-2,1.7402476E-2,3.5364732E-2,5.0352074E-2,2.4181074E-2,5.2292567E-2,-2.2940345E-2,2.7253276E-2,4.8691414E-2,-5.3315204E-2,-5.5045273E-2,2.5681257E-2,4.979522E-2,6.4010173E-3],"split_indices":[6,8,0,7,0,3,3,7,5,3,8,7,7,3,0,9,7,5,3,0,0,0,9,9,0,9,9,7,9,8,0,0,0,0,0,0,0,0,0,0,0,0,0,0,0,0,0,0,0,0,0],"split_type":[0,0,0,0,0,0,0,0,0,0,0,0,0,0,0,0,0,0,0,0,0,0,0,0,0,0,0,0,0,0,0,0,0,0,0,0,0,0,0,0,0,0,0,0,0,0,0,0,0,0,0],"sum_hessian":[4.0106982E3,3.32553E3,6.8516815E2,9.0951776E2,2.4160122E3,4.5533855E1,8.639839E2,6.8297296E2,1.7330393E3,4.2226738E1,3.3071156E0,3.2415466E1,8.315684E2,5.9955804E2,8.341495E1,1.3433054E3,3.8973392E2,2.867879E1,1.3547951E1,1.9776086E0,1.3295071E0,2.893528E1,3.4801855E0,8.2914575E2,2.422645E0,5.937481E2,5.8099217E0,2.100052E2,1.1333002E3,3.3557596E2,5.4157955E1,1.5242566E1,1.3436222E1,5.3811173E0,8.166833E0,2.1590559E1,7.3447213E0,1.8867005E0,1.5934849E0,2.534576E1,8.038E2,2.157899E1,5.721691E2,3.0213628E0,2.788559E0,1.829133E2,2.709191E1,9.5746326E2,1.7583696E2,3.300424E2,5.5335894E0],"tree_param":{"num_deleted":"0","num_feature":"10","num_nodes":"51","size_leaf_vector":"1"}},{"base_weights":[5.067518E-3,-2.4678041E-1,6.435014E-1,-4.6270382E-1,6.085513E-1,6.6122365E-1,6.1772544E-2,-5.602626E-2,6.164775E-2,2.9463592E-1,6.482279E-2,6.781021E-2,6.1391074E-2,1.6673304E-1,5.9420485E-2,4.2544392E-1,9.387285E-2,7.373619E-2,-1.4918449E-2,-1.2772949E-2,2.7832834E-2],"categories":[],"categories_nodes":[],"categories_segments":[],"categories_sizes":[],"default_left":[0,0,0,0,0,0,0,0,0,0,0,0,0,0,0,0,0,0,0,0,0],"id":44,"left_children":[1,3,5,7,9,11,-1,-1,-1,13,-1,-1,-1,15,-1,17,19,-1,-1,-1,-1],"loss_changes":[6.356757E2,5.238896E2,1.0244751E-1,2.3873288E2,6.9318695E0,1.0159302E-1,0E0,0E0,0E0,2.4299297E0,0E0,0E0,0E0,8.581641E-1,0E0,1.9358152E0,1.6075826E0,0E0,0E0,0E0,0E0],"parents":[2147483647,0,0,1,1,2,2,3,3,4,4,5,5,9,9,13,13,15,15,16,16],"right_children":[2,4,6,8,10,12,-1,-1,-1,14,-1,-1,-1,16,-1,18,20,-1,-1,-1,-1],"split_conditions":[1.0143893E0,1.6758648E-1,1.6758648E-1,6.226505E-1,3.2795194E-1,6.226505E-1,6.1772544E-2,-5.602626E-2,6.164775E-2,6.226505E-1,6.482279E-2,6.781021E-2,6.1391074E-2,-1.3471352E0,5.9420485E-2,1.0260535E0,-4.877645E-1,7.373619E-2,-1.4918449E-2,-1.2772949E-2,2.7832834E-2],"split_indices":[6,4,4,7,4,7,0,0,0,7,0,0,0,7,0,5,7,0,0,0,0],"split_type":[0,0,0,0,0,0,0,0,0,0,0,0,0,0,0,0,0,0,0,0,0],"sum_hessian":[3.9515085E3,2.8341235E3,1.117385E3,2.263241E3,5.708827E2,6.47526E2,4.6985907E2,2.0760457E3,1.8719522E2,6.50043E1,5.058784E2,4.6743933E2,1.8008664E2,4.664535E1,1.8358953E1,9.1865835E0,3.7458767E1,5.7708635E0,3.41572E0,1.7155687E1,2.030308E1],"tree_param":{"num_deleted":"0","num_feature":"10","num_nodes":"21","size_leaf_vector":"1"}},{"base_weights":[-1.8437287E-2,3.924541E-1,-5.5012938E-2,5.2259445E-1,-5.4975506E-2,-5.5677623E-2,5.7201785E-1,6.0449757E-2,-5.4358978E-2],"categories":[],"categories_nodes":[],"categories_segments":[],"categories_sizes":[],"default_left":[0,0,0,0,0,0,0,0,0],"id":45,"left_children":[1,3,-1,5,-1,-1,7,-1,-1],"loss_changes":[7.4484485E2,2.3610925E2,0E0,9.0490234E1,0E0,0E0,5.891272E1,0E0,0E0],"parents":[2147483647,0,0,1,1,3,3,6,6],"right_children":[2,4,-1,6,-1,-1,8,-1,-1],"split_conditions":[-1.2234706E0,-6.9930726E-1,-5.5012938E-2,-1.6366929E-1,-5.4975506E-2,-5.5677623E-2,-1.18905544E-1,6.0449757E-2,-5.4358978E-2],"split_indices":[4,2,0,9,0,0,9,0,0],"split_type":[0,0,0,0,0,0,0,0,0],"sum_hessian":[3.4074167E3,1.9222019E3,1.4852148E3,1.6893148E3,2.3288716E2,7.3515884E1,1.615799E3,1.5705327E3,4.5266212E1],"tree_param":{"num_deleted":"0","num_feature":"10","num_nodes":"9","size_leaf_vector":"1"}},{"base_weights":[1.4103637E-2,1.3095364E-1,-5.6308683E-2,-1.2647046E-1,3.8669613E-1,-3.653421E-1,3.4007967E-1,5.7030374E-1,-5.040552E-1,5.1602536E-1,-4.3868533E-1,5.6187606E-1,-4.9507368E-1,6.272743E-2,-5.4050725E-2,-4.6394963E-2,-5.7679903E-2,6.23424E-2,2.3370135E-1,5.1883256E-1,-4.8845795E-1,6.255888E-2,-5.2672654E-2,-5.7560064E-2,-5.73793E-2,4.3866754E-2,-4.7150712E-2,6.685405E-2,-4.5280304E-2,6.2069077E-2,-4.505102E-2,-5.2713115E-2,5.0628312E-2,2.6220758E-2,-2.6716292E-2,1.4661322E-2,-2.4187166E-2],"categories":[],"categories_nodes":[],"categories_segments":[],"categories_sizes":[],"default_left":[0,0,0,0,0,0,0,0,0,0,0,0,0,0,0,0,0,0,0,0,0,0,0,0,0,0,0,0,0,0,0,0,0,0,0,0,0],"id":46,"left_children":[1,3,-1,5,7,9,11,13,15,17,19,21,23,-1,-1,25,-1,-1,27,29,31,-1,-1,33,-1,35,-1,-1,-1,-1,-1,-1,-1,-1,-1,-1,-1],"loss_changes":[2.5398195E2,2.0622006E2,0E0,1.7414172E2,2.572571E2,6.7014465E1,9.831555E1,8.280774E1,8.930458E0,2.274908E0,4.5736588E1,2.9367386E1,3.8103905E0,0E0,0E0,1.4783039E0,0E0,0E0,7.3476305E0,4.9836082E0,3.5186737E1,0E0,0E0,1.2850941E0,0E0,9.822496E-1,0E0,0E0,0E0,0E0,0E0,0E0,0E0,0E0,0E0,0E0,0E0],"parents":[2147483647,0,0,1,1,3,3,4,4,5,5,6,6,7,7,8,8,9,9,10,10,11,11,12,12,15,15,18,18,19,19,20,20,23,23,25,25],"right_children":[2,4,-1,6,8,10,12,14,16,18,20,22,24,-1,-1,26,-1,-1,28,30,32,-1,-1,34,-1,36,-1,-1,-1,-1,-1,-1,-1,-1,-1,-1,-1],"split_conditions":[1.0143893E0,-6.9930726E-1,-5.6308683E-2,-1.2234706E0,1.6758648E-1,-8.4082305E-1,1.6758648E-1,6.226505E-1,3.2795194E-1,-7.4330217E-1,-3.3266643E-1,6.226505E-1,3.2795194E-1,6.272743E-2,-5.4050725E-2,6.226505E-1,-5.7679903E-2,6.23424E-2,7.502774E-2,6.226505E-1,4.7782084E-1,6.255888E-2,-5.2672654E-2,-1.3472446E0,-5.73793E-2,-2.913199E-4,-4.7150712E-2,6.685405E-2,-4.5280304E-2,6.2069077E-2,-4.505102E-2,-5.2713115E-2,5.0628312E-2,2.6220758E-2,-2.6716292E-2,1.4661322E-2,-2.4187166E-2],"split_indices":[6,2,0,4,4,7,4,7,4,8,3,7,4,0,0,7,0,0,3,7,3,0,0,2,0,0,0,0,0,0,0,0,0,0,0,0,0],"split_type":[0,0,0,0,0,0,0,0,0,0,0,0,0,0,0,0,0,0,0,0,0,0,0,0,0,0,0,0,0,0,0,0,0,0,0,0,0],"sum_hessian":[3.7636875E3,3.1306687E3,6.330188E2,1.5604568E3,1.5702119E3,1.0321946E3,5.282622E2,1.3021615E3,2.6805045E2,7.883203E1,9.5336255E2,4.176672E2,1.1059504E2,1.2390492E3,6.3112247E1,3.6987206E1,2.3106323E2,5.6232487E1,2.2599545E1,4.6642246E1,9.067203E2,3.9497574E2,2.269145E1,1.7128407E1,9.346664E1,3.1249075E1,5.7381325E0,1.3851821E1,8.747725E0,4.2532616E1,4.109633E0,8.732408E2,3.3479492E1,6.682575E0,1.0445831E1,2.3342443E1,7.906632E0],"tree_param":{"num_deleted":"0","num_feature":"10","num_nodes":"37","size_leaf_vector":"1"}},{"base_weights":[8.186776E-3,-2.3678535E-1,6.274363E-2,-4.601052E-1,6.0917616E-1,-5.546561E-2,6.040116E-2,3.7363675E-1,6.3859984E-2,2.891586E-1,5.8764815E-2,5.9823453E-1,1.9104071E-1,8.775089E-3,7.3579736E-2,-2.7971616E-2,2.3946857E-2],"categories":[],"categories_nodes":[],"categories_segments":[],"categories_sizes":[],"default_left":[0,0,0,0,0,0,0,0,0,0,0,0,0,0,0,0,0],"id":47,"left_children":[1,3,-1,5,7,-1,-1,9,-1,11,-1,13,15,-1,-1,-1,-1],"loss_changes":[5.595214E2,4.9957492E2,0E0,2.1076657E2,3.5897522E0,0E0,0E0,9.826851E-1,0E0,1.3316028E0,0E0,7.092607E-1,9.2552197E-1,0E0,0E0,0E0,0E0],"parents":[2147483647,0,0,1,1,3,3,4,4,7,7,9,9,11,11,12,12],"right_children":[2,4,-1,6,8,-1,-1,10,-1,12,-1,14,16,-1,-1,-1,-1],"split_conditions":[1.0143893E0,1.6758648E-1,6.274363E-2,6.226505E-1,3.2795194E-1,-5.546561E-2,6.040116E-2,4.3125942E-1,6.3859984E-2,-1.3471352E0,5.8764815E-2,-1.356649E0,-1.3472446E0,8.775089E-3,7.3579736E-2,-2.7971616E-2,2.3946857E-2],"split_indices":[6,4,0,7,4,0,0,8,0,7,0,0,2,0,0,0,0],"split_type":[0,0,0,0,0,0,0,0,0,0,0,0,0,0,0,0,0],"sum_hessian":[3.68639E3,2.641889E3,1.044501E3,2.0904902E3,5.5139874E2,1.9203394E3,1.7015086E2,6.2752964E1,4.8864575E2,4.6678417E1,1.6074547E1,1.0019483E1,3.6658936E1,2.4745471E0,7.5449357E0,2.9739418E0,3.3684994E1],"tree_param":{"num_deleted":"0","num_feature":"10","num_nodes":"17","size_leaf_vector":"1"}},{"base_weights":[-2.2779617E-2,2.8699225E-1,-5.4527994E-2,-5.4708328E-2,4.3236306E-1,5.9082055E-1,-5.440546E-2,-4.7904667E-2,5.922572E-2],"categories":[],"categories_nodes":[],"categories_segments":[],"categories_sizes":[],"default_left":[0,0,0,0,0,0,0,0,0],"id":48,"left_children":[1,3,-1,-1,5,7,-1,-1,-1],"loss_changes":[5.057431E2,2.3809349E2,0E0,0E0,2.588756E2,2.4943542E0,0E0,0E0,0E0],"parents":[2147483647,0,0,1,1,4,4,5,5],"right_children":[2,4,-1,-1,6,8,-1,-1,-1],"split_conditions":[-6.9930726E-1,-1.5769836E-1,-5.4527994E-2,-5.4708328E-2,-1.18905544E-1,-6.0282886E-1,-5.440546E-2,-4.7904667E-2,5.922572E-2],"split_indices":[2,9,0,0,9,3,0,0,0],"split_type":[0,0,0,0,0,0,0,0,0],"sum_hessian":[3.1226836E3,1.9607031E3,1.1619806E3,2.9060016E2,1.6701029E3,1.4372538E3,2.3284918E2,1.4815415E0,1.4357722E3],"tree_param":{"num_deleted":"0","num_feature":"10","num_nodes":"9","size_leaf_vector":"1"}},{"base_weights":[5.3234533E-3,1.1918757E-1,-5.565986E-2,-1.5546624E-1,3.2471296E-1,5.53991E-1,-3.1991002E-1,5.5567074E-1,-5.05978E-1,6.250843E-2,-5.1102974E-2,-5.401166E-1,5.474917E-1,6.1257947E-2,-5.360737E-2,-1.3750058E-1,-5.695185E-2,-5.4127086E-2,-1.5442967E-1,6.143091E-2,-5.0865065E-2,-5.9248473E-2,-4.9341377E-2,-3.486439E-2,1.8408379E-2,-1.5835358E-2,3.2353003E-2],"categories":[],"categories_nodes":[],"categories_segments":[],"categories_sizes":[],"default_left":[0,0,0,0,0,0,0,0,0,0,0,0,0,0,0,0,0,0,0,0,0,0,0,0,0,0,0],"id":49,"left_children":[1,3,-1,5,7,9,11,13,15,-1,-1,17,19,-1,-1,21,-1,-1,23,-1,-1,25,-1,-1,-1,-1,-1],"loss_changes":[2.2160384E2,1.6261526E2,0E0,1.4406348E2,3.1637427E2,1.7918991E1,1.9166183E2,8.045224E1,8.325783E0,0E0,0E0,2.7235413E-1,1.4662281E1,0E0,0E0,1.4778204E0,0E0,0E0,3.1300834E-1,0E0,0E0,1.777101E0,0E0,0E0,0E0,0E0,0E0],"parents":[2147483647,0,0,1,1,3,3,4,4,5,5,6,6,7,7,8,8,11,11,12,12,15,15,18,18,21,21],"right_children":[2,4,-1,6,8,10,12,14,16,-1,-1,18,20,-1,-1,22,-1,-1,24,-1,-1,26,-1,-1,-1,-1,-1],"split_conditions":[1.0143893E0,-1.2234706E0,-5.565986E-2,-1.5769836E-1,1.6758648E-1,6.226505E-1,-1.18905544E-1,6.226505E-1,3.2795194E-1,6.250843E-2,-5.1102974E-2,1.7833525E-1,6.226505E-1,6.1257947E-2,-5.360737E-2,6.226505E-1,-5.695185E-2,-5.4127086E-2,-2.913199E-4,6.143091E-2,-5.0865065E-2,8.074656E-1,-4.9341377E-2,-3.486439E-2,1.8408379E-2,-1.5835358E-2,3.2353003E-2],